x,y,z,yaw,velocity,change_flag,look_ahead
-16.8781,2.5036,0.8476,-1.6524,3.3995990789089046,0,0.7
-16.9505,2.0019,0.8636,-1.6994,3.5005128119112388,0,0.7
-16.9748,1.4978,0.7899,-1.7977,3.806866320404689,0,0.6
-17.1171,1.0121,0.8071,-1.9321,3.8096922818473864,0,0.6
-17.317,0.5274,0.7825,-2.0763,3.8939526694835287,0,0.6
-17.5693,0.0733,0.8157,-2.1273,3.8050166433296475,0,0.6
-17.8459,-0.3699,0.8158,-2.1222,3.6722920520985793,0,0.7
-18.1157,-0.8157,0.8586,-2.0563,3.1418131720926694,0,0.8
-18.3249,-1.2823,0.8251,-1.9736,2.9009687489551492,0,0.8
-18.5206,-1.7957,0.8406,-1.8677,3.075618318492851,0,0.8
-18.6269,-2.291,0.8793,-1.7547,3.5689009754850103,0,0.7
-18.7274,-2.8169999999999997,0.925,-1.6483,3.905124054720945,0,0.6
-18.7534,-3.3435,0.9074,-1.6265,4.2616577854705024,0,0.5
-18.7832,-3.85,0.9097,-1.6163,4.6859926485216095,0,0.5
-18.7669,-4.4009,0.8968,-1.6079,4.677177974213743,0,0.5
-18.8026,-4.9030000000000005,0.9137,-1.6033,4.223564230717948,0,0.6
-18.8173,-5.4168,0.8993,-1.5997,4.017848770681944,0,0.6
-18.8003,-5.9316,0.9201,-1.5927,4.260335490061552,0,0.5
-18.8303,-6.4421,0.9334,-1.5771,4.362782860944808,0,0.5
-18.8106,-6.9691,0.9265,-1.5669,4.4938061343264755,0,0.5
-18.804000000000002,-7.4718,0.9281,-1.5593,4.871570374532855,0,0.4
-18.7646,-7.984,0.9022,-1.5562,5.081813089564662,0,0.4
-18.7582,-8.5108,0.9478,-1.5581,5.055348934361262,0,0.4
-18.7335,-9.0151,0.9161,-1.5619999999999998,4.96563597606525,0,0.4
-18.762999999999998,-9.5214,0.9476,-1.5632,4.923194318026638,0,0.4
-18.7148,-10.0299,0.9742,-1.5645,4.655415384495781,0,0.5
-18.7313,-10.557,0.9957,-1.5671,4.635191284000669,0,0.5
-18.6921,-11.0584,1.0127,-1.5729,4.698366442888545,0,0.5
-18.6724,-11.5674,1.0307,-1.5771,4.892119099981073,0,0.4
-18.6698,-12.1024,1.0389,-1.579,5.0182803138145315,0,0.4
-18.6704,-12.627,1.0585,-1.5821,5.3966220627617805,0,0.3
-18.6689,-13.1491,1.0743,-1.5889,5.408192187108762,0,0.3
-18.6672,-13.7036,1.0939,-1.5946,5.397733746458966,0,0.3
-18.6674,-14.2091,1.1035,-1.5977,5.43211531100751,0,0.3
-18.6886,-14.7488,1.1384,-1.5909,5.676760465651803,0,0.3
-18.6968,-15.2702,1.1403,-1.5826,5.547343085810933,0,0.3
-18.6836,-15.7899,1.1528,-1.5746,5.640391723286713,0,0.3
-18.676,-16.3452,1.1706,-1.5692,5.303770201779515,0,0.3
-18.6481,-16.8804,1.1833,-1.5642,4.898908438649676,0,0.4
-18.6391,-17.3954,1.1887,-1.5624,4.6348494513850405,0,0.5
-18.6629,-17.9238,1.2364,-1.5673,4.752501827367304,0,0.4
-18.6273,-18.4548,1.2423,-1.5716,4.680189052105821,0,0.5
-18.6101,-18.9711,1.2535,-1.5735,5.099064814124757,0,0.4
-18.6322,-19.5167,1.2578,-1.5774,5.266109775445937,0,0.3
-18.6364,-20.022000000000002,1.2782,-1.5814,5.393159503179901,0,0.3
-18.646,-20.5309,1.3106,-1.5828,5.385577427312494,0,0.3
-18.6078,-21.0575,1.2968,-1.5831,5.388419858329087,0,0.3
-18.6127,-21.5801,1.3419999999999999,-1.5862,5.2624680468115805,0,0.3
-18.6204,-22.1022,1.3556,-1.5876,5.217935508442462,0,0.4
-18.6216,-22.6325,1.3689,-1.5845,5.149645416804107,0,0.4
-18.6227,-23.1701,1.3752,-1.5799,5.02037758761628,0,0.4
-18.5989,-23.7355,1.3961,-1.5764,5.032917795032239,0,0.4
-18.595,-24.2524,1.4057,-1.578,5.174366577448769,0,0.4
-18.6057,-24.7689,1.4511,-1.5801,5.452718376202,0,0.3
-18.5945,-25.2959,1.462,-1.5813,5.677100295845075,0,0.3
-18.5692,-25.8232,1.4593,-1.5839,5.840034850064834,0,0.2
-18.6016,-26.3658,1.4725,-1.5830000000000002,6.0,0,0.2
-18.5864,-26.9305,1.4754,-1.5829,5.899294426916968,0,0.2
-18.5958,-27.4629,1.4751,-1.5816,5.873089005036926,0,0.2
-18.5825,-27.9993,1.4923,-1.5813,5.609683724544886,0,0.3
-18.5688,-28.5341,1.5293,-1.5815,5.43557817406871,0,0.3
-18.5647,-29.0738,1.5579,-1.5811,5.437666535415122,0,0.3
-18.5765,-29.6255,1.5718,-1.5804,5.509917149079022,0,0.3
-18.5735,-30.1674,1.5647,-1.5867,5.393493392998623,0,0.3
-18.6002,-30.6794,1.5848,-1.5952,5.450941522532095,0,0.3
-18.5624,-31.1957,1.6149,-1.5917,5.646709990093956,0,0.3
-18.5883,-31.7319,1.6354,-1.5899,5.51973940514346,0,0.3
-18.5683,-32.236999999999995,1.6496,-1.5915,5.537026259540697,0,0.3
-18.5497,-32.7794,1.6689,-1.5930000000000002,5.674959368922384,0,0.3
-18.566,-33.3278,1.6711,-1.5854,5.595971731294117,0,0.3
-18.5739,-33.8825,1.6806,-1.5788,5.540649410048896,0,0.3
-18.5506,-34.412,1.7073,-1.5737,5.494767137294841,0,0.3
-18.545,-34.9203,1.7126,-1.5703,5.448432315723809,0,0.3
-18.5175,-35.4801,1.7454,-1.5673,5.459699111599397,0,0.3
-18.5322,-36.0128,1.7526,-1.5657,5.587546959349735,0,0.3
-18.5039,-36.5142,1.7645,-1.5649,5.667817924288041,0,0.3
-18.4979,-37.0688,1.8058,-1.5643,5.776296494430003,0,0.2
-18.4798,-37.59,1.8308,-1.5661,5.867068458524828,0,0.2
-18.4705,-38.1042,1.8327,-1.568,5.777213479752779,0,0.2
-18.4369,-38.6268,1.8646,-1.5689,5.756348140994511,0,0.2
-18.4421,-39.1657,1.8934,-1.5696,5.484796495214162,0,0.3
-18.4378,-39.6894,1.9209,-1.5716,5.403895105107465,0,0.3
-18.43,-40.2165,1.9148,-1.5753,5.158553548114478,0,0.4
-18.4005,-40.7561,1.9582,-1.58,5.090815805346086,0,0.4
-18.4041,-41.2565,1.9745,-1.5832,5.0469290199551855,0,0.4
-18.42,-41.7891,1.9773,-1.5854,5.333103079969037,0,0.3
-18.4122,-42.3006,2.0066,-1.5874,5.443429487683013,0,0.3
-18.4007,-42.806999999999995,2.0234,-1.5861,5.693484198551995,0,0.3
-18.4095,-43.3103,2.0481,-1.5827,5.955429828929089,0,0.2
-18.3809,-43.8702,2.0553,-1.5808,6.0,0,0.2
-18.3944,-44.3854,2.089,-1.5772,5.977719943962647,0,0.2
-18.3852,-44.952,2.0819,-1.5759999999999998,5.880212032446384,0,0.2
-18.3814,-45.4672,2.093,-1.5749,5.60411673834467,0,0.3
-18.374000000000002,-45.9741,2.1019,-1.5756,5.3690942287411225,0,0.3
-18.3685,-46.4948,2.1314,-1.5776,5.205186978416421,0,0.4
-18.3393,-46.9941,2.1439,-1.584,5.155356566870071,0,0.4
-18.3512,-47.5273,2.1479,-1.5877,5.2037826944994094,0,0.4
-18.3533,-48.0461,2.1375,-1.5882,5.444286164804826,0,0.3
-18.3613,-48.5648,2.1859,-1.5899,5.5148954433340345,0,0.3
-18.365,-49.1424,2.2023,-1.595,5.60195965076071,0,0.3
-18.3588,-49.6859,2.2221,-1.5929,5.757288564163074,0,0.2
-18.3693,-50.2486,2.2435,-1.5898,5.716886253982334,0,0.3
-18.3607,-50.8044,2.2709,-1.5884,5.58142879866157,0,0.3
-18.3594,-51.318000000000005,2.2796,-1.5858,5.527111675403036,0,0.3
-18.3616,-51.865,2.2998,-1.5765,5.390874537307663,0,0.3
-18.3643,-52.3941,2.3196,-1.5649,5.209713452627867,0,0.4
-18.3469,-52.9025,2.3601,-1.5567,5.130871188177149,0,0.4
-18.3283,-53.4123,2.373,-1.555,5.2352794921890125,0,0.4
-18.2997,-53.9719,2.3852,-1.5524,5.2650513297761785,0,0.3
-18.2941,-54.531000000000006,2.412,-1.5578,5.408673615364306,0,0.3
-18.2862,-55.1174,2.4328,-1.5652,5.703649161539783,0,0.3
-18.2536,-55.6307,2.4575,-1.5665,5.98978005295861,0,0.2
-18.2554,-56.151,2.4591,-1.5669,6.0,0,0.2
-18.244,-56.6883,2.4877,-1.5693,6.0,0,0.2
-18.2287,-57.2175,2.5119,-1.5697,6.0,0,0.2
-18.2193,-57.7882,2.5141,-1.5734,5.7239027586856555,0,0.3
-18.206,-58.3473,2.5369,-1.5772,5.3706927948188765,0,0.3
-18.192999999999998,-58.9078,2.5642,-1.5804,5.194432342184887,0,0.4
-18.1845,-59.4346,2.5857,-1.5832,4.993675982876199,0,0.4
-18.1944,-59.9612,2.5897,-1.588,5.11532102806677,0,0.4
-18.2164,-60.5137,2.6404,-1.5894,5.385732448244946,0,0.3
-18.1857,-61.0417,2.6701,-1.5923,5.6319367977159835,0,0.3
-18.1889,-61.5742,2.6634,-1.5896,5.7631829524091165,0,0.2
-18.1954,-62.0995,2.6918,-1.5885,5.935340976495953,0,0.2
-18.2093,-62.6384,2.7268,-1.5894,5.916185118308833,0,0.2
-18.2148,-63.1986,2.7736,-1.5902,5.794858185157472,0,0.2
-18.2147,-63.7811,2.7406,-1.5917,5.717150090772716,0,0.3
-18.214000000000002,-64.3518,2.7702,-1.5914,5.571288856617788,0,0.3
-18.2099,-64.8719,2.7960000000000003,-1.5901,5.524559136213833,0,0.3
-18.2133,-65.4548,2.8176,-1.5892,5.525097215865243,0,0.3
-18.2105,-66.0184,2.8434,-1.5885,5.585833830454673,0,0.3
-18.212,-66.5633,2.8363,-1.5882,5.677201722223352,0,0.3
-18.1998,-67.1294,2.8856,-1.5893,5.656788957417795,0,0.3
-18.2007,-67.6495,2.8922,-1.5906,5.308529485686718,0,0.3
-18.1928,-68.1524,2.9317,-1.5916,5.1463614823162525,0,0.4
-18.195999999999998,-68.6766,2.9521,-1.5922,5.049256150410381,0,0.4
-18.1903,-69.2174,2.9432,-1.5912,4.909250883747866,0,0.4
-18.2146,-69.7221,3.0031,-1.5859999999999999,4.855744179140418,0,0.4
-18.1979,-70.2377,3.0223,-1.5832,5.059182800330145,0,0.4
-18.1942,-70.7969,3.0412,-1.5788,5.098004796386515,0,0.4
-18.1861,-71.3281,3.0457,-1.5747,4.989598245351496,0,0.4
-18.1726,-71.8564,3.0548,-1.5712,5.099482908847973,0,0.4
-18.1799,-72.4031,3.0838,-1.5697,5.184718393050198,0,0.4
-18.1519,-72.9227,3.1104,-1.5722,5.052768160616857,0,0.4
-18.1438,-73.4321,3.139,-1.5705,5.027864977777952,0,0.4
-18.1482,-73.9929,3.1272,-1.5752,5.157071489274159,0,0.4
-18.1421,-74.5566,3.1482,-1.5879,5.054990248249465,0,0.4
-18.1321,-75.1242,3.1816,-1.5959,5.126481458588971,0,0.4
-18.134,-75.6608,3.1981,-1.5937,5.373882475312122,0,0.3
-18.1602,-76.2397,3.2441,-1.591,5.320418408723211,0,0.3
-18.1482,-76.8119,3.2533,-1.5901,5.18316207664474,0,0.4
-18.153,-77.3304,3.2713,-1.5887,5.296728516804883,0,0.3
-18.1412,-77.9003,3.2791,-1.5866,5.257822398878185,0,0.3
-18.1488,-78.4685,3.3087,-1.5869,5.448090912199774,0,0.3
-18.1654,-78.9968,3.3096,-1.5862,5.694411928501003,0,0.3
-18.1397,-79.505,3.3294,-1.5837,6.0,0,0.2
-18.1501,-80.0682,3.3554,-1.5836,6.0,0,0.2
-18.1532,-80.5928,3.3725,-1.5837,5.993518532783336,0,0.2
-18.1634,-81.1047,3.3658,-1.5848,5.703369928282184,0,0.3
-18.146,-81.6723,3.3746,-1.585,5.483803829282589,0,0.3
-18.1569,-82.1751,3.4091,-1.5829,5.084724324634699,0,0.4
-18.1286,-82.7171,3.4772,-1.579,4.850226769729494,0,0.4
-18.1132,-83.2186,3.4702,-1.575,4.693047588253316,0,0.5
-18.1149,-83.7751,3.5045,-1.5701,4.848554177964138,0,0.4
-18.124000000000002,-84.2846,3.5224,-1.565,4.843537212436476,0,0.4
-18.0842,-84.8114,3.5458,-1.5619999999999998,5.0646901703950995,0,0.4
-18.0631,-85.3278,3.5387,-1.5583,5.290864845921121,0,0.3
-18.0734,-85.8657,3.5734,-1.5565,5.521905358057698,0,0.3
-18.0497,-86.3754,3.5823,-1.5563,5.515552063210132,0,0.3
-18.0189,-86.9139,3.6036,-1.5567,5.677822229542144,0,0.3
-18.0098,-87.4635,3.6473,-1.5572,5.445208262120112,0,0.3
-17.9873,-87.9857,3.6623,-1.5597,5.404304271774987,0,0.3
-17.9894,-88.4965,3.6818,-1.565,5.18079421996114,0,0.4
-17.9627,-89.0007,3.6867,-1.5711,5.1095351792079144,0,0.4
-17.9601,-89.5186,3.7167,-1.5742,5.223056632314263,0,0.4
-17.9861,-90.0634,3.7417,-1.5783,5.390976315320867,0,0.3
-17.9824,-90.581,3.7655,-1.5819,5.442649196547382,0,0.3
-17.9592,-91.1064,3.7723,-1.5857,5.780051757911076,0,0.2
-17.9353,-91.6196,3.7911,-1.5901,5.818998556466098,0,0.2
-17.9147,-92.1453,3.7873,-1.5951,5.559996012242442,0,0.3
-17.9382,-92.6664,3.8065,-1.6,5.347505514217677,0,0.3
-17.9393,-93.1899,3.818,-1.6011,5.027181843932704,0,0.4
-17.9508,-93.714,3.8374,-1.5899,4.610413286284141,0,0.5
-17.9796,-94.2213,3.8678,-1.5647,4.267679081648783,0,0.5
-17.9411,-94.7409,3.8853,-1.5135,4.074063586597207,0,0.6
-17.8868,-95.2546,3.8914,-1.4384,4.112147835497533,0,0.6
-17.7875,-95.7897,3.9222,-1.3695,4.052777930409585,0,0.6
-17.663,-96.3465,3.9614,-1.2787,4.0101293496391675,0,0.6
-17.4904,-96.8601,3.9456,-1.2223,4.203069167338766,0,0.6
-17.2912,-97.3649,3.9957,-1.1566,4.4507271038844145,0,0.5
-17.0679,-97.8191,3.991,-1.0544,4.431170913695373,0,0.5
-16.7706,-98.2737,4.0364,-0.9439,4.42540536832951,0,0.5
-16.4068,-98.6878,4.0378,-0.8302,4.598396650317935,0,0.5
-16.0394,-99.1027,4.0737,-0.7006,4.78656663900559,0,0.4
-15.617,-99.4477,4.0697,-0.5823,4.75071028274443,0,0.4
-15.1462,-99.729,4.08,-0.4938,4.761038002709367,0,0.4
-14.6221,-99.9713,4.0646,-0.4528,4.8348323208542885,0,0.4
-14.1512,-100.1849,4.1059,-0.4597,4.781245956953724,0,0.4
-13.6452,-100.4334,4.1021,-0.5183,4.616690813741255,0,0.5
-13.1768,-100.6952,4.127,-0.602,4.607495113219534,0,0.5
-12.722000000000001,-101.0273,4.1115,-0.6724,4.591042638357525,0,0.5
-12.2953,-101.3816,4.1263,-0.7731,4.4796809431470725,0,0.5
-11.9313,-101.7659,4.1433,-0.9023,4.3996708253684504,0,0.5
-11.6118,-102.1594,4.1445,-1.023,4.366460787428393,0,0.5
-11.314,-102.6587,4.1699,-1.1641,4.3731708925502595,0,0.5
-11.1234,-103.1435,4.2068,-1.308,4.5436295049514595,0,0.5
-11.0184,-103.661,4.2265,-1.445,4.930340912927609,0,0.4
-10.9415,-104.1894,4.2138,-1.5169,5.1596016746134845,0,0.4
-10.898,-104.7465,4.2751,-1.541,5.084590272947808,0,0.4
-10.8721,-105.249,4.277,-1.5452,4.846915528860955,0,0.4
-10.8688,-105.7811,4.2995,-1.5555,4.840068763379277,0,0.4
-10.8499,-106.3042,4.3036,-1.57,4.672891045318577,0,0.5
-10.8253,-106.8487,4.3419,-1.5819,4.546098130861175,0,0.5
-10.8416,-107.3856,4.3311,-1.5833,4.602111600699085,0,0.5
-10.8327,-107.9187,4.3443,-1.5873,4.627078480028489,0,0.5
-10.8456,-108.445,4.3546,-1.6035,4.269459657822904,0,0.5
-10.8488,-108.9966,4.3794,-1.6087,4.242208156361771,0,0.6
-10.8362,-109.5283,4.4348,-1.6113,4.413677414217421,0,0.5
-10.8649,-110.0568,4.3961,-1.6068,4.5519906065855,0,0.5
-10.886,-110.5653,4.4325,-1.6016,4.921825783522577,0,0.4
-10.8772,-111.1014,4.4685,-1.5822,5.418895625019834,0,0.3
-10.886,-111.603,4.5004,-1.5697,5.354257019010239,0,0.3
-10.8663,-112.1348,4.4806,-1.5719,5.437190974824906,0,0.3
-10.8535,-112.6532,4.4909,-1.5805,5.20210890969549,0,0.4
-10.8466,-113.1757,4.5423,-1.5828,5.069244387239863,0,0.4
-10.8128,-113.7573,4.5852,-1.5848,5.135338389328499,0,0.4
-10.8897,-114.2741,4.5198,-1.5929,5.25799001463302,0,0.3
-10.8639,-114.8179,4.5864,-1.5949,5.094679825032752,0,0.4
-10.8526,-115.3372,4.6819999999999995,-1.5862,5.321103284026542,0,0.3
-10.8669,-115.8392,4.6905,-1.5758,5.246366382566724,0,0.4
-10.8576,-116.3902,4.6662,-1.5667,5.0576442471506216,0,0.4
-10.8377,-116.9334,4.6679,-1.5646,5.011590560185169,0,0.4
-10.8578,-117.4637,4.688,-1.5679,4.836543182354868,0,0.4
-10.857000000000001,-117.9867,4.6995,-1.5775,4.802726613805633,0,0.4
-10.8402,-118.5251,4.7449,-1.5813,4.687601854765913,0,0.5
-10.8615,-119.0615,4.7657,-1.5779,4.412129098679489,0,0.5
-10.8756,-119.5889,4.7632,-1.584,4.42166326843824,0,0.5
-10.8473,-120.1309,4.7726,-1.5984,4.473387558954202,0,0.5
-10.8533,-120.6833,4.7763,-1.6228,4.117344232462044,0,0.6
-10.8695,-121.2155,4.8104,-1.6475,4.099857113746377,0,0.6
-10.9246,-121.7178,4.8081,-1.6705,4.378068610027118,0,0.5
-10.9398,-122.2318,4.8148,-1.6833,4.4073503082520675,0,0.5
-10.9901,-122.7559,4.8958,-1.692,4.611814393388826,0,0.5
-11.067,-123.2994,4.9058,-1.6843,4.954204338145736,0,0.4
-11.0753,-123.8004,4.9110000000000005,-1.6798,5.149027854755975,0,0.4
-11.1319,-124.3408,4.9262,-1.6682,5.085869783406557,0,0.4
-11.1809,-124.8409,4.9721,-1.6433,4.862449451615351,0,0.4
-11.2066,-125.3932,5.0064,-1.6118,4.551310491920884,0,0.5
-11.2045,-125.9335,5.0611,-1.5691,4.255666127264294,0,0.5
-11.155999999999999,-126.4367,5.0394,-1.4289,3.902587393616942,0,0.6
-11.0708,-126.9296,5.0626,-1.2295,3.6437275971925747,0,0.7
-10.8315,-127.4012,5.1096,-1.0047,3.4818498333850085,0,0.7
-10.5817,-127.8394,5.1034,-0.7659999999999999,3.237426676888446,0,0.8
-10.1473,-128.1203,5.1468,-0.5052,3.180886639180599,0,0.8
-9.6403,-128.3341,5.1463,-0.2685,3.367892414861693,0,0.7
-9.1288,-128.4516,5.1337,-0.008,3.6139327973764916,0,0.7
-8.5941,-128.4382,5.1405,0.2145,3.776973519568192,0,0.6
-8.1216,-128.2702,5.1454,0.2563,4.033307358017115,0,0.6
-7.5939,-128.1525,4.9946,0.2438,4.055071778925903,0,0.6
-7.0819,-128.0036,5.0245,0.2454,3.81721007155041,0,0.6
-6.5882,-127.8937,5.0032,0.2415,3.5181040204344445,0,0.7
-6.0481,-127.7641,4.9868,0.209,3.366656178309504,0,0.7
-5.54,-127.6319,5.0138,0.1621,3.4314219562361687,0,0.7
-4.9957,-127.5419,4.997,0.113,3.3412475770500762,0,0.7
-4.4948,-127.4756,5.0079,0.0742,3.2813618654862897,0,0.7
-3.9828,-127.4513,4.9275,0.0195,3.525560345597711,0,0.7
-3.4319,-127.4542,4.8721,-0.0438,3.5873454399475584,0,0.7
-2.9083,-127.4442,5.06,-0.1358,3.6396350815197804,0,0.7
-2.4078,-127.5526,4.9069,-0.2047,3.8201042480511647,0,0.6
-1.8643,-127.6928,4.7414,-0.2744,3.9967345454486134,0,0.6
-1.3325,-127.8221,4.8242,-0.3153,3.827763347378724,0,0.6
-0.8378,-128.0138,4.8687,-0.3289,4.129510631839601,0,0.6
-0.3343,-128.155,4.9295,-0.3402,4.153473892976253,0,0.6
0.19,-128.3092,4.9942,-0.35600000000000004,4.3352760128738,0,0.5
0.6665,-128.5021,4.8687,-0.3716,4.499299939807043,0,0.5
1.1404,-128.6938,4.9393,-0.3861,4.654300657513108,0,0.5
1.6521,-128.9033,4.9382,-0.41100000000000003,4.323280514583429,0,0.5
2.1056,-129.1185,4.9341,-0.4343,3.9323108466453904,0,0.6
2.5924,-129.291,4.8985,-0.4694,3.812469576789244,0,0.6
3.0429,-129.5457,5.01,-0.5103,3.664369303356458,0,0.7
3.5156,-129.7489,5.0567,-0.5770000000000001,3.308794417443024,0,0.7
3.9517,-130.1263,4.8469999999999995,-0.6339,3.4813328859457577,0,0.7
4.3713,-130.4711,4.9246,-0.7054,3.8119656611264876,0,0.6
4.8642,-130.8385,4.9869,-0.7749,3.737181454875763,0,0.7
5.2403,-131.2144,5.0084,-0.8420000000000001,3.6945512561226446,0,0.7
5.5779,-131.6255,4.9826,-0.8863,3.8492554316106533,0,0.6
5.9173,-131.9995,5.0381,-0.9227,3.869573313768419,0,0.6
6.2488,-132.4298,5.0363,-0.9638,3.813442386181277,0,0.6
6.5589,-132.8331,5.1363,-1.0117,3.7554786040765116,0,0.6
6.8189,-133.2754,5.1554,-1.056,3.9547087021051386,0,0.6
7.066,-133.716,5.1160000000000005,-1.0886,4.109370958056043,0,0.6
7.3129,-134.1868,5.1156,-1.1231,3.865513771729564,0,0.6
7.5405,-134.6684,5.1932,-1.1542,3.786001687125659,0,0.6
7.7181,-135.1367,5.1753,-1.1808,3.8534694659401985,0,0.6
7.9569,-135.5955,5.2178,-1.2278,3.6346745412985246,0,0.7
8.1232,-136.1398,5.2359,-1.3102,3.792954441612417,0,0.6
8.2584,-136.6641,5.2604,-1.3847,4.23396802269769,0,0.6
8.3508,-137.1976,5.2699,-1.4499,4.327183073466646,0,0.5
8.4217,-137.7287,5.3572,-1.5014,4.5331947555026515,0,0.5
8.4002,-138.2477,5.3358,-1.524,4.688228371618646,0,0.5
8.4944,-138.7414,5.3582,-1.5423,4.648050385276102,0,0.5
8.4948,-139.3074,5.4403,-1.5759999999999998,4.340497213039679,0,0.5
8.5112,-139.8476,5.4523,-1.6003,4.30650222421149,0,0.5
8.4736,-140.3692,5.5017,-1.6289,4.1830879947377495,0,0.6
8.4244,-140.8999,5.5201,-1.6896,4.000613118211621,0,0.6
8.3596,-141.414,5.5394,-1.7433,3.4525291882959426,0,0.7
8.2374,-141.9711,5.4727,-1.8061,3.1730342206891695,0,0.8
8.131,-142.5,5.5074,-1.8616,2.8998271032620924,0,0.8
7.9992,-143.0215,5.6213,-1.915,2.8796850302009265,0,0.8
7.8653,-143.5103,5.5989,-1.9633,2.7769150433105825,0,0.8
7.6224,-143.9837,5.6854,-2.0153,3.0072162475229725,0,0.8
7.4018,-144.4601,5.6298,-2.0365,3.1095053043038323,0,0.8
7.1087,-144.8881,5.6667,-2.0606,3.350806400778974,0,0.7
6.8863,-145.3667,5.8076,-2.1091,3.477277688140523,0,0.7
6.6313,-145.8826,5.7336,-2.1478,3.7167070119032184,0,0.7
6.3475,-146.3453,5.7716,-2.1839,3.9504341562699463,0,0.6
6.0446,-146.7495,5.7638,-2.2144,4.126772518541231,0,0.6
5.7007,-147.2239,5.7835,-2.2485,4.014770086825667,0,0.6
5.3712,-147.6506,5.8609,-2.2991,3.904179635356527,0,0.6
5.0452,-148.03799999999998,5.856,-2.3329,4.226452485678623,0,0.6
4.6952,-148.4513,5.9851,-2.3629,4.4026966643329555,0,0.5
4.3026,-148.846,5.8258,-2.3909,4.7796643748787835,0,0.4
3.8919,-149.2041,5.8665,-2.4162,5.247212071953811,0,0.4
3.5101,-149.5326,5.8643,-2.4507,5.415735133255147,0,0.3
3.1186,-149.8713,5.9727,-2.4757,5.324284104143191,0,0.3
2.7269,-150.1828,6.0226,-2.4976,5.521817753315471,0,0.3
2.3058,-150.5335,6.0194,-2.5217,5.641888547501987,0,0.3
1.8978,-150.8375,5.9632,-2.5349,5.716381099603827,0,0.3
1.4678,-151.1358,6.0536,-2.5534,5.6957117088250975,0,0.3
1.0119,-151.4127,6.027,-2.5662,5.541851264848394,0,0.3
0.6092,-151.7185,6.0972,-2.5735,5.26744130833556,0,0.3
0.1504,-151.985,6.0303,-2.5816,5.078265687213146,0,0.4
-0.2794,-152.2966,6.0693,-2.5838,4.671169017433343,0,0.5
-0.7445,-152.6125,6.0924,-2.5893,4.300796092756597,0,0.5
-1.2095,-152.8718,6.1179,-2.5989,4.044150443312792,0,0.6
-1.6606,-153.1458,6.1029,-2.6104,3.679273652286048,0,0.7
-2.1175,-153.4076,6.0994,-2.7074,3.2926451928233,0,0.7
-2.5996,-153.6295,6.1617,-2.8583,3.372800124209445,0,0.7
-3.1337,-153.7698,6.1362,-3.0410000000000004,3.6184822134429586,0,0.7
-3.6882,-153.7849,6.1244,3.0584,3.805697111364929,0,0.6
-4.2307,-153.7236,6.1362,2.8824,4.091408413262315,0,0.6
-4.7626,-153.5623,6.1895,2.7725,4.331522990053237,0,0.5
-5.255,-153.3894,6.1866,2.7104,4.32512031579248,0,0.5
-5.7505,-153.1592,6.1370000000000005,2.6679,4.343093665373826,0,0.5
-6.231,-152.9113,6.1107,2.6414,4.453750226802509,0,0.5
-6.7201,-152.6434,6.1459,2.6304,4.490478737380427,0,0.5
-7.1949,-152.388,6.0952,2.6239999999999997,4.547592604609468,0,0.5
-7.6774,-152.1297,6.0725,2.6112,4.84535417546944,0,0.4
-8.1437,-151.8708,6.0329,2.5983,4.860515739193973,0,0.4
-8.607999999999999,-151.5824,6.0298,2.5813,5.07482495084712,0,0.4
-9.0592,-151.283,6.019,2.568,5.200898166404276,0,0.4
-9.5251,-151.0314,6.0256,2.5538,5.17939912360619,0,0.4
-9.9711,-150.7348,6.0333,2.5441,4.941455393206881,0,0.4
-10.4079,-150.4415,6.0354,2.5297,5.102156181759294,0,0.4
-10.8476,-150.1344,6.0319,2.4855,4.855401000988718,0,0.4
-11.2861,-149.8158,6.0285,2.4433,4.890506671675966,0,0.4
-11.7141,-149.4631,6.0109,2.4046,5.215357495410782,0,0.4
-12.1197,-149.1105,5.9979,2.3753,5.543637244551991,0,0.3
-12.5169,-148.7592,5.9787,2.3467,5.7138971920899255,0,0.3
-12.8681,-148.3591,5.9409,2.3205,6.0,0,0.2
-13.2644,-147.9679,5.9606,2.3009,6.0,0,0.1
-13.6163,-147.5679,5.9473,2.286,6.0,0,0.1
-14.0045,-147.1675,5.9325,2.2615,6.0,0,0.1
-14.3413,-146.7312,5.9339,2.2311,6.0,0,0.1
-14.6573,-146.3415,5.9325,2.2031,6.0,0,0.1
-14.9732,-145.915,5.8878,2.1908,6.0,0,0.2
-15.273,-145.4826,5.888,2.1882,6.0,0,0.2
-15.5853,-145.0542,5.8646,2.188,5.98730925067505,0,0.2
-15.894,-144.6596,5.846,2.1818,5.870062881211256,0,0.2
-16.1914,-144.2427,5.8288,2.1687,5.576403011354259,0,0.3
-16.4909,-143.8218,5.8375,2.1863,5.513949591692138,0,0.3
-16.8121,-143.3928,5.7774,2.2232,5.39045066570696,0,0.3
-17.1495,-142.9636,5.7789,2.278,5.369554591658907,0,0.3
-17.5225,-142.5648,5.7683,2.3251,5.536242713139258,0,0.3
-17.9292,-142.1853,5.7542,2.3797,5.64037755530566,0,0.3
-18.2989,-141.8485,5.7709,2.4359,5.766289274142385,0,0.2
-18.6965,-141.5375,5.7479,2.4871,5.769042555343138,0,0.2
-19.1183,-141.2092,5.7792,2.5269999999999997,5.583497641696213,0,0.3
-19.5624,-140.9113,5.6917,2.5561,5.360200421811971,0,0.3
-20.0077,-140.642,5.7225,2.568,4.982938609135707,0,0.4
-20.4624,-140.3545,5.7255,2.5811,4.383400200620443,0,0.5
-20.9339,-140.0943,5.7006,2.6031,3.829715541138499,0,0.6
-21.3783,-139.8509,5.7159,2.6351,3.4955175679667834,0,0.7
-21.8313,-139.5983,5.6688,2.6591,3.0155798975817736,0,0.8
-22.3071,-139.3654,5.6961,2.6789,2.8420389981091754,0,0.8
-22.7716,-139.1493,5.7184,2.65,3.054012018094374,0,0.8
-23.2431,-138.9821,5.638999999999999,2.6175,2.9985549881869495,0,0.8
-23.7168,-138.7183,5.5806,2.6004,2.9980204019148307,0,0.8
-24.1645,-138.4708,5.6647,2.6012,3.341239567511855,0,0.7
-24.5701,-138.172,5.627000000000001,2.5997,3.363599932098743,0,0.7
-25.0772,-137.892,5.6523,2.5936,3.294339237116433,0,0.7
-25.5206,-137.6525,5.6091,2.5909,3.5254172249974256,0,0.7
-25.9862,-137.3468,5.6193,2.5994,3.566293237682786,0,0.7
-26.4521,-137.097,5.6234,2.6226,3.630248196239049,0,0.7
-26.9507,-136.8459,5.6088,2.6511,3.9045925851673493,0,0.6
-27.4348,-136.6001,5.6409,2.6802,4.1572880878901515,0,0.6
-27.9057,-136.3432,5.6093,2.7059,4.252680888862994,0,0.5
-28.4266,-136.1414,5.6384,2.7275,4.4027776211618095,0,0.5
-28.939,-135.8906,5.6284,2.7462,4.642355504733835,0,0.5
-29.4789,-135.749,5.6218,2.7403,4.577659512809149,0,0.5
-29.9221,-135.5039,5.5441,2.7231,4.44989022917145,0,0.5
-30.4275,-135.2637,5.577999999999999,2.7025,4.702222925191827,0,0.5
-30.9704,-135.0836,5.5655,2.6843,5.025142136972301,0,0.4
-31.4337,-134.8526,5.5583,2.6549,4.888982809251914,0,0.4
-31.916,-134.5782,5.558,2.6026,5.261799970178382,0,0.3
-32.3638,-134.2922,5.5278,2.5767,5.300255711769019,0,0.3
-32.805,-134.0236,5.5541,2.5677,5.397978344302012,0,0.3
-33.2754,-133.7121,5.5822,2.5419,5.306476702010812,0,0.3
-33.7105,-133.41,5.5553,2.5232,5.1543754096154135,0,0.4
-34.1659,-133.1188,5.5649,2.5092,5.155743002691332,0,0.4
-34.5706,-132.7779,5.5729999999999995,2.4992,5.159063502106562,0,0.4
-34.9944,-132.5085,5.581,2.4754,4.964959407184637,0,0.4
-35.4449,-132.1668,5.5535,2.4486,4.830962147926134,0,0.4
-35.8632,-131.7992,5.5562,2.4365,5.06890455479528,0,0.4
-36.2888,-131.4616,5.5332,2.4267,5.025944966848581,0,0.4
-36.6465,-131.0723,5.5303,2.4211,4.952075526885324,0,0.4
-37.0789,-130.7734,5.5016,2.411,4.852947714716404,0,0.4
-37.463,-130.421,5.4924,2.4061,4.9369719595153025,0,0.4
-37.893,-130.1114,5.4662,2.4067,4.622523738109383,0,0.5
-38.2987,-129.7403,5.4506,2.4065,4.559627171239827,0,0.5
-38.7174,-129.3862,5.4662,2.4061,4.690496912028548,0,0.5
-39.1295,-129.0505,5.4255,2.4038,4.7423358468344485,0,0.5
-39.5095,-128.7172,5.4299,2.4042,4.5960781667065005,0,0.5
-39.8729,-128.3341,5.4295,2.4006,4.906633483710099,0,0.4
-40.2703,-127.9738,5.4293,2.39,4.655243873891585,0,0.5
-40.6347,-127.618,5.428,2.3768,4.635836207355723,0,0.5
-41.008,-127.2304,5.4006,2.3605,4.571160667344735,0,0.5
-41.4161,-126.9287,5.3939,2.3442,4.62599840504601,0,0.5
-41.7665,-126.5368,5.3878,2.3292,4.5361933661181055,0,0.5
-42.1723,-126.1176,5.3694,2.3013,4.542589595932492,0,0.5
-42.4888,-125.7273,5.3749,2.2735,4.359258966396714,0,0.5
-42.8207,-125.3241,5.3389999999999995,2.2403,4.544686722287092,0,0.5
-43.177,-124.9388,5.3108,2.2214,4.618086986732083,0,0.5
-43.5103,-124.5108,5.3261,2.1886,4.289988592242164,0,0.5
-43.8528,-124.054,5.2942,2.1702,4.533892610586579,0,0.5
-44.1429,-123.5771,5.2722,2.1671,4.393189106875825,0,0.5
-44.4821,-123.1468,5.2915,2.1558,3.947881389728632,0,0.6
-44.8068,-122.6768,5.2608,2.1297,3.878917389388378,0,0.6
-45.0132,-122.1592,5.189,2.1197,3.9179425236434255,0,0.6
-45.3311,-121.7337,5.135,2.1085,3.7578836175655876,0,0.6
-45.6537,-121.2884,5.1928,2.1023,4.057981914134536,0,0.6
-45.82899999999999,-120.8172,5.1915,2.1042,4.478497363409337,0,0.5
-46.1504,-120.4288,5.1548,2.097,4.650934090647344,0,0.5
-46.4154,-119.955,5.1994,2.0938,5.06730384383259,0,0.4
-46.736000000000004,-119.499,5.0963,2.0856,5.257309004894919,0,0.3
-46.9603,-119.0439,5.0554,2.0844,5.075270120957222,0,0.4
-47.2887,-118.6086,5.067,2.0789,4.802253484272709,0,0.4
-47.4904,-118.1481,5.078,2.0809,4.708122427965915,0,0.5
-47.8378,-117.7122,5.0744,2.0675,4.5267089465119055,0,0.5
-48.0312,-117.2197,4.9429,2.0607,4.527091592089593,0,0.5
-48.2768,-116.7419,4.9756,2.052,4.8216156445596,0,0.4
-48.5435,-116.3051,4.9732,2.0546,5.136496380242324,0,0.4
-48.8263,-115.8286,4.9563,2.0603,5.288972176878899,0,0.3
-49.0496,-115.3789,4.9771,2.0578,5.394875599093047,0,0.3
-49.3013,-114.9173,4.927,2.0553,5.332753494843738,0,0.3
-49.5514,-114.4456,4.9171,2.0578,5.158083460675007,0,0.4
-49.8282,-113.9725,4.9308,2.0529,4.787621063666657,0,0.4
-50.0996,-113.4774,4.8967,2.0523,4.297133917461052,0,0.5
-50.3542,-113.0149,4.8975,2.0487,3.719309522421797,0,0.7
-50.5876,-112.5602,4.8619,2.0454,3.496387251965763,0,0.7
-50.8552,-112.1337,4.8556,2.0363,3.2194069681741633,0,0.8
-51.0335,-111.6416,4.8626,2.0366,3.5631934759890296,0,0.7
-51.2567,-111.13799999999999,4.8858,2.0269,3.567979615848402,0,0.7
-51.5614,-110.7044,4.8953,2.0007,3.7323169257132918,0,0.7
-51.7897,-110.2198,4.8863,1.9737,3.6229150756058504,0,0.7
-51.9821,-109.7242,4.8564,1.9556,3.7935767673927936,0,0.6
-52.2104,-109.2125,4.8463,1.936,3.654902392076586,0,0.7
-52.5186,-108.7694,4.8231,1.913,4.01096778120812,0,0.6
-52.5915,-108.2733,4.8205,1.8946,4.251838309676808,0,0.5
-52.7832,-107.8091,4.8003,1.8717,4.408303814906401,0,0.5
-52.9259,-107.2815,4.7431,1.8571,4.5329207526263975,0,0.5
-53.1073,-106.7631,4.7605,1.8318,4.517214106338186,0,0.5
-53.2488,-106.2648,4.7916,1.8207,4.363772612893053,0,0.5
-53.3842,-105.7603,4.7641,1.8092,4.356992263231183,0,0.5
-53.4903,-105.2197,4.7958,1.7990000000000002,4.452059557943832,0,0.5
-53.6018,-104.7041,4.7256,1.7877,4.449799695408808,0,0.5
-53.7341,-104.1798,4.7247,1.7852,4.54642122456419,0,0.5
-53.8756,-103.6889,4.7053,1.7783,4.4597194866435785,0,0.5
-53.9776,-103.1202,4.6995,1.7736,4.501994338903582,0,0.5
-54.1011,-102.5983,4.6949,1.7694,4.412308199499697,0,0.5
-54.2212,-102.0684,4.6711,1.7598,4.510055146924119,0,0.5
-54.3486,-101.5638,4.6574,1.7514,4.350041817012201,0,0.5
-54.4077,-101.0348,4.6725,1.7487,4.628444524118288,0,0.5
-54.5057,-100.53299999999999,4.6768,1.7415,4.816195287315791,0,0.4
-54.6092,-100.0301,4.66,1.7315,5.071891544334026,0,0.4
-54.7318,-99.5097,4.6231,1.7236,5.120456029327973,0,0.4
-54.778,-98.9797,4.6144,1.7247,5.14755092889513,0,0.4
-54.9067,-98.4947,4.6105,1.7253,4.970989045550304,0,0.4
-54.9403,-97.9448,4.644,1.7318,4.781191341453506,0,0.4
-55.1075,-97.4197,4.5892,1.7254,4.5482654073292546,0,0.5
-55.1685,-96.9109,4.5797,1.7318,4.309894818016902,0,0.5
-55.2543,-96.3618,4.5685,1.7366,4.4188913537165755,0,0.5
-55.3872,-95.8228,4.5392,1.7359,4.488211978113185,0,0.5
-55.5182,-95.3019,4.533,1.7215,4.193555791160875,0,0.6
-55.5894,-94.7494,4.5019,1.6914,3.9873055212674764,0,0.6
-55.6568,-94.229,4.5478,1.6635,3.788621387637317,0,0.6
-55.7467,-93.6732,4.5394,1.6423,3.704314220468037,0,0.7
-55.8032,-93.1275,4.5001,1.6269,3.6273902354513794,0,0.7
-55.7915,-92.5632,4.4553,1.6156,4.132351400961985,0,0.6
-55.7565,-92.0525,4.3921,1.6084,4.406279836034643,0,0.5
-55.8619,-91.4783,4.3598,1.5949,4.9181714395915215,0,0.4
-55.8565,-90.8883,4.3858,1.5877,5.1176744601944115,0,0.4
-55.9076,-90.3872,4.3588,1.5753,5.069616469417662,0,0.4
-55.9025,-89.8769,4.3405,1.5661,4.8076259544342115,0,0.4
-55.9085,-89.3236,4.3719,1.556,4.617210316110736,0,0.5
-55.8998,-88.8208,4.3806,1.5425,4.499566763899836,0,0.5
-55.8981,-88.2845,4.3133,1.5319,4.4544754971923535,0,0.5
-55.9475,-87.7837,4.336,1.5213,4.348920176187729,0,0.5
-55.8945,-87.2592,4.3441,1.5095,4.461049824536783,0,0.5
-55.8642,-86.7599,4.2877,1.5035,4.387181157403944,0,0.5
-55.8005,-86.21700000000001,4.2534,1.4949,4.283333821586599,0,0.5
-55.7701,-85.7175,4.2428,1.4898,3.943478012307696,0,0.6
-55.773,-85.179,4.237,1.4809999999999999,3.975879314928946,0,0.6
-55.7319,-84.6773,4.2531,1.479,3.814588400208399,0,0.6
-55.6444,-84.1014,4.228,1.4815,3.921475610689181,0,0.6
-55.618,-83.5648,4.2,1.4825,3.954688985884566,0,0.6
-55.6105,-83.0013,4.1502,1.4824,4.006009673381702,0,0.6
-55.6505,-82.4705,4.1566,1.4774,4.224696716826261,0,0.6
-55.5865,-81.9101,4.1195,1.4779,4.238150521957741,0,0.6
-55.5591,-81.3409,4.0855,1.4731,4.4236870357009135,0,0.5
-55.5183,-80.7678,4.0787,1.4712,4.39857117699788,0,0.5
-55.411,-80.2275,4.0284,1.4698,4.5297840654119215,0,0.5
-55.345,-79.6885,4.0454,1.4608,4.390270771200867,0,0.5
-55.3096,-79.1878,4.0585,1.4542,4.518469696777082,0,0.5
-55.2776,-78.626,4.0442,1.4459,4.228072877583915,0,0.6
-55.1988,-78.0891,3.9985,1.435,4.080824878793862,0,0.6
-55.1316,-77.5886,4.0039,1.425,3.746884882961755,0,0.7
-55.1044,-77.081,3.9634,1.4134,3.5447128660727563,0,0.7
-55.0148,-76.572,3.9139,1.4028,3.134232298263557,0,0.8
-54.8959,-76.0597,3.9124,1.4003,3.3472972442526028,0,0.7
-54.747,-75.5272,3.8362,1.3958,3.354754104765517,0,0.7
-54.7656,-74.9817,3.8433,1.3979,3.538009864087634,0,0.7
-54.7162,-74.4689,3.7981,1.4038,3.890649444185357,0,0.6
-54.5887,-73.9305,3.8145,1.406,4.048606198109612,0,0.6
-54.5171,-73.4032,3.7747,1.4048,4.0852749561059944,0,0.6
-54.4389,-72.8852,3.7825,1.4002,4.043632227578052,0,0.6
-54.31,-72.3633,3.7576,1.3933,4.065811506054808,0,0.6
-54.2258,-71.8592,3.7624,1.3844,4.004330964991378,0,0.6
-54.1762,-71.3461,3.7124,1.3724,4.329511886636536,0,0.5
-54.1154,-70.8173,3.7026,1.3645,4.3172158270213,0,0.5
-53.9768,-70.27600000000001,3.6901,1.354,4.38467465251572,0,0.5
-53.8485,-69.7558,3.6799,1.3378,4.567127764427893,0,0.5
-53.7368,-69.2026,3.6316,1.3151,4.478161407212652,0,0.5
-53.6239,-68.7045,3.6417,1.2936,4.284582577495471,0,0.5
-53.468,-68.1377,3.6182,1.2773,4.079939424561928,0,0.6
-53.3,-67.6345,3.6302,1.2673,4.191196893825382,0,0.6
-53.1754,-67.1216,3.5635,1.2532,4.012687030920054,0,0.6
-52.9727,-66.6248,3.5541,1.2466,4.144856945014311,0,0.6
-52.8091,-66.1046,3.5448,1.2344,4.451980931400647,0,0.5
-52.6742,-65.5953,3.5819,1.2285,4.887578799603942,0,0.4
-52.49,-65.07600000000001,3.5422,1.2209,4.926196058595956,0,0.4
-52.2768,-64.5242,3.5197,1.2208,5.063735365704336,0,0.4
-52.1229,-64.0338,3.5708,1.2266,5.187754795570272,0,0.4
-51.9293,-63.5333,3.5247,1.2335,4.871585301252307,0,0.4
-51.7764,-63.0279,3.4443,1.2396,4.809768090140968,0,0.4
-51.626999999999995,-62.513000000000005,3.3799,1.2421,4.735005341280506,0,0.5
-51.4245,-62.0491,3.3911,1.2407,4.701058814055687,0,0.5
-51.2432,-61.4941,3.3681,1.2361,4.682645376440832,0,0.5
-51.09,-60.946999999999996,3.3974,1.2298,4.6124180454009895,0,0.5
-50.9301,-60.4237,3.3765,1.2276,4.452861251170326,0,0.5
-50.7328,-59.9071,3.3316,1.2226,4.559311310773948,0,0.5
-50.6273,-59.4035,3.4258,1.217,4.678914677186919,0,0.5
-50.4552,-58.9264,3.4473,1.208,4.752124413898769,0,0.4
-50.2643,-58.4535,3.4127,1.1986,4.911772392232898,0,0.4
-50.0524,-57.9917,3.3111,1.1887,4.855614745367776,0,0.4
-49.8854,-57.5134,3.2697,1.1814,4.77036924248802,0,0.4
-49.6877,-57.0164,3.2883,1.1613,4.81943286196492,0,0.4
-49.5208,-56.5384,3.2918,1.1374,4.7210459325320935,0,0.5
-49.2911,-56.0729,3.2198,1.1256,4.800983639723928,0,0.4
-49.071000000000005,-55.6001,3.1986,1.1291,4.938090794460759,0,0.4
-48.8829,-55.1351,3.1998,1.133,4.996331827222012,0,0.4
-48.6577,-54.6729,3.1824,1.1377,4.896768050061111,0,0.4
-48.4557,-54.1601,3.1375,1.1393,4.601983800240639,0,0.5
-48.2444,-53.6973,3.0979,1.1346,4.678132310034371,0,0.5
-48.0318,-53.1918,3.0839,1.1208,4.845603968154694,0,0.4
-47.8162,-52.6723,3.0513,1.0947,5.038838149184789,0,0.4
-47.5856,-52.2022,3.0494,1.0571,5.187576985148917,0,0.4
-47.2882,-51.7346,3.028,1.0328,5.180064227817578,0,0.4
-47.0487,-51.2845,3.0143,1.0144,4.995710376049054,0,0.4
-46.7746,-50.8499,2.9774,0.9911,4.88060677258934,0,0.4
-46.5398,-50.4064,2.9521,0.972,4.613567108443421,0,0.5
-46.2609,-49.9804,2.9442,0.9497,4.51982608414287,0,0.5
-45.9165,-49.5277,2.9182,0.9215,4.883097530225519,0,0.4
-45.5864,-49.108000000000004,2.9102,0.8942,4.8880899848567445,0,0.4
-45.2409,-48.6758,2.8979,0.8707,4.663635281171123,0,0.5
-44.8506,-48.2541,2.8768,0.856,4.670640484431784,0,0.5
-44.5355,-47.8231,2.8639,0.8511,4.816318888000313,0,0.4
-44.1608,-47.4335,2.8292,0.8487,4.431655590911018,0,0.5
-43.7889,-47.0165,2.7971,0.8451,4.714897047950447,0,0.5
-43.4729,-46.5909,2.76,0.8598,4.886749158409723,0,0.4
-43.1064,-46.2453,2.7577,0.888,5.004344541114252,0,0.4
-42.7841,-45.818000000000005,2.7460000000000004,0.9217,4.88306084297466,0,0.4
-42.5039,-45.3813,2.737,0.96,4.932848016994486,0,0.4
-42.1878,-44.9552,2.7346,0.9701,4.739491465413719,0,0.5
-41.93899999999999,-44.5137,2.6879,0.9636,4.533315377692496,0,0.5
-41.5835,-44.0745,2.6547,0.9662,4.455185112124439,0,0.5
-41.3217,-43.6388,2.6287,0.9762,4.159494420915911,0,0.6
-41.0574,-43.2061,2.5918,0.9805,4.316615642936167,0,0.5
-40.7992,-42.7482,2.573,0.9909,4.318242125294502,0,0.5
-40.4846,-42.3258,2.5456,1.0052,4.594343212909391,0,0.5
-40.2176,-41.8912,2.5204,1.0118,4.818992701072378,0,0.4
-39.9733,-41.4275,2.5144,1.0195,5.4267484533757795,0,0.3
-39.7228,-40.9521,2.4879,1.0282,5.7598348390064595,0,0.2
-39.4486,-40.5029,2.4537,1.0199,6.0,0,0.2
-39.1919,-40.0647,2.4113,1.0128,6.0,0,0.2
-38.9288,-39.5951,2.3593,1.0142,6.0,0,0.2
-38.6418,-39.1119,2.3855,1.0181,5.844164744297458,0,0.2
-38.4115,-38.6338,2.3765,1.0152,5.5704021164795625,0,0.3
-38.1002,-38.1997,2.2875,1.0070000000000001,5.349164175699146,0,0.3
-37.834,-37.7681,2.2617,0.9992,4.9236045025172235,0,0.4
-37.5691,-37.3008,2.2335,0.9938,4.689417807766446,0,0.5
-37.2782,-36.8643,2.1519,1.0021,4.2632792369058095,0,0.5
-36.9665,-36.4058,2.1639,1.0073,3.977521042748405,0,0.6
-36.6698,-35.9273,2.01,1.0212,3.6872050144927577,0,0.7
-36.4095,-35.4304,2.099,1.0339,3.5752396189365845,0,0.7
-36.1438,-34.9852,1.9936,1.0375,3.409614209270793,0,0.7
-35.8925,-34.4736,1.8233,1.0333,3.3755036406282084,0,0.7
-35.5925,-34.0221,1.7615,1.0367,3.4337696877925596,0,0.7
-35.3234,-33.5193,1.732,1.0346,3.4729538355751526,0,0.7
-35.080999999999996,-33.0725,1.6559,1.0284,3.67664645451681,0,0.7
-34.8071,-32.6368,1.699,1.0201,3.8255244566767628,0,0.6
-34.5234,-32.162,1.7325,1.0124,4.0191511636045965,0,0.6
-34.2663,-31.7271,1.7189,1.0071,4.3265117290882085,0,0.5
-33.9743,-31.2671,1.7021,1.0086,4.660942446387722,0,0.5
-33.7097,-30.8332,1.6847,1.0037,4.98052845376113,0,0.4
-33.439,-30.3702,1.6414,0.9969,5.427239761486941,0,0.3
-33.1322,-29.9194,1.5268,0.9942,5.562631538473637,0,0.3
-32.8767,-29.4547,1.5765,0.9894,5.712911518851464,0,0.3
-32.6126,-29.0284,1.5667,0.9969,5.739603449165297,0,0.3
-32.3426,-28.5915,1.6269999999999998,1.0122,5.45533468688774,0,0.3
-32.0548,-28.1023,1.5903,1.0371,5.285486321681699,0,0.3
-31.8225,-27.6391,1.5844,1.0526,5.087696897616551,0,0.4
-31.5669,-27.1927,1.5919,1.0645,4.967744356177228,0,0.4
-31.3182,-26.6886,1.5488,1.0672,4.899112571322062,0,0.4
-31.0511,-26.2544,1.4535,1.0764,5.0354792320394814,0,0.4
-30.7943,-25.7604,1.3876,1.0906,4.943938095359929,0,0.4
-30.5857,-25.269000000000002,1.4153,1.0999,5.152460432771229,0,0.4
-30.3264,-24.8043,1.4102,1.1029,4.852829038905761,0,0.4
-30.0989,-24.2998,1.3942,1.1052,4.786668418872727,0,0.4
-29.8414,-23.7953,1.3861,1.1017,4.811715920007826,0,0.4
-29.6455,-23.2927,1.4452,1.097,4.97522967785599,0,0.4
-29.4106,-22.8382,1.4080000000000001,1.0916,4.8952532123447865,0,0.4
-29.1564,-22.3798,1.3532,1.0866,4.995714198032683,0,0.4
-28.9332,-21.8569,1.4945,1.0791,4.950579425491322,0,0.4
-28.6576,-21.4386,1.2842,1.0778,5.023779667328027,0,0.4
-28.4451,-20.9759,1.2999,1.0748,5.017156730252205,0,0.4
-28.1981,-20.5236,1.3019999999999998,1.074,5.18243217234196,0,0.4
-27.9368,-20.0638,1.2209,1.0732,5.390664696697124,0,0.3
-27.7317,-19.6011,1.2435,1.0714,5.6808874719008955,0,0.3
-27.4487,-19.158,1.1614,1.0642,5.877308374555095,0,0.2
-27.1927,-18.6441,1.1646,1.0474,5.882248912180573,0,0.2
-26.9298,-18.1807,1.1053,1.0358,6.0,0,0.2
-26.643,-17.6911,1.0656,1.0225,6.0,0,0.2
-26.379,-17.2473,1.0682,1.0112,6.0,0,0.2
-26.1135,-16.816,1.0089,1.0016,6.0,0,0.2
-25.8771,-16.3344,1.2575,0.9958,5.896530881896054,0,0.2
-25.6025,-15.9067,1.2715,0.9958,5.744594719279924,0,0.3
-25.3477,-15.4543,1.2626,1.0001,5.832758236298767,0,0.2
-25.0363,-15.0135,1.107,1.0064,5.748084159259432,0,0.3
-24.7715,-14.5859,1.0947,1.0136,5.7385011386863285,0,0.3
-24.5314,-14.1323,1.0513,1.0216,5.728344423923783,0,0.3
-24.2396,-13.7214,1.0629,1.0301,5.619880002796732,0,0.3
-24.003,-13.2791,1.1082,1.0344,5.205001321159263,0,0.4
-23.7276,-12.8397,1.1014,1.0343,4.903446502913237,0,0.4
-23.5042,-12.3922,1.1125,1.0338,4.64763555820407,0,0.5
-23.2701,-11.9308,1.1737,1.0367,4.653406037302309,0,0.5
-23.0132,-11.4918,1.1169,1.0409,4.668885254861947,0,0.5
-22.7364,-11.0593,1.0282,1.0491,5.029073076549276,0,0.4
-22.5129,-10.6008,1.0666,1.0564,5.433617084275699,0,0.3
-22.2389,-10.1059,1.1401,1.0663,5.712016854808359,0,0.3
-21.9898,-9.6699,1.1407,1.0708,5.709284513226467,0,0.3
-21.7688,-9.199,1.1022,1.0699,5.911547078039246,0,0.2
-21.5082,-8.736,1.0718,1.0697,5.8973705923066015,0,0.2
-21.2897,-8.2622,1.0933,1.0723,5.862647429103562,0,0.2
-21.0187,-7.7695,1.0406,1.0763,5.904469297419883,0,0.2
-20.753,-7.3069,0.9856,1.0671,5.852423273339571,0,0.2
-20.4755,-6.8108,0.9787,1.0576,5.698544862716157,0,0.3
-20.2022,-6.3036,0.9987,1.0574,5.359819740978344,0,0.3
-19.9661,-5.8518,1.0046,1.0711,4.999489797115865,0,0.4
-19.7209,-5.3964,0.9792,1.0903,4.821451162534057,0,0.4
-19.5278,-4.9205,0.9981,1.1181,4.707742647720245,0,0.5
-19.2955,-4.467,0.9215,1.1398,4.526522996211967,0,0.5
-19.0359,-3.9602,0.9281,1.1364,4.475281965025823,0,0.5
-18.8502,-3.4653,0.9317,1.1138,4.3288748381690105,0,0.5
-18.599,-2.9491,0.9282,1.0823,3.915157935661453,0,0.6
-18.3417,-2.4531,0.9604,1.0343,3.7855820347188205,0,0.6
-18.0827,-2.0238,0.9301,0.9739,3.4111456861947493,0,0.7
-17.8051,-1.6002,0.9688,0.8953,3.229436969626257,0,0.8
-17.4933,-1.1996,0.9255,0.8689,3.221546525213721,0,0.8
-17.1335,-0.7551,0.9211,0.9407,3.2016260496305717,0,0.8
-16.8099,-0.2581,0.8798,1.0639,3.1497571267430926,0,0.8
-16.5923,0.2149,0.8702,1.1753,3.292313410387921,0,0.7
-16.4129,0.6946,0.8603,1.3105,3.3054654435137794,0,0.7
-16.3192,1.2311,0.9221,1.4739,3.260442911116196,0,0.7
-16.3265,1.7503,0.9102,1.5177,3.2708285774544947,0,0.7
-16.2702,2.2494,0.9156,1.5023,3.2610367019488273,0,0.7
