x,y,z,yaw,velocity,change_flag,look_ahead
-17.0118,2.4425,0.7883,-1.5229,3.9611666814073954,0,0.7
-16.9957,1.9127,0.7263,-1.7042,4.079619697247537,0,0.6
-17.1357,1.4288,0.7323,-1.9906,3.9898839443631537,0,0.7
-17.442999999999998,0.9645,0.7529,-2.1525,3.924629371528808,0,0.7
-17.7268,0.5358,0.7206,-2.2213,3.8255726409187907,0,0.7
-18.0561,0.1395,0.7642,-2.1853,3.8112527831154948,0,0.7
-18.3986,-0.2768,0.8165,-1.9917,3.687019311427796,0,0.8
-18.5789,-0.7936,0.7964,-1.805,3.68831800294981,0,0.8
-18.6605,-1.3355,0.7941,-1.6663,3.8879647493078844,0,0.7
-18.7306,-1.8525,0.7736,-1.5959999999999999,4.189226208820235,0,0.6
-18.7852,-2.3847,0.7709,-1.5538,4.278990646033734,0,0.6
-18.7793,-2.9252,0.8057,-1.5228,4.424952549055676,0,0.5
-18.7665,-3.4514,0.8296,-1.5184,4.676470817916817,0,0.4
-18.7771,-3.9874,0.8151,-1.5229,4.66036488385018,0,0.4
-18.7842,-4.504,0.8345,-1.556,4.54205053239943,0,0.5
-18.8223,-5.0414,0.7967,-1.5862,4.45266284682677,0,0.5
-18.8856,-5.6001,0.8587,-1.5792,4.504242470880745,0,0.5
-18.9073,-6.1456,0.866,-1.5581,4.481835659777027,0,0.5
-18.9112,-6.6908,0.8419,-1.5394,4.686814554163979,0,0.4
-18.9185,-7.1961,0.8632,-1.5314,4.752543224197946,0,0.4
-18.9171,-7.7304,0.8481,-1.5252,4.870652047131376,0,0.4
-18.9302,-8.2581,0.9206,-1.5197,4.832864461055733,0,0.4
-18.9016,-8.7815,0.9083,-1.5241,4.934881791562714,0,0.4
-18.9046,-9.3604,0.9277,-1.5323,4.91740566337877,0,0.4
-18.9343,-9.9126,0.9382,-1.5404,4.853621898077082,0,0.4
-18.9568,-10.4209,0.9378,-1.5482,4.6655212650230125,0,0.4
-18.9421,-10.9261,0.9544,-1.5558,4.75813020877643,0,0.4
-18.9708,-11.4855,0.9755,-1.5619999999999998,4.704970641599756,0,0.4
-18.9712,-12.0346,0.9906,-1.568,4.619514644015462,0,0.5
-19.0105,-12.5555,0.9804,-1.5726,4.790264342377567,0,0.4
-19.0391,-13.0805,0.9997,-1.5646,4.882447238253828,0,0.4
-19.0642,-13.5872,1.0090000000000001,-1.5379,4.803493579428291,0,0.4
-19.0682,-14.0899,1.0452,-1.5116,4.840250574803654,0,0.4
-19.0364,-14.6141,1.0524,-1.4933,5.000337356684851,0,0.3
-19.0279,-15.1243,1.0584,-1.4824,5.042215576571503,0,0.3
-19.0095,-15.6713,1.0765,-1.4803,5.227155478219213,0,0.3
-18.9838,-16.177,1.1017,-1.4796,5.310692274713556,0,0.2
-18.9461,-16.6943,1.1136,-1.4797,5.310001935763367,0,0.2
-18.934,-17.2459,1.1262,-1.4848,5.277439501433555,0,0.2
-18.9143,-17.7789,1.1302,-1.4908,5.274157696384863,0,0.2
-18.9104,-18.2923,1.1708,-1.4955,5.242470344075787,0,0.3
-18.9073,-18.8027,1.1727,-1.4996,5.306812067741338,0,0.2
-18.9003,-19.3525,1.1867,-1.5009,5.289375221293097,0,0.2
-18.9033,-19.8699,1.1986,-1.5019999999999998,5.22096136590375,0,0.3
-18.8877,-20.3962,1.2171,-1.504,5.177212632209304,0,0.3
-18.8756,-20.9516,1.2309,-1.5053,5.1296797822564075,0,0.3
-18.8525,-21.4557,1.252,-1.5085,5.046779953054893,0,0.3
-18.8633,-21.9807,1.2697,-1.5125,4.874700329967611,0,0.4
-18.8699,-22.5493,1.2843,-1.5188,4.857307240110553,0,0.4
-18.8669,-23.0652,1.2934,-1.5257,4.728765148533086,0,0.4
-18.8595,-23.6015,1.3296,-1.5357,4.79795159817531,0,0.4
-18.8633,-24.1601,1.3225,-1.5497,4.915524664425124,0,0.4
-18.9214,-24.7289,1.3559,-1.5388,5.193373175579603,0,0.3
-18.9079,-25.2701,1.3563,-1.5194,5.3127981043275465,0,0.2
-18.8943,-25.8142,1.3932,-1.5127,5.529499174071428,0,0.2
-18.8866,-26.3505,1.4057,-1.5106,5.511015257742246,0,0.2
-18.8746,-26.8696,1.4104,-1.5097,5.460665403565571,0,0.2
-18.8696,-27.4316,1.4417,-1.5116,5.307782556357678,0,0.2
-18.8758,-27.9725,1.4462,-1.5163,5.216803229505999,0,0.3
-18.8645,-28.4902,1.4996,-1.521,5.117466250441165,0,0.3
-18.8884,-29.0592,1.5049,-1.5233,5.061826977991885,0,0.3
-18.8834,-29.5926,1.4971,-1.5261,5.081326576595033,0,0.3
-18.8766,-30.1408,1.526,-1.5286,5.208608526904496,0,0.3
-18.8587,-30.6526,1.5419999999999998,-1.5307,5.30650982457902,0,0.2
-18.8657,-31.1814,1.5616,-1.5290000000000001,5.354942568947264,0,0.2
-18.8734,-31.7215,1.5799,-1.5219,5.454711200269639,0,0.2
-18.874000000000002,-32.2323,1.5904,-1.5199,5.3142777067978235,0,0.2
-18.8891,-32.7782,1.5886,-1.5187,5.273349497778776,0,0.2
-18.8747,-33.3403,1.6138,-1.5203,5.077102631523182,0,0.3
-18.8597,-33.883,1.6368,-1.5204,4.9495411226363135,0,0.4
-18.8413,-34.3855,1.6692,-1.5219,4.8501794585614295,0,0.4
-18.8848,-34.911,1.6962,-1.5219,4.931448213828796,0,0.4
-18.8602,-35.4487,1.6913,-1.5226,4.898220680889163,0,0.4
-18.8471,-35.9509,1.7282,-1.5238,5.020304078349421,0,0.3
-18.8544,-36.5071,1.7576,-1.525,5.145084815746104,0,0.3
-18.8472,-37.067,1.7693,-1.5261,5.256415617770394,0,0.2
-18.8451,-37.5767,1.7886,-1.5157,5.231668439070822,0,0.3
-18.8546,-38.1454,1.7911,-1.5093,5.267905061036359,0,0.2
-18.8247,-38.6933,1.8086,-1.5084,5.220077458675784,0,0.3
-18.8563,-39.2471,1.821,-1.5062,5.140573865056124,0,0.3
-18.8338,-39.7596,1.8423,-1.5108,5.013233210700669,0,0.3
-18.82,-40.2798,1.8621,-1.5244,5.013160873676017,0,0.3
-18.8096,-40.792,1.9109,-1.5347,4.872837194787054,0,0.4
-18.8302,-41.294,1.9173,-1.5421,4.957129641765909,0,0.3
-18.843,-41.8022,1.9307,-1.5433,4.945522572169696,0,0.4
-18.8549,-42.3145,1.9356,-1.5347,4.997232499190735,0,0.3
-18.8665,-42.8506,1.9808,-1.5252,5.028228746115996,0,0.3
-18.84,-43.4003,2.0209,-1.5186,5.156610529787778,0,0.3
-18.8473,-43.9277,2.0168,-1.5143,5.162771388612901,0,0.3
-18.8721,-44.461000000000006,2.0253,-1.5118,5.269571269328061,0,0.2
-18.8517,-45.0066,2.049,-1.5134,5.266783366789195,0,0.2
-18.8364,-45.5702,2.0854,-1.5157,5.1919260804435305,0,0.3
-18.842,-46.0913,2.113,-1.5177,5.027880856154139,0,0.3
-18.8408,-46.6483,2.0817,-1.5195,4.886045698220325,0,0.4
-18.8498,-47.1628,2.0963,-1.5203,4.7796506516849835,0,0.4
-18.8517,-47.6686,2.1367,-1.5123,4.689230959137352,0,0.4
-18.8495,-48.1815,2.1488,-1.5045,4.699495803111455,0,0.4
-18.8209,-48.755,2.1626,-1.495,4.82976497257939,0,0.4
-18.8338,-49.2744,2.2005,-1.4822,4.8760275387570085,0,0.4
-18.7905,-49.8084,2.2099,-1.4789,4.924241331302913,0,0.4
-18.773,-50.3082,2.2296,-1.489,4.939262418541603,0,0.4
-18.7571,-50.8564,2.2455,-1.5026,4.906478383844934,0,0.4
-18.7546,-51.3709,2.3,-1.5216,4.865734906282009,0,0.4
-18.7759,-51.9325,2.3182,-1.531,4.764090207094463,0,0.4
-18.7556,-52.4723,2.3219,-1.5333,4.751393142664923,0,0.4
-18.7418,-52.9745,2.3407,-1.5315,4.796806012433779,0,0.4
-18.7603,-53.5093,2.3531,-1.5085,4.8540348038476,0,0.4
-18.7318,-54.0342,2.3566,-1.4743,4.8623514161087,0,0.4
-18.6976,-54.5414,2.3826,-1.4442,5.013013717540364,0,0.3
-18.6645,-55.0648,2.4027,-1.4331,5.076108895742713,0,0.3
-18.616,-55.6039,2.4112,-1.4445,5.143107691589998,0,0.3
-18.5629,-56.1488,2.4381,-1.4709999999999999,5.194336381406364,0,0.3
-18.5488,-56.7023,2.4459999999999997,-1.4899,5.2126634664982,0,0.3
-18.5317,-57.2605,2.4542,-1.5049,5.203116121103687,0,0.3
-18.5454,-57.8323,2.4764,-1.5202,5.16063144997031,0,0.3
-18.5127,-58.3395,2.508,-1.5203,5.05090052199375,0,0.3
-18.5031,-58.8733,2.5219,-1.5119999999999998,4.984334545084604,0,0.3
-18.496,-59.4155,2.5282,-1.5038,5.003161673190407,0,0.3
-18.5006,-59.9166,2.537,-1.506,5.068741876260991,0,0.3
-18.4896,-60.4389,2.5726,-1.5104,5.1033272493804205,0,0.3
-18.4716,-60.9762,2.5741,-1.5163,5.177221074900794,0,0.3
-18.4858,-61.5205,2.6137,-1.5221,5.2191401436575555,0,0.3
-18.4844,-62.0583,2.6272,-1.5219999999999998,5.085615926607083,0,0.3
-18.4948,-62.6112,2.6345,-1.5174,5.002427073836547,0,0.3
-18.4799,-63.1543,2.6376,-1.5134,4.831285496474925,0,0.4
-18.5083,-63.6598,2.6676,-1.5092,4.732329815274741,0,0.4
-18.5149,-64.1626,2.7076,-1.507,4.700436158817244,0,0.4
-18.4708,-64.6791,2.7262,-1.5078,4.682631471951141,0,0.4
-18.4586,-65.1821,2.7185,-1.5117,4.648156809992718,0,0.5
-18.4711,-65.7435,2.7396,-1.5146,4.720949030001337,0,0.4
-18.4366,-66.2453,2.7408,-1.5194,4.832315495908595,0,0.4
-18.4527,-66.7706,2.7453,-1.5208,4.872756112653281,0,0.4
-18.4705,-67.3143,2.7882,-1.5238,4.918042186922455,0,0.4
-18.4597,-67.8751,2.8232,-1.5258,4.935667586900251,0,0.4
-18.4433,-68.4388,2.8545,-1.5145,4.990380204796577,0,0.3
-18.4383,-68.9403,2.8546,-1.5053,4.907501620906665,0,0.4
-18.4353,-69.459,2.8841,-1.5037,4.850172813411634,0,0.4
-18.4134,-70.0316,2.8974,-1.5028,4.867267279793683,0,0.4
-18.3969,-70.581,2.9115,-1.5041,4.892733568780644,0,0.4
-18.3853,-71.1477,2.9619999999999997,-1.5075,4.822496328841162,0,0.4
-18.3881,-71.6504,2.9728,-1.5077,4.824307673320598,0,0.4
-18.3666,-72.2028,2.963,-1.5089,4.732630869079391,0,0.4
-18.3521,-72.7312,2.9857,-1.5101,4.743594778967214,0,0.4
-18.3258,-73.2906,3.0434,-1.5115,4.676013435003245,0,0.4
-18.348,-73.8184,3.0536,-1.5126,4.669948656058831,0,0.4
-18.3544,-74.3518,3.0705,-1.5148,4.731405592022297,0,0.4
-18.3009,-74.9143,3.0665,-1.5154,4.802507328736008,0,0.4
-18.3323,-75.4511,3.1196,-1.5134,4.885476982419145,0,0.4
-18.3298,-75.9894,3.1225,-1.5119,4.953670985507133,0,0.3
-18.3132,-76.5219,3.1581,-1.5118,4.9907345779240835,0,0.3
-18.3013,-77.079,3.1888,-1.5107,4.979459418222847,0,0.3
-18.316,-77.6122,3.1888,-1.5091,5.089605624756311,0,0.3
-18.3057,-78.1266,3.1952,-1.5061,5.166265115080243,0,0.3
-18.3155,-78.6665,3.2316,-1.5,5.239577243429448,0,0.3
-18.2839,-79.2379,3.2345,-1.4915,5.3559944591107005,0,0.2
-18.2796,-79.7784,3.2275,-1.4892,5.451792149625727,0,0.2
-18.2606,-80.298,3.2597,-1.4909999999999999,5.48919416077309,0,0.2
-18.2503,-80.8478,3.2706,-1.4839,5.333414083593185,0,0.2
-18.2112,-81.3725,3.3019,-1.4731,5.262729788117399,0,0.2
-18.1822,-81.9252,3.3292,-1.4638,5.1538841022216415,0,0.3
-18.1395,-82.4584,3.3559,-1.4638,5.061155063272894,0,0.3
-18.1091,-82.9934,3.3867,-1.4744,4.930419680417247,0,0.4
-18.1114,-83.5472,3.3782,-1.4923,4.932053564317826,0,0.4
-18.0958,-84.0917,3.3875,-1.51,4.962486221062992,0,0.3
-18.0814,-84.6184,3.4098,-1.5242,5.056299436913732,0,0.3
-18.0719,-85.1224,3.4426,-1.5404,5.087575338445544,0,0.3
-18.0872,-85.6803,3.4699,-1.5539,5.158243877859858,0,0.3
-18.1164,-86.1984,3.4688,-1.5563,5.244824691833926,0,0.3
-18.1197,-86.7277,3.4955,-1.5557,5.2036496006789905,0,0.3
-18.1466,-87.2294,3.4864,-1.5532,5.126193175187766,0,0.3
-18.1596,-87.7486,3.5255,-1.5519,5.0573239670204835,0,0.3
-18.1775,-88.3028,3.5489,-1.55,5.048665977911232,0,0.3
-18.1821,-88.8732,3.5904,-1.5383,5.062643423192409,0,0.3
-18.1797,-89.4225,3.5941,-1.5261,5.084951584661835,0,0.3
-18.2002,-89.9693,3.6264,-1.518,5.169601427818434,0,0.3
-18.1795,-90.491,3.6568,-1.5108,5.302105657692829,0,0.2
-18.1914,-91.0153,3.6585,-1.5032,5.361980257437882,0,0.2
-18.1781,-91.5459,3.6752,-1.4967,5.355454383060693,0,0.2
-18.1596,-92.0772,3.7006,-1.4909999999999999,5.3310457648059995,0,0.2
-18.1301,-92.6136,3.7421,-1.4856,5.177025752928884,0,0.3
-18.1024,-93.1579,3.7403,-1.48,4.892947365157757,0,0.4
-18.0917,-93.6929,3.7684,-1.4659,4.650168994006842,0,0.4
-18.0371,-94.2326,3.7848,-1.4219,4.439276059594991,0,0.5
-17.987000000000002,-94.7455,3.8065,-1.3723,4.228532043453187,0,0.6
-17.8753,-95.2615,3.8466,-1.3091,4.1018422124066864,0,0.6
-17.7083,-95.8037,3.8566,-1.1903,4.111882700690601,0,0.6
-17.5229,-96.2898,3.8633,-1.0429,4.154632217776179,0,0.6
-17.2966,-96.7385,3.897,-0.9174,4.27139675355129,0,0.6
-16.9668,-97.146,3.9002,-0.7918,4.447170556382761,0,0.5
-16.607,-97.5039,3.8893,-0.6881,4.7958552260400396,0,0.4
-16.1742,-97.8245,3.9041,-0.5725,4.97050158888136,0,0.3
-15.722000000000001,-98.1263,3.9042,-0.4731,5.059850315461618,0,0.3
-15.2697,-98.3774,3.9184,-0.4131,5.101857606490698,0,0.3
-14.7708,-98.601,3.9207,-0.3996,5.058730104271695,0,0.3
-14.3078,-98.8464,3.9653,-0.4572,4.798967035657877,0,0.4
-13.8582,-99.1299,4.0011,-0.5522,4.725580533908349,0,0.4
-13.442,-99.4529,3.9682,-0.6548,4.807032483405315,0,0.4
-12.9887,-99.8354,3.9813,-0.7532,4.850487687074678,0,0.4
-12.6289,-100.2614,4.0177,-0.8490000000000001,4.937510954502621,0,0.4
-12.3187,-100.7185,4.045,-0.9416,5.024333599892177,0,0.3
-12.0564,-101.1957,4.0623,-1.0277,4.998703161826339,0,0.3
-11.7902,-101.6868,4.0249,-1.1119,4.978293524568988,0,0.3
-11.6076,-102.1567,4.0784,-1.1827,4.990972377518576,0,0.3
-11.4279,-102.6735,4.0891,-1.2516,4.976743452688416,0,0.3
-11.3042,-103.1978,4.1026,-1.3095,5.031964869075175,0,0.3
-11.2206,-103.7486,4.1396,-1.3648,5.110439108992965,0,0.3
-11.1317,-104.2463,4.1439,-1.4052,5.160096798484141,0,0.3
-11.0752,-104.7888,4.1694,-1.4393,5.008399174710546,0,0.3
-11.0275,-105.3583,4.189,-1.449,4.903561846859722,0,0.4
-11.0017,-105.8634,4.1997,-1.4585,4.908006124493245,0,0.4
-10.9989,-106.4089,4.1801,-1.4672,4.936051891159467,0,0.4
-10.970999999999998,-106.9415,4.2091,-1.4585,4.848845136272189,0,0.4
-10.9079,-107.4961,4.2651,-1.4413,4.969437869762703,0,0.3
-10.8758,-108.0215,4.2977,-1.4396,4.993430949002624,0,0.3
-10.8202,-108.54,4.3418,-1.4397,4.845585245529616,0,0.4
-10.7884,-109.07799999999999,4.3483,-1.4375,4.71162004884303,0,0.4
-10.7395,-109.6287,4.3755,-1.4515,4.756866905521032,0,0.4
-10.7105,-110.1363,4.3649,-1.4676,4.79364604095613,0,0.4
-10.6566,-110.6808,4.3767,-1.4769999999999999,4.851647843083441,0,0.4
-10.6301,-111.1937,4.3897,-1.4766,5.020492820515985,0,0.3
-10.6179,-111.7381,4.4041,-1.4786,5.161056958697254,0,0.3
-10.5873,-112.2864,4.4154,-1.4919,5.079995557216516,0,0.3
-10.5788,-112.8324,4.4532,-1.4979,5.077828073896772,0,0.3
-10.5914,-113.3843,4.5055,-1.506,5.142352467543475,0,0.3
-10.5728,-113.9314,4.5265,-1.5172,5.110447153752683,0,0.3
-10.5671,-114.4649,4.5493,-1.5159,5.057670246226271,0,0.3
-10.5835,-114.9738,4.5358,-1.5131,5.116552173036001,0,0.3
-10.5731,-115.4922,4.5672,-1.5109,5.004378872486935,0,0.3
-10.5817,-116.0018,4.5693,-1.5089,4.953176024385181,0,0.3
-10.5653,-116.5033,4.6388,-1.5054,4.940115904792437,0,0.4
-10.5564,-117.029,4.5891,-1.5044,4.857261107239111,0,0.4
-10.5381,-117.5619,4.627,-1.5089,4.724999921440523,0,0.4
-10.5585,-118.0937,4.6764,-1.5174,4.7144528600028455,0,0.4
-10.5205,-118.6733,4.698,-1.5253,4.712210905972709,0,0.4
-10.5433,-119.2107,4.7248,-1.5377,4.551403732635753,0,0.5
-10.5516,-119.7421,4.7419,-1.5665,4.384877425519707,0,0.5
-10.6101,-120.2994,4.7842,-1.6013,4.371439920256122,0,0.5
-10.6344,-120.8257,4.793,-1.6268,4.374540843924054,0,0.5
-10.6899,-121.3649,4.7976,-1.6529,4.298325458981985,0,0.6
-10.7476,-121.8884,4.7948,-1.6814,4.351373778125417,0,0.5
-10.8659,-122.4019,4.8134,-1.7019,4.588363900653101,0,0.5
-10.9294,-122.898,4.8455,-1.7139,4.687048192665923,0,0.4
-11.0501,-123.4606,4.8843,-1.7158,4.704618242566032,0,0.4
-11.1516,-123.9621,4.8957,-1.6956,4.804546851381986,0,0.4
-11.2145,-124.5089,4.9353,-1.6346,4.785373600324647,0,0.4
-11.2664,-125.0337,4.9266,-1.5695,4.668787519224808,0,0.4
-11.2684,-125.5815,4.9313,-1.494,4.53989045216711,0,0.5
-11.2359,-126.0959,4.977,-1.3971,4.407211616994224,0,0.5
-11.1679,-126.6598,5.0013,-1.2570000000000001,4.20072902684952,0,0.6
-10.958,-127.1967,5.0216,-1.0783,4.095637093312321,0,0.6
-10.6607,-127.6917,5.0423,-0.8663,4.0043335663037745,0,0.7
-10.2582,-128.102,5.064,-0.6188,3.896925863748784,0,0.7
-9.76,-128.4054,5.0436,-0.3435,4.060405464625884,0,0.6
-9.2751,-128.5398,5.077,-0.0905,4.051602434610977,0,0.6
-8.7506,-128.5739,5.0713,0.1841,4.154460756158429,0,0.6
-8.2573,-128.4711,5.0511,0.322,4.220838090823664,0,0.6
-7.7687,-128.2913,5.0687,0.3308,4.293869162156987,0,0.6
-7.2631,-128.17700000000002,5.0292,0.2917,4.182250315104387,0,0.6
-6.7405,-128.0818,4.9436,0.2409,4.223608483921579,0,0.6
-6.185,-127.9812,4.9316,0.1931,4.2007233416838305,0,0.6
-5.6675,-127.9234,4.9199,0.1635,4.363266076557901,0,0.5
-5.1703,-127.8672,4.9474,0.1405,4.48374195131647,0,0.5
-4.6578,-127.83,4.8467,0.1073,4.4641382200619,0,0.5
-4.1473,-127.8146,4.8613,0.0853,4.549011178129048,0,0.5
-3.6204,-127.8144,4.7544,0.057999999999999996,4.563574351697747,0,0.5
-3.1087,-127.7973,4.8759,0.0248,4.375537111408546,0,0.5
-2.5742,-127.8217,4.798,-0.0105,4.215555028953878,0,0.6
-2.0476,-127.8723,4.7597,-0.0592,4.287744245746569,0,0.6
-1.5184,-127.9297,4.7783,-0.1135,4.309508670995226,0,0.6
-1.0239,-128.0288,4.6486,-0.1589,4.394726025899935,0,0.5
-0.4474,-128.1917,4.681,-0.2163,4.533016972720096,0,0.5
0.0211,-128.3762,4.6571,-0.2551,4.610733211887697,0,0.5
0.5393,-128.5348,4.8449,-0.2908,4.568911496802025,0,0.5
1.0669,-128.7578,4.7129,-0.3263,4.55866978333434,0,0.5
1.5931,-128.9259,4.9017,-0.3611,4.560006499366738,0,0.5
2.0812,-129.1565,4.9319,-0.3965,4.396731541543449,0,0.5
2.5675,-129.4029,4.8325,-0.4255,4.3208308999188505,0,0.6
3.0226,-129.6804,4.9144,-0.4583,4.300826938310313,0,0.6
3.5084,-129.9649,4.8494,-0.5199,4.247935646336181,0,0.6
3.93,-130.236,5.0154,-0.5839,4.124221963048555,0,0.6
4.3888,-130.639,4.8565,-0.6549,4.088447226908953,0,0.6
4.7877,-131.0025,4.9241,-0.7145,4.119329585019406,0,0.6
5.1726,-131.3868,4.9057,-0.7712,4.198862674088039,0,0.6
5.5467,-131.7705,4.9502,-0.8346,4.207853715289077,0,0.6
5.8745,-132.1515,4.9804,-0.884,4.225263943317359,0,0.6
6.1569,-132.5835,5.0976,-0.9242,4.383954114598229,0,0.5
6.4348,-133.0038,5.0923,-0.9649,4.399567382794817,0,0.5
6.7257,-133.4804,5.0616,-1.0089,4.29431902355372,0,0.6
6.9935,-133.9592,5.1856,-1.0407,4.361005501802127,0,0.5
7.2357,-134.4811,5.0938,-1.0786,4.3455951976212805,0,0.6
7.4842,-135.0145,5.1877,-1.1355,4.365258590549509,0,0.5
7.6361,-135.502,5.1337,-1.1849,4.379103079194348,0,0.5
7.8023,-136.0162,5.1459,-1.2372,4.575582654199261,0,0.5
7.9421,-136.5384,5.2345,-1.2972,4.6331970142493795,0,0.5
8.0396,-137.0665,5.2782,-1.3425,4.739036933923742,0,0.4
8.1468,-137.5868,5.3052,-1.3681,4.730694793850701,0,0.4
8.1738,-138.1229,5.3155,-1.3894,4.847772610821315,0,0.4
8.2754,-138.6405,5.3136,-1.4118,4.8088066983382305,0,0.4
8.3295,-139.2191,5.2752,-1.4379,4.656105633534723,0,0.4
8.3802,-139.7501,5.3882,-1.4789,4.517680766874568,0,0.5
8.3584,-140.2595,5.3955,-1.5148,4.314808651237055,0,0.6
8.3703,-140.7789,5.501,-1.5735,4.2291297551688904,0,0.6
8.3318,-141.2986,5.5444,-1.6277,4.121363795011398,0,0.6
8.2785,-141.826,5.5003,-1.6812,4.036389394874889,0,0.7
8.154,-142.3924,5.4361,-1.7353,3.9061105751503824,0,0.7
7.9762,-142.8798,5.486000000000001,-1.794,3.9069179494329767,0,0.7
7.8536,-143.3694,5.4553,-1.8411,3.7960581473498785,0,0.7
7.6728,-143.8567,5.4433,-1.8938,3.5933659729101146,0,0.8
7.4823,-144.394,5.689,-1.9531,3.6140449603736586,0,0.8
7.2217,-144.8249,5.5958,-2.0063,3.796441741262373,0,0.7
6.9672,-145.3043,5.6984,-2.0578,3.9570286340655816,0,0.7
6.7375,-145.786,5.6935,-2.1001,4.013205486555934,0,0.7
6.3765,-146.1836,5.7304,-2.1411,4.050456792278256,0,0.6
6.0844,-146.6329,5.7051,-2.1923,4.192230568296498,0,0.6
5.7727,-147.0319,5.7207,-2.2442,4.227987259523077,0,0.6
5.4422,-147.4668,5.7629,-2.2983,4.2066837571542655,0,0.6
5.0835,-147.8278,5.7845,-2.3475,4.256081171132737,0,0.6
4.6403,-148.1693,5.8489,-2.3926,4.573095851183992,0,0.5
4.2819,-148.555,5.7879,-2.3931,4.7302090046611,0,0.4
3.8124,-148.8777,5.8678,-2.3928,4.863162279797391,0,0.4
3.4082,-149.2201,5.8804,-2.3881,5.112827011381691,0,0.3
3.0172,-149.5696,5.891,-2.3855,5.258816614654621,0,0.2
2.5992,-149.9128,5.9341,-2.3754,5.240808186670728,0,0.3
2.2123,-150.2593,5.9313,-2.3631,5.100200119628922,0,0.3
1.8254,-150.6114,5.9586,-2.3753,5.132611991204572,0,0.3
1.4213,-150.961,5.9645,-2.4188,4.983870533410281,0,0.3
0.9825,-151.2878,5.9446,-2.4873,5.028109361941235,0,0.3
0.5586,-151.5644,5.9686,-2.5527,4.79105754419566,0,0.4
0.0954,-151.7931,5.9443,-2.6096,4.591296375221882,0,0.5
-0.371,-152.069,5.9959,-2.5897,4.301177948955949,0,0.6
-0.8013,-152.3411,6.0761,-2.519,4.0807660866333455,0,0.6
-1.2551,-152.6234,6.0206,-2.3852,3.7471600104346994,0,0.8
-1.5819,-153.0315,6.0414,-2.2172,3.6968690249051264,0,0.8
-1.8977,-153.5093,6.0926,-1.9657,3.668625370572157,0,0.8
-2.0708,-154.0001,6.1423,-1.7011,3.6196398889920434,0,0.8
-2.0944,-154.57299999999998,6.1715,-1.4189,3.8391203745770723,0,0.7
-1.9495,-155.1017,6.1449,-1.1132,4.022405685472474,0,0.7
-1.6802,-155.5874,6.1034,-0.8347,4.2230508737636505,0,0.6
-1.2623,-155.9061,6.1454,-0.6406,4.490464397026441,0,0.5
-0.8284,-156.2369,6.1257,-0.5758,4.644305604472514,0,0.5
-0.3868,-156.5465,6.1812,-0.5521,4.490628554077397,0,0.5
0.0333,-156.8279,6.1448,-0.5375,4.330226395585409,0,0.6
0.4925,-157.1276,6.1163,-0.5082,4.061194277930531,0,0.6
0.9544,-157.4343,6.1342,-0.4973,3.8156006866247534,0,0.7
1.4144,-157.6968,6.1542,-0.4951,3.590901760969146,0,0.8
1.8217,-158.0144,6.2003,-0.4886,3.575732005400086,0,0.8
2.2272,-158.3088,6.2146,-0.4803,3.5260781621449233,0,0.8
2.6801,-158.5296,6.1713,-0.4783,3.5790945747745724,0,0.8
3.1207,-158.7766,6.2083,-0.4777,3.597426135389318,0,0.8
3.5299,-159.1158,6.1701,-0.4743,3.6184456492694963,0,0.8
4.0613,-159.361,6.207000000000001,-0.4672,3.5339460172875494,0,0.8
4.4985,-159.6095,6.3262,-0.4554,3.6189646196700496,0,0.8
4.9533,-159.9048,6.2631,-0.4383,3.6303472374632393,0,0.8
5.4304,-160.1205,6.2895,-0.43200000000000005,3.7165950546590114,0,0.8
5.9073,-160.3075,6.261,-0.4278,3.753425289151197,0,0.7
6.3432,-160.6016,6.2685,-0.4233,3.846853168645051,0,0.7
6.827999999999999,-160.8358,6.2569,-0.419,3.9172096748829066,0,0.7
7.3134,-161.0804,6.2853,-0.4131,3.964636609168057,0,0.7
7.7915,-161.3304,6.2888,-0.4503,3.8898994499734814,0,0.7
8.2579,-161.6598,6.3238,-0.5006,3.8852550197491666,0,0.7
8.6886,-161.925,6.3528,-0.5289,3.99108421162566,0,0.7
9.1288,-162.2191,6.3501,-0.5457,3.9618305001500724,0,0.7
9.5901,-162.4559,6.3274,-0.5609,3.9875790629809815,0,0.7
10.0131,-162.7951,6.3391,-0.5739,4.103836440736004,0,0.6
10.4561,-163.1137,6.4102,-0.5931,4.169405588809059,0,0.6
10.8971,-163.4194,6.3558,-0.6399,3.904569297956609,0,0.7
11.2698,-163.7944,6.4322,-0.7121,3.8177662381745856,0,0.7
11.6555,-164.1948,6.4557,-0.818,3.879189864034779,0,0.7
12.0154,-164.6353,6.4268,-0.9122,3.6883338947959876,0,0.8
12.3004,-165.0685,6.3944,-1.0045,3.6756156188195996,0,0.8
12.4982,-165.5452,6.4164,-1.0553,4.032123793524388,0,0.7
12.7447,-166.0377,6.4309,-1.103,4.186816578346381,0,0.6
12.9656,-166.5422,6.4278,-1.1546,4.25605028668919,0,0.6
13.1152,-167.03099999999998,6.5086,-1.2267,4.5225579250943255,0,0.5
13.243,-167.5676,6.4851,-1.2687,4.62032212593456,0,0.5
13.380999999999998,-168.0605,6.5305,-1.3097,4.694508733823275,0,0.4
13.449000000000002,-168.595,6.5329,-1.3726,4.867883664938825,0,0.4
13.5441,-169.092,6.5694,-1.4284,5.004075666575652,0,0.3
13.5694,-169.62400000000002,6.5954,-1.4662,5.1550616495842085,0,0.3
13.5541,-170.1323,6.6299,-1.4842,5.441101761135344,0,0.2
13.5951,-170.6416,6.6054,-1.5052,5.538550324512846,0,0.2
13.6053,-171.1813,6.6193,-1.5224,5.616476779877292,0,0.1
13.6165,-171.7145,6.6421,-1.5283,5.656990146846754,0,0.1
13.6049,-172.2501,6.6668,-1.5311,5.628117511840914,0,0.1
13.6049,-172.7648,6.6758,-1.5299,5.573126341895655,0,0.1
13.5981,-173.3036,6.7305,-1.5204,5.543847774792695,0,0.2
13.6041,-173.8801,6.7382,-1.5183,5.496350913758971,0,0.2
13.6085,-174.4075,6.7842,-1.5178,5.410715518833762,0,0.2
13.5967,-174.9378,6.7817,-1.5188,5.301547657869008,0,0.2
13.6143,-175.4474,6.7851,-1.5212,5.294789710297341,0,0.2
13.6017,-175.9894,6.8274,-1.5233,5.282742405092095,0,0.2
13.6318,-176.5472,6.8665,-1.5244,5.304681122062582,0,0.2
13.655999999999999,-177.1021,6.8497,-1.5259,5.302761858691405,0,0.2
13.6237,-177.6306,6.8868,-1.5251,5.256614583183575,0,0.2
13.6639,-178.1321,6.9301,-1.5263,5.2740883272312935,0,0.2
13.6241,-178.6374,6.9534,-1.5249,5.112218336661383,0,0.3
13.6796,-179.1705,6.9407,-1.5278,5.141770499736994,0,0.3
13.6883,-179.72400000000002,6.9906,-1.5264,5.231068444771616,0,0.3
13.6286,-180.2727,7.0229,-1.5084,5.425860307279968,0,0.2
13.657,-180.8025,7.0323,-1.4929,5.384292073262586,0,0.2
13.6903,-181.3244,7.041,-1.4758,5.491354719782549,0,0.2
13.716,-181.8642,7.0561,-1.4645,5.39439477845041,0,0.2
13.735,-182.3662,7.0931,-1.4525,5.250262091951312,0,0.2
13.7661,-182.8759,7.1102,-1.4480000000000002,5.1902601294365756,0,0.3
13.8093,-183.4071,7.1558,-1.4514,5.090549655427097,0,0.3
13.8217,-183.9483,7.2126,-1.4541,5.110735023846823,0,0.3
13.8393,-184.5127,7.2275,-1.4568,5.090288380549419,0,0.3
13.9103,-185.0563,7.255,-1.4609,5.158247468941147,0,0.3
13.9414,-185.5629,7.2836,-1.4635,5.222251304062647,0,0.3
13.9506,-186.1157,7.2991,-1.4659,5.386458095327353,0,0.2
13.9991,-186.6584,7.3286,-1.4656,5.494335191259385,0,0.2
14.0475,-187.2339,7.3503,-1.4656,5.5416979097948085,0,0.2
14.0569,-187.7523,7.3769,-1.4633,5.589394779686024,0,0.1
14.0913,-188.2744,7.4002,-1.4598,5.5361094973366445,0,0.2
14.1162,-188.7889,7.4182,-1.4585,5.504195609502915,0,0.2
14.1506,-189.3143,7.4557,-1.4631,5.364961714498229,0,0.2
14.2144,-189.8655,7.4704,-1.4680000000000002,5.420195249582672,0,0.2
14.22,-190.3788,7.4779,-1.4702,5.329578121395219,0,0.2
14.2508,-190.8905,7.5117,-1.4903,5.33920415806341,0,0.2
14.2354,-191.4418,7.5083,-1.5161,5.391944603834677,0,0.2
14.3029,-191.988,7.5313,-1.5252,5.451151735366432,0,0.2
14.296,-192.5099,7.5293,-1.5293,5.4109313540565545,0,0.2
14.2956,-193.0508,7.5949,-1.5323,5.516283786799958,0,0.2
14.2647,-193.5587,7.5929,-1.536,5.553401797162791,0,0.1
14.2687,-194.0769,7.5676,-1.5395,5.453066360222645,0,0.2
14.2513,-194.5882,7.6,-1.5412,5.454834910789702,0,0.2
14.2336,-195.1014,7.6496,-1.545,5.349199499474931,0,0.2
14.2351,-195.6319,7.6798,-1.545,5.176661401357697,0,0.3
14.2259,-196.1336,7.7025,-1.5473,5.1084419308740925,0,0.3
14.1973,-196.6527,7.7212,-1.5455,5.020947949015113,0,0.3
14.1819,-197.185,7.7692,-1.514,5.0478155133417575,0,0.3
14.2061,-197.7384,7.7786,-1.4764,5.166400155265001,0,0.3
14.273,-198.2385,7.7568,-1.4785,5.374972308071904,0,0.2
14.2731,-198.7393,7.792000000000001,-1.4907,5.3884103490904,0,0.2
14.2725,-199.2913,7.8365,-1.5030000000000001,5.530616585376963,0,0.2
14.2731,-199.803,7.8362,-1.5132,5.450348869411081,0,0.2
14.2607,-200.3806,7.8852,-1.5241,5.384025888676264,0,0.2
14.2598,-200.9488,7.9132,-1.5366,5.201158395401262,0,0.3
14.2263,-201.4572,7.9497,-1.5424,5.089036061108872,0,0.3
14.2396,-202.002,7.9669,-1.5533,4.935685596379961,0,0.4
14.1802,-202.5062,7.9571,-1.561,4.925018560719163,0,0.4
14.162,-203.09400000000002,8.014,-1.5722,4.987145106043046,0,0.3
14.1661,-203.6351,8.0565,-1.6027,4.994819256129475,0,0.3
14.083,-204.1756,8.1053,-1.6285,5.0631653933345655,0,0.3
14.0124,-204.7303,8.1099,-1.6581,5.117889289167247,0,0.3
13.9529,-205.2354,8.1333,-1.6832,4.912640147949458,0,0.4
13.8805,-205.7983,8.1237,-1.7112,4.83979460274817,0,0.4
13.7764,-206.2977,8.204,-1.7395,4.886625774743423,0,0.4
13.6943,-206.7971,8.2061,-1.7645,4.7115223187510225,0,0.4
13.5587,-207.3335,8.1956,-1.7767,4.6097303345870015,0,0.5
13.3733,-207.873,8.2184,-1.7967,4.628748999895288,0,0.5
13.2472,-208.3614,8.2643,-1.8152,4.490913773235786,0,0.5
13.0706,-208.8887,8.2212,-1.8281,4.409926533565983,0,0.5
12.8667,-209.4175,8.2422,-1.8357,4.444101385247215,0,0.5
12.7384,-209.9083,8.3107,-1.8492,4.52625151475572,0,0.5
12.5876,-210.4476,8.2806,-1.8593,4.553079675410343,0,0.5
12.4193,-210.9265,8.2683,-1.8666,4.6884532376391785,0,0.4
12.2508,-211.4091,8.373,-1.8747,4.702185340710745,0,0.4
12.0191,-211.8988,8.437000000000001,-1.8789,4.853836736978307,0,0.4
11.8387,-212.3686,8.4302,-1.8856,4.806775918289273,0,0.4
11.659,-212.8998,8.4462,-1.8868,4.856193914723111,0,0.4
11.4719,-213.4065,8.4552,-1.8871,4.796256279307753,0,0.4
11.2778,-213.8768,8.4752,-1.8813,4.809016575502929,0,0.4
11.1001,-214.3628,8.513,-1.8831,4.782371644820494,0,0.4
10.9348,-214.8544,8.5273,-1.8971,4.795121234101757,0,0.4
10.7279,-215.3292,8.5484,-1.9068,4.852583259979963,0,0.4
10.5283,-215.8469,8.5246,-1.9184,4.911575335087292,0,0.4
10.2855,-216.3262,8.5614,-1.9249,4.859311169537666,0,0.4
10.0748,-216.8191,8.6235,-1.9358,4.855987060530245,0,0.4
9.8813,-217.3104,8.6768,-1.943,4.916369140857688,0,0.4
9.704,-217.797,8.5889,-1.95,4.962091336839716,0,0.3
9.5007,-218.2586,8.6613,-1.9546,4.938835031071978,0,0.4
9.2123,-218.7554,8.7365,-1.9604,5.010098192786071,0,0.3
8.9622,-219.2381,8.7492,-1.9846,4.980966355017315,0,0.3
8.7252,-219.7162,8.7544,-2.0159,4.9934408395995655,0,0.3
8.4681,-220.1785,8.7546,-2.0286,5.012956302259498,0,0.3
8.2141,-220.6286,8.7585,-2.035,5.075016517734494,0,0.3
7.9921,-221.0846,8.834,-2.0491,5.204159057147276,0,0.3
7.706,-221.5333,8.8673,-2.0540000000000003,5.147113628192146,0,0.3
7.4743,-221.9842,8.8321,-2.0616,5.120175294601089,0,0.3
7.2046,-222.4142,8.9207,-2.0715,4.952161472131606,0,0.3
6.9415,-222.8911,8.802,-2.0918,4.983400874233928,0,0.3
6.6566,-223.3197,8.9085,-2.1145,4.757139597812107,0,0.4
6.2882,-223.7328,8.9294,-2.1291,4.818982538006404,0,0.4
5.9447,-224.1411,9.004,-2.1484,4.886602264067872,0,0.4
5.7103,-224.5898,8.9833,-2.1614,5.116463836090662,0,0.3
5.3573,-224.9955,8.9993,-2.1689,5.112122461705859,0,0.3
4.9936,-225.415,9.0,-2.1755,5.249504321544773,0,0.3
4.672,-225.8722,9.0496,-2.1869,5.233701864778887,0,0.3
4.3732,-226.2731,9.0426,-2.1895,5.1606716881029335,0,0.3
4.0566,-226.6959,9.0306,-2.1848,4.998750840174981,0,0.3
3.7465,-227.138,9.0793,-2.1718,4.962718350961647,0,0.3
3.407,-227.53,9.0812,-2.1742,4.89136253014763,0,0.4
3.0542,-227.9492,9.0533,-2.1847,4.826472096681026,0,0.4
2.7371,-228.3645,9.1247,-2.199,4.647897579871124,0,0.5
2.445,-228.7708,9.0664,-2.2038,4.4740542840546285,0,0.5
2.1071,-229.2064,9.1817,-2.2016,4.278824606317842,0,0.6
1.7764,-229.614,9.1613,-2.2123,4.152860337415376,0,0.6
1.4429,-230.0042,9.1633,-2.2288,4.027430081560117,0,0.7
1.0872,-230.389,9.2712,-2.2371,3.9078806515401836,0,0.7
0.7756,-230.81599999999997,9.1888,-2.2544,3.8299704589381065,0,0.7
0.3739,-231.2312,9.2675,-2.2645,3.733721729826182,0,0.8
0.0164,-231.6672,9.275,-2.278,3.765033920334822,0,0.7
-0.3394,-232.1059,9.3058,-2.295,3.780948556614952,0,0.7
-0.7736,-232.476,9.254,-2.3114,3.845371922878045,0,0.7
-1.1751,-232.843,9.241,-2.3353,4.061174709737302,0,0.6
-1.5466,-233.2228,9.276,-2.3533,4.255022320814585,0,0.6
-1.9059,-233.5713,9.3157,-2.3629,4.25047188809849,0,0.6
-2.2878,-233.9099,9.3244,-2.3741,4.461552067635424,0,0.5
-2.6807,-234.2196,9.3158,-2.3902,4.686801968840648,0,0.4
-3.0934,-234.5694,9.3219,-2.4235,4.660759325256893,0,0.4
-3.5517,-234.9072,9.3234,-2.4826,4.6532884235117935,0,0.4
-4.0111,-235.1827,9.3329,-2.5271,4.759642461158616,0,0.4
-4.4657,-235.485,9.3292,-2.5604,4.71041789628431,0,0.4
-4.9617,-235.7263,9.366,-2.6203,4.7069176923352405,0,0.4
-5.4708,-235.96,9.387,-2.7055,4.766191985522242,0,0.4
-5.981,-236.16099999999997,9.3816,-2.7764,4.758677980713681,0,0.4
-6.4746,-236.3402,9.3707,-2.8189,4.690453769074836,0,0.4
-6.9857,-236.4888,9.3346,-2.8404,4.634288303941109,0,0.5
-7.4869,-236.6219,9.3659,-2.8335,4.585768598297181,0,0.5
-8.0111,-236.7135,9.3463,-2.8007,4.732275095377368,0,0.4
-8.4798,-236.9094,9.3552,-2.8002,4.877347547843877,0,0.4
-8.9684,-237.1382,9.3629,-2.8361,5.200242605009796,0,0.3
-9.4864,-237.19400000000002,9.369,-2.8792,5.4115277582584635,0,0.2
-9.9892,-237.2805,9.3585,-2.9068,5.314276533873885,0,0.2
-10.4938,-237.3636,9.4033,-2.9357,5.187161600020639,0,0.3
-11.0044,-237.4023,9.3805,-2.9657,4.882084309237692,0,0.4
-11.5203,-237.4969,9.4227,-2.9521,4.434413592759868,0,0.5
-12.0384,-237.5663,9.3873,-2.9784,4.057044027955496,0,0.6
-12.5644,-237.5536,9.4049,-3.0638,3.9723829677040747,0,0.7
-13.0686,-237.5635,9.3582,3.1077,3.745795275712053,0,0.8
-13.5889,-237.563,9.383,2.9339,3.7801485747686074,0,0.7
-14.0682,-237.3665,9.4079,2.7468,3.9183613094415906,0,0.7
-14.535,-237.1066,9.4172,2.5340000000000003,4.243527236329631,0,0.6
-14.908,-236.75400000000002,9.3225,2.3285,4.353198980486832,0,0.5
-15.227,-236.34900000000002,9.3833,2.1903,4.385447852979052,0,0.5
-15.4586,-235.8929,9.3267,2.1097,4.3627365523262664,0,0.5
-15.6864,-235.4284,9.3002,2.0323,4.277109699768652,0,0.6
-15.9028,-234.9572,9.2813,1.9493,4.077952084334511,0,0.6
-16.0553,-234.4375,9.2544,1.8419999999999999,4.137683877524233,0,0.6
-16.1424,-233.938,9.2787,1.7472,4.266850506161973,0,0.6
-16.1818,-233.3921,9.228,1.6561,4.408569660731576,0,0.5
-16.1854,-232.8637,9.2609,1.6107,4.476109444983951,0,0.5
-16.1662,-232.2925,9.2134,1.5983,4.548664848454533,0,0.5
-16.1433,-231.792,9.1735,1.6015,4.567398219286397,0,0.5
-16.1505,-231.2541,9.1687,1.615,4.54285778197587,0,0.5
-16.1441,-230.7534,9.1364,1.6398,4.5824007268343045,0,0.5
-16.1894,-230.2418,9.131,1.66,4.677199025460099,0,0.4
-16.2015,-229.6973,9.0565,1.6780000000000002,4.725431298683528,0,0.4
-16.2293,-229.1683,9.068,1.6819,4.820549294872382,0,0.4
-16.2797,-228.6031,9.0343,1.6884,4.954672579508857,0,0.3
-16.298,-228.0915,9.0213,1.6946,5.052905976810278,0,0.3
-16.33,-227.5889,8.9876,1.693,5.153207270506033,0,0.3
-16.3655,-227.0586,8.9711,1.6911,5.22310737640229,0,0.3
-16.4037,-226.5514,8.8937,1.6880000000000002,5.251983591158565,0,0.2
-16.4534,-225.9899,8.941,1.6833,5.317922035794199,0,0.2
-16.4914,-225.4741,8.9326,1.6818,5.298222670192749,0,0.2
-16.5327,-224.9393,8.8873,1.6938,5.346399901656541,0,0.2
-16.5535,-224.3675,8.8098,1.7029,5.376016799058012,0,0.2
-16.616,-223.8479,8.7948,1.6997,5.367328324334705,0,0.2
-16.6491,-223.3295,8.7615,1.693,5.3913229222144405,0,0.2
-16.6821,-222.7979,8.7896,1.6635,5.309979457534935,0,0.2
-16.7041,-222.2766,8.7375,1.6316,5.117564685229058,0,0.3
-16.705,-221.7427,8.7222,1.5962,5.2020010123971225,0,0.3
-16.683,-221.1678,8.7517,1.554,5.303979024383624,0,0.2
-16.666,-220.6069,8.7377,1.5039,5.242846149440224,0,0.3
-16.565,-220.0748,8.713,1.4445,5.438184374551947,0,0.2
-16.4357,-219.5436,8.6532,1.4113,5.645685706784584,0,0.1
-16.3377,-219.0262,8.6798,1.3868,5.60013443136213,0,0.1
-16.2209,-218.518,8.6444,1.3727,5.525532926424006,0,0.2
-16.0661,-217.9706,8.6047,1.3697,5.568012101667282,0,0.1
-15.9472,-217.4709,8.6557,1.3619999999999999,5.428653827081405,0,0.2
-15.8087,-216.954,8.5966,1.3586,5.349707642203095,0,0.2
-15.6732,-216.4276,8.5974,1.3682,5.239639013094495,0,0.3
-15.5496,-215.8939,8.5134,1.3765,5.239333249812631,0,0.3
-15.4238,-215.3783,8.5241,1.3702,5.254525690946627,0,0.2
-15.2827,-214.8717,8.4786,1.3692,5.1786158865034375,0,0.3
-15.1343,-214.3284,8.4894,1.3665,5.21773643028008,0,0.3
-15.0164,-213.7665,8.4255,1.3618,5.231766731136507,0,0.3
-14.8645,-213.2641,8.3762,1.3754,5.25692309286085,0,0.2
-14.7515,-212.7055,8.3909,1.3961,5.099517111671091,0,0.3
-14.6654,-212.2016,8.3704,1.4074,5.083796547657706,0,0.3
-14.5644,-211.6853,8.3763,1.4183,4.988695534090546,0,0.3
-14.4459,-211.1626,8.3129,1.4299,4.966623812004679,0,0.3
-14.3465,-210.6584,8.3271,1.4506,4.84735234754937,0,0.4
-14.2816,-210.1501,8.3861,1.5051,4.93057068162293,0,0.4
-14.235,-209.6139,8.3069,1.5551,4.9975273835805005,0,0.3
-14.1931,-209.1066,8.3803,1.5544,4.990890638373228,0,0.3
-14.1658,-208.5788,8.3539,1.5417,4.960508849165768,0,0.3
-14.144,-208.0654,8.3204,1.5422,4.915957545114852,0,0.4
-14.1171,-207.5478,8.3029,1.5475,4.853562389237837,0,0.4
-14.09,-207.011,8.3175,1.5588,4.647538697729959,0,0.5
-14.0578,-206.4474,8.187000000000001,1.545,4.509614904343498,0,0.5
-14.0217,-205.9289,8.1863,1.5319,4.516165315296346,0,0.5
-13.9716,-205.3881,8.1553,1.5549,4.500471499435349,0,0.5
-13.9386,-204.8514,8.1021,1.595,4.518739545981472,0,0.5
-13.9624,-204.3489,8.1293,1.6319,4.644199059851918,0,0.5
-13.9715,-203.8346,8.1072,1.6654,4.81367315523416,0,0.4
-13.9951,-203.3184,8.0817,1.6789,4.853544866399782,0,0.4
-14.0286,-202.7941,8.1056,1.6921,4.991060612953587,0,0.3
-14.0572,-202.2775,8.0276,1.7031,4.922280532156787,0,0.4
-14.1223,-201.7663,8.0133,1.7073,5.09442729079176,0,0.3
-14.1557,-201.2391,8.0255,1.696,5.132245494875886,0,0.3
-14.2055,-200.6953,7.9662,1.6608,5.2151989730813035,0,0.3
-14.2291,-200.1596,7.9816,1.6265,5.244711732367942,0,0.3
-14.1973,-199.5876,7.9146,1.6113,5.4022902403399655,0,0.2
-14.2069,-199.0528,7.898,1.6026,5.360014593194478,0,0.2
-14.2083,-198.5052,7.8582,1.6039,5.453386928734275,0,0.2
-14.1967,-197.9124,7.9059,1.607,5.507109737175158,0,0.2
-14.1726,-197.3734,7.803,1.6104,5.510766311447932,0,0.2
-14.1913,-196.8556,7.8066,1.6192,5.5124837720959174,0,0.2
-14.2112,-196.3448,7.8207,1.6363,5.500369448905475,0,0.2
-14.2181,-195.7994,7.8361,1.6465,5.341616717935572,0,0.2
-14.2336,-195.2645,7.8492,1.6524,5.200150474498912,0,0.3
-14.2528,-194.7615,7.8296,1.6547,5.087751311609708,0,0.3
-14.2581,-194.2432,7.7685,1.6567,5.0707892024193395,0,0.3
-14.2983,-193.674,7.7822,1.6552,4.99510271921871,0,0.3
-14.3303,-193.1258,7.7946,1.653,4.997559488039494,0,0.3
-14.3522,-192.563,7.767,1.6459,4.969138557399668,0,0.3
-14.3579,-192.0193,7.7403,1.6385,4.971413601052349,0,0.3
-14.3784,-191.4967,7.7391,1.6317,4.953461175574736,0,0.3
-14.3423,-190.9402,7.6247,1.6304,5.070561156947739,0,0.3
-14.3916,-190.4307,7.6842,1.6269999999999998,5.133804210523123,0,0.3
-14.4003,-189.8767,7.6396,1.6287,5.198637222996277,0,0.3
-14.397,-189.3579,7.6168,1.6222,5.359605535573619,0,0.2
-14.3692,-188.8153,7.546,1.6097,5.336728865976272,0,0.2
-14.3887,-188.2906,7.5689,1.6109,5.259670425793017,0,0.2
-14.390999999999998,-187.7598,7.5412,1.6228,5.296993176489068,0,0.2
-14.3738,-187.2206,7.4895,1.6143,5.262150122069407,0,0.2
-14.3714,-186.6517,7.4396,1.6106,5.259880114357407,0,0.2
-14.4025,-186.1466,7.4813,1.6064,5.424697610256132,0,0.2
-14.3389,-185.6271,7.4535,1.6104,5.5572307120225375,0,0.1
-14.3477,-185.1014,7.4739,1.6181,5.649649938408968,0,0.1
-14.362,-184.558,7.4038,1.6241,5.79831880322873,0,0.1
-14.3536,-183.9748,7.3628,1.6276,5.771037859306823,0,0.1
-14.3668,-183.4358,7.3719,1.6291,5.584353638539451,0,0.1
-14.3875,-182.8951,7.3984,1.6376,5.512970102942824,0,0.2
-14.4118,-182.3255,7.3917,1.6449,5.343037037587986,0,0.2
-14.4137,-181.7866,7.2915,1.6488,5.192810705717465,0,0.3
-14.4493,-181.2241,7.285,1.6595,5.113015900191085,0,0.3
-14.4958,-180.6752,7.2695,1.6815,5.075248299792319,0,0.3
-14.5163,-180.1605,7.2666,1.6715,5.067624981624336,0,0.3
-14.54,-179.62400000000002,7.2676,1.6469,4.96851687561419,0,0.3
-14.544,-179.1072,7.189,1.6367,4.947573661375001,0,0.4
-14.5744,-178.5521,7.1842,1.6519,4.823860374286447,0,0.4
-14.6071,-178.0179,7.1724,1.7026,4.8829665201838965,0,0.4
-14.6391,-177.4962,7.1326,1.7468,4.897858251842726,0,0.4
-14.7231,-177.0022,7.1281,1.7733,5.025405770706394,0,0.3
-14.7861,-176.43900000000002,7.11,1.7083,4.978817050963819,0,0.3
-14.8196,-175.9007,7.111000000000001,1.6635,5.024998472643311,0,0.3
-14.860999999999999,-175.3775,7.0766,1.6655,5.01821032587655,0,0.3
-14.8947,-174.8246,7.08,1.7043,4.972264270234761,0,0.3
-14.9345,-174.2863,7.0432,1.7442,4.888200725430071,0,0.4
-15.0115,-173.7493,6.9629,1.7484,4.865858589279161,0,0.4
-15.0846,-173.2336,6.992000000000001,1.77,4.901490898582721,0,0.4
-15.1786,-172.6746,6.9257,1.7699,4.9646828530545974,0,0.3
-15.2599,-172.1785,6.9151,1.7359,4.958347840791469,0,0.3
-15.3133,-171.6402,6.905,1.7009999999999998,5.005086216830191,0,0.3
-15.3401,-171.1306,6.8942,1.6809,5.184487548984798,0,0.3
-15.3612,-170.6247,6.8827,1.66,5.240625693651501,0,0.3
-15.3873,-170.0875,6.8455,1.6381,5.232526144012089,0,0.3
-15.3881,-169.5721,6.8058,1.643,5.326056026593175,0,0.2
-15.4407,-169.0366,6.8153,1.6494,5.3528273831585045,0,0.2
-15.4395,-168.5168,6.7655,1.651,5.342295489655879,0,0.2
-15.4689,-167.9777,6.7751,1.6461,5.379394388792058,0,0.2
-15.4843,-167.4699,6.7075,1.6443,5.264994253132267,0,0.2
-15.5189,-166.9429,6.7036,1.6445,5.093833482064046,0,0.3
-15.5093,-166.4401,6.6855,1.6415,4.988991107994491,0,0.3
-15.5354,-165.9227,6.6696,1.632,4.860751210661794,0,0.4
-15.5193,-165.4218,6.6497,1.6262,4.750758427430211,0,0.4
-15.4971,-164.8736,6.5999,1.6307,4.779029801396172,0,0.4
-15.5305,-164.3193,6.5829,1.6428,4.841010161886373,0,0.4
-15.5543,-163.8035,6.5344,1.64,4.895441987246398,0,0.4
-15.557,-163.2585,6.5113,1.6358,4.889705000481098,0,0.4
-15.5597,-162.7277,6.5225,1.6343,4.908223264661349,0,0.4
-15.5757,-162.1991,6.5122,1.6385,4.8420885425677955,0,0.4
-15.5823,-161.6307,6.502000000000001,1.6485,4.832702855837999,0,0.4
-15.6037,-161.0717,6.4399,1.6643,4.864537587216322,0,0.4
-15.6251,-160.5487,6.4593,1.6777,4.927056358040787,0,0.4
-15.6397,-160.0269,6.4497,1.6943,4.984364555664261,0,0.3
-15.6955,-159.518,6.4091,1.704,4.996492659636849,0,0.3
-15.7229,-158.9775,6.3456,1.6922,4.924116744781911,0,0.4
-15.7823,-158.4794,6.3848,1.6899,4.855555161094223,0,0.4
-15.8005,-157.9395,6.3491,1.7023,4.725334038630618,0,0.4
-15.8651,-157.3903,6.3445,1.7096,4.554331149560694,0,0.5
-15.9165,-156.8779,6.2544,1.7097,4.583489819840953,0,0.5
-15.9445,-156.3528,6.2659,1.6862,4.55917792644605,0,0.5
-16.0091,-155.8524,6.2856,1.6637,4.554846990418021,0,0.5
-16.0004,-155.3265,6.2379,1.6524,4.552260810549156,0,0.5
-16.0283,-154.821,6.2289,1.6417,4.468172487113288,0,0.5
-16.0259,-154.2972,6.1884,1.6357,4.282749475522791,0,0.6
-16.0269,-153.7636,6.1885,1.6319,4.09963437736617,0,0.6
-16.0372,-153.2241,6.1714,1.5967,3.8633035756807885,0,0.7
-16.0033,-152.7221,6.1405,1.5085,3.7099198681894396,0,0.8
-15.9325,-152.2062,6.1214,1.4127,3.651259571932216,0,0.8
-15.7975,-151.6603,6.0841,1.2703,3.674109951783608,0,0.8
-15.5903,-151.1965,6.0454,1.12,3.7568184955079564,0,0.7
-15.3143,-150.7614,6.0561,0.9758,3.8443151094326775,0,0.7
-14.9545,-150.3585,6.0085,0.8133,3.926349467298868,0,0.7
-14.5479,-150.0666,5.9618,0.6587,3.9846240159589765,0,0.7
-14.1003,-149.7734,5.9348,0.4739,3.991640123567408,0,0.7
-13.5937,-149.6158,5.9522,0.2533,4.052820365280239,0,0.6
-13.094000000000001,-149.548,5.9333,0.0648,4.129759259190979,0,0.6
-12.5751,-149.5874,5.954,-0.1277,4.276845739838627,0,0.6
-12.0762,-149.7419,5.9304,-0.3017,4.479146360455157,0,0.5
-11.6037,-149.9379,5.9398,-0.4214,4.5986036935492605,0,0.5
-11.1456,-150.1789,5.9201,-0.46,4.795765056794034,0,0.4
-10.7082,-150.4376,5.9485,-0.49200000000000005,4.912988466343677,0,0.4
-10.2384,-150.7232,5.9451,-0.5249,4.910715686147681,0,0.4
-9.7837,-151.0189,5.966,-0.5522,4.827795399626595,0,0.4
-9.3725,-151.3266,5.9726,-0.5564,4.909384863372015,0,0.4
-8.9298,-151.62,5.9802,-0.5189,4.813432878702584,0,0.4
-8.4844,-151.9222,5.99,-0.4888,4.777582886462361,0,0.4
-8.0144,-152.1882,6.0208,-0.4669,4.725942721777397,0,0.4
-7.5735,-152.4253,6.0242,-0.4546,4.517020002198618,0,0.5
-7.0862,-152.6824,6.0711,-0.414,4.209748183273179,0,0.6
-6.601,-152.91,6.0981,-0.3776,4.0399190366239095,0,0.7
-6.1359,-153.127,6.1608,-0.331,3.91570606101072,0,0.7
-5.6159,-153.3461,6.1235,-0.2669,3.8227320248789978,0,0.7
-5.1316,-153.4888,6.0504,-0.1996,3.9387837208844743,0,0.7
-4.6405,-153.6021,6.122000000000001,-0.1278,4.153554151378478,0,0.6
-4.1013,-153.6777,6.091,-0.0519,4.2485923654147735,0,0.6
-3.5749,-153.7157,6.1025,0.0666,4.27798150792514,0,0.6
-3.028,-153.6427,6.1251,0.2389,4.356177802949794,0,0.5
-2.5088,-153.4747,6.0298,0.431,4.4965758820223005,0,0.5
-2.0432,-153.2856,6.0520000000000005,0.5397,4.562142639378533,0,0.5
-1.6078,-153.0157,6.0071,0.6172,4.655401788120504,0,0.4
-1.1789,-152.7247,6.0045,0.6864,4.755228614962311,0,0.4
-0.7757,-152.3939,5.9668,0.7336,4.895397384982303,0,0.4
-0.3523,-152.0699,6.0201,0.7313,4.889254638116608,0,0.4
0.0274,-151.7344,5.943,0.7216,5.036425396466774,0,0.3
0.4523,-151.4398,5.9316,0.7062,5.2347093239012565,0,0.3
0.8486,-151.1319,5.9175,0.68,5.4062809851883,0,0.2
1.3251,-150.7722,5.9168,0.6585,5.369460721851832,0,0.2
1.7582,-150.5092,5.9384,0.6479,5.308294471790699,0,0.2
2.1912,-150.1702,6.0157,0.6567,5.169661908277916,0,0.3
2.6663,-149.8867,5.9514,0.6818,5.001187206239295,0,0.3
3.0773,-149.5974,5.8783,0.7121,4.799726000432118,0,0.4
3.5576,-149.2204,5.9144,0.7461,4.732554701547033,0,0.4
3.9044,-148.8476,5.8077,0.7739,4.745715828159103,0,0.4
4.3029,-148.4799,5.7956,0.8181,4.5557504683558365,0,0.5
4.7219,-148.063,5.7337,0.8633,4.337634201496886,0,0.6
5.0707,-147.6794,5.7679,0.909,4.3521919793792625,0,0.5
5.4124,-147.2896,5.6912,0.9552,4.3473511280032495,0,0.6
5.7573,-146.8649,5.6089,0.993,4.1977190865596965,0,0.6
6.0269,-146.4425,5.7544,1.0283,4.191442882683568,0,0.6
6.2986,-145.9797,5.715,1.0614,4.352120735155163,0,0.5
6.5979,-145.5398,5.6386,1.097,4.278973909447423,0,0.6
6.8984,-145.0675,5.7556,1.1373,4.113367170224532,0,0.6
7.0991,-144.5795,5.6262,1.1666,4.048229548595498,0,0.7
7.3205,-144.0968,5.5992,1.205,4.022002349052585,0,0.7
7.5345,-143.5633,5.6385,1.2512,3.8004438909867595,0,0.7
7.7335,-143.0888,5.5656,1.2929,3.6997236793563557,0,0.8
7.8839,-142.5585,5.5723,1.3535,3.7538302048516172,0,0.7
7.9951,-142.0619,5.5416,1.4225,3.913495333698492,0,0.7
8.0891,-141.5571,5.511,1.486,4.117359513802684,0,0.6
8.1362,-141.0544,5.4668,1.5357,4.341142290463675,0,0.6
8.1871,-140.5396,5.4424,1.5653,4.585040625886158,0,0.5
8.1939,-139.9734,5.3727,1.5899,4.7225862087520865,0,0.4
8.2037,-139.4235,5.3623,1.6144,4.901653433295313,0,0.4
8.196,-138.8735,5.3258,1.6413,4.838187301510253,0,0.4
8.175,-138.3273,5.3073,1.6671,4.688255190527429,0,0.4
8.1507,-137.7963,5.33,1.7095,4.547793212580123,0,0.5
8.072000000000001,-137.2293,5.2517,1.7575,4.507935481766346,0,0.5
8.0278,-136.7138,5.2511,1.8308,4.395785133574235,0,0.5
7.8858,-136.2076,5.2718,1.9119,4.30602993770947,0,0.6
7.6972,-135.6835,5.2011,1.9732,4.388114581541229,0,0.5
7.4905,-135.1714,5.2147,2.0199,4.331747092578135,0,0.6
7.2829999999999995,-134.7029,5.1799,2.0482,4.346975583677038,0,0.6
7.0551,-134.2252,5.127000000000001,2.0757,4.257490574330788,0,0.6
6.7541,-133.7758,5.0499,2.1052,4.305845518990486,0,0.6
6.4874,-133.315,5.0038,2.141,4.246529373921554,0,0.6
6.247999999999999,-132.8157,4.9631,2.177,4.2278379615743,0,0.6
5.9389,-132.338,5.0747,2.2163,4.176876944891103,0,0.6
5.6169,-131.8712,5.081,2.2604,4.1551126924611745,0,0.6
5.2517,-131.4261,4.9282,2.3101,4.020699592422005,0,0.7
4.915,-131.0475,4.9571,2.367,4.0819013911235436,0,0.6
4.5508,-130.7034,4.9695,2.4381,4.251878868161975,0,0.6
4.176,-130.3358,4.9481,2.5074,4.282114022070232,0,0.6
3.7523,-130.0226,4.9086,2.5677,4.2747055979254265,0,0.6
3.3105,-129.7516,4.8908,2.6139,4.375095113346918,0,0.5
2.8737,-129.4612,4.9214,2.6528,4.451316325844262,0,0.5
2.407,-129.1793,4.8831,2.6849,4.348679226537384,0,0.6
1.9376,-128.9044,4.9063,2.7149,4.233262918757624,0,0.6
1.4275,-128.7054,4.8892,2.7523,4.280154880518788,0,0.6
0.9049,-128.4978,4.8857,2.8065,4.348554713161708,0,0.6
0.4355,-128.2861,4.9917,2.8774,4.251998179835997,0,0.6
-0.0885,-128.1566,4.9775,2.9508,4.037861219935292,0,0.7
-0.6379,-128.0679,4.9657,3.0269,3.918925521036157,0,0.7
-1.1993,-128.0004,4.9687,3.0865,3.7588026214695818,0,0.7
-1.7080000000000002,-127.945,4.9758,3.1356,3.87732066434927,0,0.7
-2.2669,-127.9157,4.9304,-3.1055,3.6999913916669973,0,0.8
-2.8256,-127.943,4.9795,-3.0999,3.911468837488743,0,0.7
-3.3873,-127.949,5.0124,-3.1037,4.241658326912377,0,0.6
-3.9259,-127.9405,5.0078,-3.0963,4.483417572429859,0,0.5
-4.4525,-127.9444,5.0156,-3.0722,4.235416970093709,0,0.6
-4.9532,-127.9653,5.0616,-3.0384,4.323533629497865,0,0.6
-5.4579,-128.0277,5.0579,-3.0004,4.173016507789609,0,0.6
-5.9867,-128.056,5.0668,-2.958,3.7789997763544596,0,0.7
-6.5163,-128.1422,5.0524,-2.9121,3.4791907814370724,0,0.8
-7.0318,-128.2521,5.0401,-2.8739,3.379675057292938,0,0.9
-7.5257,-128.3871,5.0517,-2.9234,3.260765796942848,0,0.9
-8.0383,-128.4034,5.1114,-3.0612,3.225876404963377,0,0.9
-8.5431,-128.3405,5.0722,2.9875,3.3443690676858555,0,0.9
-9.0494,-128.1858,5.0398,2.6874,3.440201337552258,0,0.9
-9.4756,-127.9166,5.0865,2.475,3.5565129835232403,0,0.8
-9.8079,-127.521,5.1023,2.2689,3.817572000158804,0,0.7
-10.0513,-127.0591,5.0167,2.0111,4.177386509435729,0,0.6
-10.2181,-126.5263,5.0394,1.7686,4.5008363689673905,0,0.5
-10.2488,-126.0036,5.0475,1.645,4.836604033966845,0,0.4
-10.2611,-125.4766,5.0048,1.5919,5.077386646006873,0,0.3
-10.2446,-124.9583,4.9664,1.5788,5.08291686395572,0,0.3
-10.2505,-124.3911,4.9256,1.5872,4.993084311277335,0,0.3
-10.2432,-123.8503,4.8956,1.5997,4.773666715788142,0,0.4
-10.2526,-123.2995,4.8779,1.6131,4.550925241469002,0,0.5
-10.2361,-122.7755,4.9069,1.6161,4.411147875091625,0,0.5
-10.208,-122.227,4.8442,1.6203,4.2552322896140105,0,0.6
-10.2171,-121.67399999999999,4.8256,1.6245,4.125961792813574,0,0.6
-10.2533,-121.1217,4.8139,1.6247,4.159099499441086,0,0.6
-10.2238,-120.5478,4.7579,1.6342,4.238851179405082,0,0.6
-10.2528,-120.04,4.7447,1.6527,4.291534482867318,0,0.6
-10.2738,-119.4713,4.7007,1.6658,4.433567533591008,0,0.5
-10.2782,-118.9677,4.7162,1.6724,4.532937160349366,0,0.5
-10.3201,-118.4414,4.6924,1.6639,4.511664407088589,0,0.5
-10.3354,-117.9301,4.6925,1.6761,4.532523903088762,0,0.5
-10.3865,-117.405,4.6619,1.6846,4.5628564762147334,0,0.5
-10.4287,-116.8338,4.6364,1.6669999999999998,4.638338751133311,0,0.5
-10.4586,-116.2547,4.5919,1.6426,4.723028410856077,0,0.4
-10.4281,-115.7365,4.5296,1.6196,4.840218752077879,0,0.4
-10.4294,-115.2155,4.5299,1.6022,4.82670852994207,0,0.4
-10.4142,-114.65899999999999,4.5284,1.5944,4.835067578070886,0,0.4
-10.4227,-114.1584,4.4931,1.5884,4.8060651576022195,0,0.4
-10.4147,-113.6445,4.4868,1.5887,4.8154795256194225,0,0.4
-10.3955,-113.0894,4.4741,1.5876,4.919499767215262,0,0.4
-10.3439,-112.5812,4.4591,1.5892,4.984183498112856,0,0.3
-10.3522,-112.059,4.4419,1.5892,4.964838275353365,0,0.3
-10.3324,-111.4773,4.4243,1.5942,5.014884392295659,0,0.3
-10.3205,-110.9535,4.3869,1.6036,4.988837397630026,0,0.3
-10.3091,-110.4064,4.3468,1.6206,4.9031915526598,0,0.4
-10.3198,-109.9003,4.3728,1.6345,4.91110505809214,0,0.4
-10.3329,-109.369,4.3122,1.6347,4.935715396164193,0,0.4
-10.3433,-108.8251,4.3405,1.6372,4.838203400066743,0,0.4
-10.3549,-108.2955,4.2963,1.6375,4.66332493939476,0,0.4
-10.3648,-107.7073,4.2526,1.6418,4.551849980815949,0,0.5
-10.3783,-107.1325,4.2393,1.6508,4.488368951986516,0,0.5
-10.3833,-106.6046,4.2,1.6556,4.415930167654594,0,0.5
-10.4051,-106.0637,4.1778,1.6651,4.411204813300361,0,0.5
-10.4484,-105.4994,4.1719,1.6855,4.55961623738823,0,0.5
-10.5002,-104.9802,4.1383,1.7092,4.6241159596039205,0,0.5
-10.5472,-104.4263,4.1015,1.7507,4.582354928453284,0,0.5
-10.6338,-103.9236,4.101,1.7853,4.516313041910613,0,0.5
-10.7258,-103.4316,4.0731,1.8279,4.478718821762656,0,0.5
-10.8565,-102.8926,4.0486,1.8993,4.42677337584992,0,0.5
-11.022,-102.3549,4.06,1.9953,4.420888833375466,0,0.5
-11.2319,-101.8721,4.0327,2.1101,4.516298961185504,0,0.5
-11.5401,-101.4132,3.9803,2.2271,4.648068293651637,0,0.5
-11.8433,-101.0119,3.9994,2.3412,4.749597819251456,0,0.4
-12.2149,-100.6365,4.0137,2.4249,4.828487397877118,0,0.4
-12.6,-100.2978,3.9965,2.5006,4.9354885420768575,0,0.4
-13.0538,-99.9525,3.9804,2.6183,5.086221966068941,0,0.3
-13.4975,-99.7065,3.9833,2.7096,5.077190047234511,0,0.3
-13.969000000000001,-99.4877,3.9501,2.7918,5.001517078860757,0,0.3
-14.5038,-99.2786,3.9539,2.8282,4.916064258570516,0,0.4
-14.982999999999999,-99.0995,3.9434,2.8159,4.796478377643187,0,0.4
-15.487,-98.9041,3.9304,2.7602,4.59648904793347,0,0.5
-15.9874,-98.6415,3.9646,2.6689999999999996,4.5521084119073185,0,0.5
-16.4479,-98.3315,3.8998,2.5441,4.541146306300026,0,0.5
-16.8994,-97.9286,3.9062,2.3913,4.459325155050572,0,0.5
-17.215999999999998,-97.5237,3.8764,2.2374,4.363771347817822,0,0.5
-17.4798,-97.0987,3.8608,2.0825,4.410667489917878,0,0.5
-17.7026,-96.6261,3.8626,1.9328,4.441859445604217,0,0.5
-17.8741,-96.1043,3.853,1.7590000000000001,4.556849940720486,0,0.5
-17.9046,-95.5618,3.8338,1.6523,4.696295028381167,0,0.4
-17.8878,-94.9896,3.8088,1.6186,4.854756078750706,0,0.4
-17.8878,-94.4138,3.8015,1.6108,4.879198565457897,0,0.4
-17.9034,-93.9011,3.7726,1.6174,5.034372196712344,0,0.3
-17.8887,-93.3212,3.7251,1.6298,5.18205200393125,0,0.3
-17.8708,-92.7168,3.7002,1.6407,5.299676823182617,0,0.2
-17.8942,-92.2024,3.69,1.6484,5.450363587316907,0,0.2
-17.9125,-91.6377,3.6683,1.6519,5.551808852324117,0,0.1
-17.9415,-91.1223,3.6711,1.6481,5.510966360446799,0,0.2
-17.9572,-90.5357,3.6452,1.6447,5.399692004237792,0,0.2
-17.9652,-89.9426,3.5901,1.6422,5.316754380401464,0,0.2
-17.9833,-89.4346,3.5351,1.6407,5.1989501269898994,0,0.3
-17.9898,-88.8574,3.5369,1.6395,5.026794630642742,0,0.3
-18.0161,-88.2574,3.5538,1.6374,5.029722629583311,0,0.3
-18.0314,-87.6917,3.5298,1.6361,4.932634448513147,0,0.4
-18.0359,-87.1788,3.5007,1.6351,5.019697790170149,0,0.3
-18.0316,-86.5708,3.4564,1.633,5.030764941291257,0,0.3
-18.0881,-86.0027,3.4877,1.6315,5.1635307708056954,0,0.3
-18.088,-85.4262,3.4678,1.6315,5.139597986856212,0,0.3
-18.0819,-84.8969,3.4323,1.632,5.224086043932917,0,0.3
-18.0804,-84.3402,3.4389999999999996,1.632,5.169941472284781,0,0.3
-18.0947,-83.8235,3.3805,1.6321,5.120156781184884,0,0.3
-18.0918,-83.3073,3.3452,1.6334,5.035590739034723,0,0.3
-18.1133,-82.7357,3.3428,1.6286,4.988416875608725,0,0.3
-18.1196,-82.1422,3.3226,1.6252,5.047476695868985,0,0.3
-18.1378,-81.5669,3.3137,1.6221,5.1208230298591175,0,0.3
-18.1167,-81.017,3.2683,1.6229,5.285047235669467,0,0.2
-18.1043,-80.4388,3.2329,1.6231,5.425817947159884,0,0.2
-18.1171,-79.9334,3.2327,1.6223,5.4958736075879155,0,0.2
-18.1178,-79.4311,3.2260000000000004,1.6228,5.46375322528471,0,0.2
-18.1201,-78.8422,3.2158,1.6218,5.324254528865472,0,0.2
-18.114,-78.2491,3.1693,1.6212,5.189390417814902,0,0.3
-18.1135,-77.7427,3.1469,1.6279,5.006924091205802,0,0.3
-18.1219,-77.1739,3.1344,1.6368,4.90718881997906,0,0.4
-18.1108,-76.5892,3.0836,1.6446,4.911847598875662,0,0.4
-18.1528,-75.9995,3.085,1.6463,4.95996029249117,0,0.3
-18.1564,-75.4901,3.0655,1.6424,5.028066163659193,0,0.3
-18.1611,-74.8949,3.0274,1.6348,5.039083227571141,0,0.3
-18.1962,-74.3046,3.0217,1.6276,5.055946716455699,0,0.3
-18.1961,-73.7995,3.0087,1.6245,5.035532296223405,0,0.3
-18.206,-73.294,2.9811,1.6206,5.062541680423838,0,0.3
-18.2029,-72.7167,2.9708,1.617,4.997335959085731,0,0.3
-18.2074,-72.2166,2.9162,1.6147,4.921797324819273,0,0.4
-18.18,-71.6965,2.9201,1.6148,4.936106018290407,0,0.4
-18.1966,-71.1437,2.895,1.6137,4.874565330260203,0,0.4
-18.1717,-70.5373,2.8384,1.6152,4.886886615524613,0,0.4
-18.175,-69.9539,2.8282,1.6169,4.730814963058715,0,0.4
-18.2053,-69.3675,2.8439,1.6207,4.881450573186956,0,0.4
-18.2008,-68.7747,2.8244,1.6227,4.829022468116914,0,0.4
-18.2033,-68.2732,2.7865,1.6248,4.7523791159225865,0,0.4
-18.2026,-67.7462,2.7781,1.6276,4.762610471200516,0,0.4
-18.227999999999998,-67.2057,2.7706,1.629,4.792210013702597,0,0.4
-18.2225,-66.6045,2.7437,1.6321,4.682812907632557,0,0.4
-18.1986,-66.0959,2.7229,1.6397,4.748432633569852,0,0.4
-18.2809,-65.5144,2.7015,1.6362,4.800177232615704,0,0.4
-18.258,-64.9409,2.6698,1.6328,4.714910273474117,0,0.4
-18.2573,-64.4316,2.6518,1.6303,4.892045624973671,0,0.4
-18.2735,-63.9259,2.6457,1.6279,4.986518477518005,0,0.3
-18.2685,-63.336000000000006,2.6258,1.6256,5.081730865857573,0,0.3
-18.2536,-62.7534,2.6065,1.6254,5.13606872491274,0,0.3
-18.2782,-62.1665,2.5859,1.6257,5.140272004588608,0,0.3
-18.2739,-61.5698,2.5545,1.6297,5.083415978248942,0,0.3
-18.2693,-60.9918,2.5102,1.6377,5.125703900213803,0,0.3
-18.2662,-60.4753,2.4783,1.6447,4.974613671936232,0,0.3
-18.2973,-59.9654,2.4861,1.6489,4.895883838674644,0,0.4
-18.3371,-59.4049,2.4687,1.6474,4.900908199589131,0,0.4
-18.3374,-58.8383,2.437,1.6368,4.941156590276719,0,0.4
-18.3861,-58.2123,2.4316,1.6271,4.987470186620067,0,0.3
-18.3532,-57.6489,2.3937,1.6243,5.111935536692835,0,0.3
-18.348,-57.1055,2.3869,1.6298,5.3270354198766485,0,0.2
-18.3457,-56.5807,2.3245,1.6321,5.4505810780962864,0,0.2
-18.3661,-56.0018,2.3193,1.6326,5.48672465314737,0,0.2
-18.3697,-55.4816,2.309,1.6305,5.334472596792994,0,0.2
-18.3709,-54.9621,2.2759,1.6208,5.233866177722938,0,0.3
-18.3722,-54.3966,2.2554,1.6112,5.102222270606112,0,0.3
-18.3779,-53.82899999999999,2.2772,1.6008,4.9455401888560875,0,0.4
-18.3892,-53.2847,2.2468,1.5931,4.8741671269022735,0,0.4
-18.3503,-52.7321,2.2316,1.5944,4.968034506364599,0,0.3
-18.3373,-52.1821,2.1963,1.6018,5.0106906713640775,0,0.3
-18.3093,-51.6311,2.1818,1.6121,5.080926762851422,0,0.3
-18.3276,-51.0907,2.1526,1.6206,5.235370615506342,0,0.3
-18.3221,-50.5302,2.1289,1.6281,5.279742400569702,0,0.2
-18.3306,-49.9617,2.1356,1.6337,5.308716445532971,0,0.2
-18.3487,-49.4007,2.1016,1.6377,5.305085223433924,0,0.2
-18.3478,-48.8259,2.0607,1.6395,5.204949890317639,0,0.3
-18.3672,-48.2829,2.0651,1.6386,5.11485033707652,0,0.3
-18.3832,-47.7102,2.0516,1.6352,5.098763649171895,0,0.3
-18.404,-47.1519,2.0282,1.6317,5.081311968433295,0,0.3
-18.4106,-46.5874,2.0097,1.6287,5.117577516663394,0,0.3
-18.4131,-46.0035,2.0068,1.6262,5.243672903307302,0,0.3
-18.4217,-45.4435,2.0073,1.6244,5.352764263794235,0,0.2
-18.4283,-44.8917,1.9845,1.6254,5.3978375836258055,0,0.2
-18.4329,-44.3071,1.9528,1.6234,5.438731789724374,0,0.2
-18.4273,-43.7371,1.933,1.6189,5.429453502535302,0,0.2
-18.4369,-43.2034,1.9281,1.6148,5.397594671768446,0,0.2
-18.4251,-42.6442,1.9065,1.6133,5.32166911885717,0,0.2
-18.4121,-42.0696,1.8894,1.6122,5.216097118405578,0,0.3
-18.407,-41.526,1.8707,1.6122,5.1654428386127265,0,0.3
-18.4104,-40.982,1.8342,1.6134,5.178879700032553,0,0.3
-18.4048,-40.4143,1.8122,1.6171,5.201300130907689,0,0.3
-18.4079,-39.863,1.8056,1.6268,5.24764638757591,0,0.3
-18.4286,-39.3199,1.7971,1.6361,5.385234284524453,0,0.2
-18.4287,-38.7811,1.7973,1.6418,5.382998359128109,0,0.2
-18.4435,-38.2083,1.7672,1.6426,5.424414129912345,0,0.2
-18.4476,-37.6744,1.7747,1.6419,5.408080560264419,0,0.2
-18.4729,-37.1022,1.7371,1.6408,5.356032611818945,0,0.2
-18.4924,-36.543,1.7024,1.6377,5.287336646683249,0,0.2
-18.4835,-35.9772,1.6976,1.6343,5.267839658258888,0,0.2
-18.5076,-35.4076,1.6664,1.6293,5.197793108758431,0,0.3
-18.5057,-34.8817,1.6588,1.6263,5.143563786143201,0,0.3
-18.52,-34.3141,1.6549,1.6252,5.1680445280850265,0,0.3
-18.5252,-33.7614,1.6597,1.6245,5.232249777012174,0,0.3
-18.5298,-33.2111,1.6229,1.6236,5.34791802135309,0,0.2
-18.5465,-32.6557,1.6227,1.6229,5.409105089349731,0,0.2
-18.5263,-32.0809,1.5977,1.6218,5.44466050037547,0,0.2
-18.5269,-31.5297,1.5879,1.6191,5.46404709501358,0,0.2
-18.5195,-30.9918,1.5759999999999998,1.6138,5.413319537714033,0,0.2
-18.5245,-30.4148,1.5835,1.6112,5.266053494278353,0,0.2
-18.5316,-29.8608,1.5212,1.6113,5.155767834277718,0,0.3
-18.5155,-29.3132,1.506,1.6136,5.097123285197505,0,0.3
-18.5275,-28.7639,1.4922,1.6169,5.078506562868076,0,0.3
-18.5002,-28.1969,1.4542,1.6216,5.156755065702039,0,0.3
-18.4896,-27.6353,1.44,1.6265,5.269666568180732,0,0.2
-18.49,-27.0811,1.4201,1.6311,5.40766693246852,0,0.2
-18.5085,-26.5275,1.4298,1.6342,5.445545941898496,0,0.2
-18.5197,-26.0135,1.4057,1.6358,5.402086244973104,0,0.2
-18.5381,-25.5026,1.3913,1.6376,5.239229565367487,0,0.3
-18.5386,-24.9745,1.4061,1.6338,5.050208480195364,0,0.3
-18.5479,-24.4334,1.3682,1.6493,4.961614077672738,0,0.3
-18.5801,-23.9,1.3802,1.6395,4.922967465956454,0,0.4
-18.6197,-23.3416,1.3479,1.6216,4.889862248366925,0,0.4
-18.6053,-22.7811,1.3377,1.6142,4.968458465660705,0,0.3
-18.5905,-22.22,1.3271,1.6103,5.034623002365285,0,0.3
-18.5775,-21.6624,1.2836,1.61,4.933914585864155,0,0.4
-18.5727,-21.1419,1.291,1.6196,4.998587210398284,0,0.3
-18.5748,-20.5729,1.2712,1.6346,4.927088480130817,0,0.4
-18.5643,-20.0635,1.2723,1.6486,4.891056138173103,0,0.4
-18.6001,-19.4759,1.2644,1.6633,4.885941783926718,0,0.4
-18.6445,-18.9727,1.2549,1.6668,4.924050414636359,0,0.4
-18.6865,-18.4491,1.2238,1.6647,4.777562472468427,0,0.4
-18.6626,-17.874000000000002,1.1819,1.666,4.91474061706371,0,0.4
-18.6806,-17.3061,1.1589,1.6673,4.882836684822518,0,0.4
-18.6915,-16.7362,1.1465,1.6708,5.01794799485351,0,0.3
-18.7174,-16.1722,1.0608,1.6727,5.08425266186624,0,0.3
-18.7675,-15.6743,1.0355,1.6734,5.19148442593591,0,0.3
-18.8087,-15.1056,1.0155,1.6702,5.176620210394229,0,0.3
-18.8014,-14.5166,1.0119,1.6616,5.223663061821098,0,0.3
-18.8311,-13.97,1.0122,1.6515,5.118806353334357,0,0.3
-18.8456,-13.4617,1.0147,1.6462,5.100164251778228,0,0.3
-18.8687,-12.9002,1.0919,1.6411,5.0284306295597645,0,0.3
-18.8794,-12.37,1.1063,1.6375,4.783455785002938,0,0.4
-18.8819,-11.8248,1.0747,1.6363,4.630561351810595,0,0.5
-18.9189,-11.2633,1.0625,1.6369,4.646075808082722,0,0.5
-18.9047,-10.7579,1.064,1.6428,4.626219031953985,0,0.5
-18.9673,-10.2193,1.0775,1.6468,4.721665724871736,0,0.4
-18.9883,-9.6572,1.06,1.6380000000000001,4.865159321367267,0,0.4
-18.996,-9.1075,1.0778,1.6203,4.947726124371852,0,0.4
-19.0002,-8.5833,1.0269,1.6052,4.81318941205451,0,0.4
-18.9845,-8.0571,1.0305,1.5927,4.8374710848342,0,0.4
-18.9964,-7.5319,1.0318,1.5814,4.599715763381673,0,0.5
-18.9301,-6.9945,1.0001,1.5763,4.554862720885493,0,0.5
-18.8952,-6.4678,1.006,1.5811,4.32658363428742,0,0.6
-18.9015,-5.954,0.9876,1.6005,4.448522220121124,0,0.5
-18.8668,-5.447,0.9761,1.6191,4.3800633641688815,0,0.5
-18.9115,-4.9135,1.0241,1.6178,4.47143417945555,0,0.5
-18.8733,-4.3793,0.9790000000000001,1.6187,4.369776870648959,0,0.5
-18.8434,-3.8263,0.9853,1.5791,4.385790132595812,0,0.5
-18.803,-3.2697,0.9461,1.5142,4.012465953080797,0,0.7
-18.7447,-2.7424,0.9073,1.4279,3.766113967691045,0,0.7
-18.6515,-2.2364,0.9159,1.3172,3.6170027447218267,0,0.8
-18.4532,-1.7227,0.9065,1.2008,3.6593592449400663,0,0.8
-18.1888,-1.2531,0.9849,1.0625,3.7262344305573,0,0.8
-17.8816,-0.8441,0.9049,0.9207,3.881802819405942,0,0.7
-17.5446,-0.4168,0.8806,0.8184,3.986258198140286,0,0.7
-17.1508,-0.0863,0.8565,0.7951,4.056952296451852,0,0.6
-16.7931,0.2643,0.8554,0.8419,4.058411702690444,0,0.6
-16.4816,0.6662,0.8129,0.986,4.097677759293305,0,0.6
-16.2196,1.1233,0.8441,1.1993,4.132667256978736,0,0.6
-15.9893,1.6157,0.8276,1.4416,4.159482216467387,0,0.6
