x,y,z,yaw,velocity,change_flag,look_ahead
-17.0118,2.4425,0.7883,-1.5229,3.0746784176946806,0,0.8
-16.9957,1.9127,0.7263,-1.7042,3.0746811529315563,0,0.8
-17.1357,1.4288,0.7323,-1.9906,2.931649950414668,0,0.8
-17.442999999999998,0.9645,0.7529,-2.1525,2.8018935850323476,0,0.8
-17.7268,0.5358,0.7206,-2.2213,2.6827518195803552,0,0.9
-18.0561,0.1395,0.7642,-2.1853,2.6996351864178063,0,0.9
-18.3986,-0.2768,0.8165,-1.9917,2.8633199773717433,0,0.8
-18.5789,-0.7936,0.7964,-1.805,3.228768370948479,0,0.8
-18.6605,-1.3355,0.7941,-1.6663,3.8545231384132475,0,0.6
-18.7306,-1.8525,0.7736,-1.5959999999999999,4.363550020903263,0,0.5
-18.7852,-2.3847,0.7709,-1.5538,4.492684647383579,0,0.5
-18.7793,-2.9252,0.8057,-1.5228,4.332145959748573,0,0.5
-18.7665,-3.4514,0.8296,-1.5184,4.26591491763747,0,0.5
-18.7771,-3.9874,0.8151,-1.5229,3.9739306091749063,0,0.6
-18.7842,-4.504,0.8345,-1.556,4.023816414741766,0,0.6
-18.8223,-5.0414,0.7967,-1.5862,4.290999490995184,0,0.5
-18.8856,-5.6001,0.8587,-1.5792,4.8045629707303705,0,0.4
-18.9073,-6.1456,0.866,-1.5581,5.036712449303056,0,0.4
-18.9112,-6.6908,0.8419,-1.5394,5.353039061729001,0,0.3
-18.9185,-7.1961,0.8632,-1.5314,5.216038654141093,0,0.4
-18.9171,-7.7304,0.8481,-1.5252,5.131848770582416,0,0.4
-18.9302,-8.2581,0.9206,-1.5197,4.649217350206259,0,0.5
-18.9016,-8.7815,0.9083,-1.5241,4.488265615707762,0,0.5
-18.9046,-9.3604,0.9277,-1.5323,4.480896236211401,0,0.5
-18.9343,-9.9126,0.9382,-1.5404,4.691156805360983,0,0.5
-18.9568,-10.4209,0.9378,-1.5482,4.68559808172001,0,0.5
-18.9421,-10.9261,0.9544,-1.5558,5.116442438479259,0,0.4
-18.9708,-11.4855,0.9755,-1.5619999999999998,5.094084411468452,0,0.4
-18.9712,-12.0346,0.9906,-1.568,4.803783191540493,0,0.4
-19.0105,-12.5555,0.9804,-1.5726,4.846770177496765,0,0.4
-19.0391,-13.0805,0.9997,-1.5646,5.01016520004063,0,0.4
-19.0642,-13.5872,1.0090000000000001,-1.5379,5.09020708247819,0,0.4
-19.0682,-14.0899,1.0452,-1.5116,5.38915619494104,0,0.3
-19.0364,-14.6141,1.0524,-1.4933,5.703974702166847,0,0.3
-19.0279,-15.1243,1.0584,-1.4824,5.5739838168375515,0,0.3
-19.0095,-15.6713,1.0765,-1.4803,5.505664445673579,0,0.3
-18.9838,-16.177,1.1017,-1.4796,5.455477165619028,0,0.3
-18.9461,-16.6943,1.1136,-1.4797,5.537603133670192,0,0.3
-18.934,-17.2459,1.1262,-1.4848,5.655002057883385,0,0.3
-18.9143,-17.7789,1.1302,-1.4908,5.784660571356894,0,0.2
-18.9104,-18.2923,1.1708,-1.4955,5.751389851018881,0,0.2
-18.9073,-18.8027,1.1727,-1.4996,5.745975005533722,0,0.3
-18.9003,-19.3525,1.1867,-1.5009,5.5519702765406045,0,0.3
-18.9033,-19.8699,1.1986,-1.5019999999999998,5.276931182213264,0,0.3
-18.8877,-20.3962,1.2171,-1.504,5.10780443505632,0,0.4
-18.8756,-20.9516,1.2309,-1.5053,5.019274654091836,0,0.4
-18.8525,-21.4557,1.252,-1.5085,5.02396884957027,0,0.4
-18.8633,-21.9807,1.2697,-1.5125,4.945723680370773,0,0.4
-18.8699,-22.5493,1.2843,-1.5188,5.178234058170908,0,0.4
-18.8669,-23.0652,1.2934,-1.5257,5.181466747444094,0,0.4
-18.8595,-23.6015,1.3296,-1.5357,5.437357791092542,0,0.3
-18.8633,-24.1601,1.3225,-1.5497,5.5887783664299935,0,0.3
-18.9214,-24.7289,1.3559,-1.5388,5.873620689116372,0,0.2
-18.9079,-25.2701,1.3563,-1.5194,5.812836220182301,0,0.2
-18.8943,-25.8142,1.3932,-1.5127,5.9398992394200585,0,0.2
-18.8866,-26.3505,1.4057,-1.5106,5.701183090031229,0,0.3
-18.8746,-26.8696,1.4104,-1.5097,5.535151856300866,0,0.3
-18.8696,-27.4316,1.4417,-1.5116,5.353189203271043,0,0.3
-18.8758,-27.9725,1.4462,-1.5163,5.410469942129482,0,0.3
-18.8645,-28.4902,1.4996,-1.521,5.480712335876282,0,0.3
-18.8884,-29.0592,1.5049,-1.5233,5.603269716662737,0,0.3
-18.8834,-29.5926,1.4971,-1.5261,5.764306680316356,0,0.2
-18.8766,-30.1408,1.526,-1.5286,5.940358779958366,0,0.2
-18.8587,-30.6526,1.5419999999999998,-1.5307,5.925288869017638,0,0.2
-18.8657,-31.1814,1.5616,-1.5290000000000001,5.765191687715489,0,0.2
-18.8734,-31.7215,1.5799,-1.5219,5.717514479858004,0,0.3
-18.874000000000002,-32.2323,1.5904,-1.5199,5.278362565458631,0,0.3
-18.8891,-32.7782,1.5886,-1.5187,5.127742901257195,0,0.4
-18.8747,-33.3403,1.6138,-1.5203,4.8704263838788275,0,0.4
-18.8597,-33.883,1.6368,-1.5204,4.864605025695388,0,0.4
-18.8413,-34.3855,1.6692,-1.5219,4.945876206270701,0,0.4
-18.8848,-34.911,1.6962,-1.5219,5.327374792430239,0,0.3
-18.8602,-35.4487,1.6913,-1.5226,5.450939945543386,0,0.3
-18.8471,-35.9509,1.7282,-1.5238,5.693120550115292,0,0.3
-18.8544,-36.5071,1.7576,-1.525,5.784215380182095,0,0.2
-18.8472,-37.067,1.7693,-1.5261,5.749904705858659,0,0.3
-18.8451,-37.5767,1.7886,-1.5157,5.463405951064524,0,0.3
-18.8546,-38.1454,1.7911,-1.5093,5.2834227978591315,0,0.3
-18.8247,-38.6933,1.8086,-1.5084,5.037861661520603,0,0.4
-18.8563,-39.2471,1.821,-1.5062,4.903506660634171,0,0.4
-18.8338,-39.7596,1.8423,-1.5108,4.868109088318986,0,0.4
-18.82,-40.2798,1.8621,-1.5244,5.1615948654800565,0,0.4
-18.8096,-40.792,1.9109,-1.5347,5.220734089562517,0,0.4
-18.8302,-41.294,1.9173,-1.5421,5.616978470973658,0,0.3
-18.843,-41.8022,1.9307,-1.5433,5.6750336214486,0,0.3
-18.8549,-42.3145,1.9356,-1.5347,5.647041680920807,0,0.3
-18.8665,-42.8506,1.9808,-1.5252,5.428264647992265,0,0.3
-18.84,-43.4003,2.0209,-1.5186,5.3513920435121465,0,0.3
-18.8473,-43.9277,2.0168,-1.5143,5.042440519065635,0,0.4
-18.8721,-44.461000000000006,2.0253,-1.5118,4.991807059677001,0,0.4
-18.8517,-45.0066,2.049,-1.5134,4.886428604556649,0,0.4
-18.8364,-45.5702,2.0854,-1.5157,4.904983745940281,0,0.4
-18.842,-46.0913,2.113,-1.5177,4.883101755485823,0,0.4
-18.8408,-46.6483,2.0817,-1.5195,4.969055580548197,0,0.4
-18.8498,-47.1628,2.0963,-1.5203,5.060462443387149,0,0.4
-18.8517,-47.6686,2.1367,-1.5123,5.087360822063257,0,0.4
-18.8495,-48.1815,2.1488,-1.5045,5.094565301085899,0,0.4
-18.8209,-48.755,2.1626,-1.495,5.193432097509046,0,0.4
-18.8338,-49.2744,2.2005,-1.4822,5.08957856313908,0,0.4
-18.7905,-49.8084,2.2099,-1.4789,5.006003163632574,0,0.4
-18.773,-50.3082,2.2296,-1.489,4.889638711908147,0,0.4
-18.7571,-50.8564,2.2455,-1.5026,4.751947620783483,0,0.4
-18.7546,-51.3709,2.3,-1.5216,4.729700253714595,0,0.5
-18.7759,-51.9325,2.3182,-1.531,4.664673454400658,0,0.5
-18.7556,-52.4723,2.3219,-1.5333,4.842939083918928,0,0.4
-18.7418,-52.9745,2.3407,-1.5315,5.138805389122037,0,0.4
-18.7603,-53.5093,2.3531,-1.5085,5.4519780019074675,0,0.3
-18.7318,-54.0342,2.3566,-1.4743,5.5034200790404135,0,0.3
-18.6976,-54.5414,2.3826,-1.4442,5.683894226786987,0,0.3
-18.6645,-55.0648,2.4027,-1.4331,5.572052014229343,0,0.3
-18.616,-55.6039,2.4112,-1.4445,5.426136878719237,0,0.3
-18.5629,-56.1488,2.4381,-1.4709999999999999,5.2168715127161285,0,0.4
-18.5488,-56.7023,2.4459999999999997,-1.4899,5.083253622629444,0,0.4
-18.5317,-57.2605,2.4542,-1.5049,5.0805955248306365,0,0.4
-18.5454,-57.8323,2.4764,-1.5202,5.175825146467469,0,0.4
-18.5127,-58.3395,2.508,-1.5203,5.205364536199443,0,0.4
-18.5031,-58.8733,2.5219,-1.5119999999999998,5.302011129839568,0,0.3
-18.496,-59.4155,2.5282,-1.5038,5.466930228991073,0,0.3
-18.5006,-59.9166,2.537,-1.506,5.58130562194649,0,0.3
-18.4896,-60.4389,2.5726,-1.5104,5.526057175771362,0,0.3
-18.4716,-60.9762,2.5741,-1.5163,5.4845572141689205,0,0.3
-18.4858,-61.5205,2.6137,-1.5221,5.39440950523846,0,0.3
-18.4844,-62.0583,2.6272,-1.5219999999999998,5.019415234600511,0,0.4
-18.4948,-62.6112,2.6345,-1.5174,4.7863930173407,0,0.4
-18.4799,-63.1543,2.6376,-1.5134,4.504125220029393,0,0.5
-18.5083,-63.6598,2.6676,-1.5092,4.458324302869183,0,0.5
-18.5149,-64.1626,2.7076,-1.507,4.582262146937568,0,0.5
-18.4708,-64.6791,2.7262,-1.5078,4.739516271794823,0,0.5
-18.4586,-65.1821,2.7185,-1.5117,4.821387659990588,0,0.4
-18.4711,-65.7435,2.7396,-1.5146,4.825127360730726,0,0.4
-18.4366,-66.2453,2.7408,-1.5194,4.886258078317214,0,0.4
-18.4527,-66.7706,2.7453,-1.5208,4.8209416903937,0,0.4
-18.4705,-67.3143,2.7882,-1.5238,4.920898361547244,0,0.4
-18.4597,-67.8751,2.8232,-1.5258,4.87676021603191,0,0.4
-18.4433,-68.4388,2.8545,-1.5145,5.033721819259935,0,0.4
-18.4383,-68.9403,2.8546,-1.5053,4.952724093065724,0,0.4
-18.4353,-69.459,2.8841,-1.5037,4.978148755787591,0,0.4
-18.4134,-70.0316,2.8974,-1.5028,5.026294765379914,0,0.4
-18.3969,-70.581,2.9115,-1.5041,5.170858896495215,0,0.4
-18.3853,-71.1477,2.9619999999999997,-1.5075,5.092267404594012,0,0.4
-18.3881,-71.6504,2.9728,-1.5077,5.123686672696378,0,0.4
-18.3666,-72.2028,2.963,-1.5089,4.901802556593465,0,0.4
-18.3521,-72.7312,2.9857,-1.5101,4.861160909086104,0,0.4
-18.3258,-73.2906,3.0434,-1.5115,4.630356800567993,0,0.5
-18.348,-73.8184,3.0536,-1.5126,4.602472093980461,0,0.5
-18.3544,-74.3518,3.0705,-1.5148,4.630257714287449,0,0.5
-18.3009,-74.9143,3.0665,-1.5154,4.716771472364451,0,0.5
-18.3323,-75.4511,3.1196,-1.5134,4.8533356183131655,0,0.4
-18.3298,-75.9894,3.1225,-1.5119,5.137718633783615,0,0.4
-18.3132,-76.5219,3.1581,-1.5118,5.423366690495344,0,0.3
-18.3013,-77.079,3.1888,-1.5107,5.602793358528258,0,0.3
-18.316,-77.6122,3.1888,-1.5091,5.902757190861047,0,0.2
-18.3057,-78.1266,3.1952,-1.5061,5.975694691342354,0,0.2
-18.3155,-78.6665,3.2316,-1.5,5.914546990902181,0,0.2
-18.2839,-79.2379,3.2345,-1.4915,5.835792977438135,0,0.2
-18.2796,-79.7784,3.2275,-1.4892,5.749650215062987,0,0.3
-18.2606,-80.298,3.2597,-1.4909999999999999,5.601488278691828,0,0.3
-18.2503,-80.8478,3.2706,-1.4839,5.272041475779424,0,0.3
-18.2112,-81.3725,3.3019,-1.4731,5.213954246452251,0,0.4
-18.1822,-81.9252,3.3292,-1.4638,5.204361426689853,0,0.4
-18.1395,-82.4584,3.3559,-1.4638,5.223594228530361,0,0.4
-18.1091,-82.9934,3.3867,-1.4744,5.159359165846799,0,0.4
-18.1114,-83.5472,3.3782,-1.4923,5.258159860003094,0,0.3
-18.0958,-84.0917,3.3875,-1.51,5.311074810984978,0,0.3
-18.0814,-84.6184,3.4098,-1.5242,5.397890299166051,0,0.3
-18.0719,-85.1224,3.4426,-1.5404,5.343297670582943,0,0.3
-18.0872,-85.6803,3.4699,-1.5539,5.3779491320794435,0,0.3
-18.1164,-86.1984,3.4688,-1.5563,5.453083592984942,0,0.3
-18.1197,-86.7277,3.4955,-1.5557,5.375684257324469,0,0.3
-18.1466,-87.2294,3.4864,-1.5532,5.312899834093,0,0.3
-18.1596,-87.7486,3.5255,-1.5519,5.357035076953876,0,0.3
-18.1775,-88.3028,3.5489,-1.55,5.522924023474758,0,0.3
-18.1821,-88.8732,3.5904,-1.5383,5.7031121272485965,0,0.3
-18.1797,-89.4225,3.5941,-1.5261,5.810819780696574,0,0.2
-18.2002,-89.9693,3.6264,-1.518,5.894729821271462,0,0.2
-18.1795,-90.491,3.6568,-1.5108,5.951041545637933,0,0.2
-18.1914,-91.0153,3.6585,-1.5032,5.810657495002371,0,0.2
-18.1781,-91.5459,3.6752,-1.4967,5.5681137926244855,0,0.3
-18.1596,-92.0772,3.7006,-1.4909999999999999,5.335951907461335,0,0.3
-18.1301,-92.6136,3.7421,-1.4856,5.004086105716199,0,0.4
-18.1024,-93.1579,3.7403,-1.48,4.57567374582392,0,0.5
-18.0917,-93.6929,3.7684,-1.4659,4.34109884794405,0,0.5
-18.0371,-94.2326,3.7848,-1.4219,4.193186828204694,0,0.6
-17.987000000000002,-94.7455,3.8065,-1.3723,4.044428109417236,0,0.6
-17.8753,-95.2615,3.8466,-1.3091,3.982801876202906,0,0.6
-17.7083,-95.8037,3.8566,-1.1903,4.112613141747532,0,0.6
-17.5229,-96.2898,3.8633,-1.0429,4.232638219003487,0,0.6
-17.2966,-96.7385,3.897,-0.9174,4.46597595626493,0,0.5
-16.9668,-97.146,3.9002,-0.7918,4.715828166209694,0,0.5
-16.607,-97.5039,3.8893,-0.6881,5.223381207320283,0,0.4
-16.1742,-97.8245,3.9041,-0.5725,5.317134720435047,0,0.3
-15.722000000000001,-98.1263,3.9042,-0.4731,5.298931147571125,0,0.3
-15.2697,-98.3774,3.9184,-0.4131,5.231981833195938,0,0.4
-14.7708,-98.601,3.9207,-0.3996,5.21202390072342,0,0.4
-14.3078,-98.8464,3.9653,-0.4572,4.88275435309772,0,0.4
-13.8582,-99.1299,4.0011,-0.5522,4.908956739069083,0,0.4
-13.442,-99.4529,3.9682,-0.6548,5.02628493992263,0,0.4
-12.9887,-99.8354,3.9813,-0.7532,4.973654888754355,0,0.4
-12.6289,-100.2614,4.0177,-0.8490000000000001,4.90317164335655,0,0.4
-12.3187,-100.7185,4.045,-0.9416,4.89520537862872,0,0.4
-12.0564,-101.1957,4.0623,-1.0277,4.775010537755074,0,0.4
-11.7902,-101.6868,4.0249,-1.1119,4.796892541901883,0,0.4
-11.6076,-102.1567,4.0784,-1.1827,4.935872036699987,0,0.4
-11.4279,-102.6735,4.0891,-1.2516,4.981930230438482,0,0.4
-11.3042,-103.1978,4.1026,-1.3095,5.0140653265612825,0,0.4
-11.2206,-103.7486,4.1396,-1.3648,4.791262958373822,0,0.4
-11.1317,-104.2463,4.1439,-1.4052,4.820510870398259,0,0.4
-11.0752,-104.7888,4.1694,-1.4393,4.539128929189612,0,0.5
-11.0275,-105.3583,4.189,-1.449,4.650651339382204,0,0.5
-11.0017,-105.8634,4.1997,-1.4585,4.728638187776182,0,0.5
-10.9989,-106.4089,4.1801,-1.4672,4.974923486359792,0,0.4
-10.970999999999998,-106.9415,4.2091,-1.4585,4.666767605718731,0,0.5
-10.9079,-107.4961,4.2651,-1.4413,4.889985785886614,0,0.4
-10.8758,-108.0215,4.2977,-1.4396,4.919894290102896,0,0.4
-10.8202,-108.54,4.3418,-1.4397,5.0013441263511105,0,0.4
-10.7884,-109.07799999999999,4.3483,-1.4375,5.079245196798767,0,0.4
-10.7395,-109.6287,4.3755,-1.4515,5.450829797461112,0,0.3
-10.7105,-110.1363,4.3649,-1.4676,5.573387178938398,0,0.3
-10.6566,-110.6808,4.3767,-1.4769999999999999,5.426879672471622,0,0.3
-10.6301,-111.1937,4.3897,-1.4766,5.391622390545846,0,0.3
-10.6179,-111.7381,4.4041,-1.4786,5.446079397430911,0,0.3
-10.5873,-112.2864,4.4154,-1.4919,5.206879161057788,0,0.4
-10.5788,-112.8324,4.4532,-1.4979,5.109816435681863,0,0.4
-10.5914,-113.3843,4.5055,-1.506,5.1946960902253405,0,0.4
-10.5728,-113.9314,4.5265,-1.5172,5.145177034320551,0,0.4
-10.5671,-114.4649,4.5493,-1.5159,5.101447671828362,0,0.4
-10.5835,-114.9738,4.5358,-1.5131,5.2275173916558755,0,0.4
-10.5731,-115.4922,4.5672,-1.5109,5.071777405582253,0,0.4
-10.5817,-116.0018,4.5693,-1.5089,4.965055501255195,0,0.4
-10.5653,-116.5033,4.6388,-1.5054,4.909945035833339,0,0.4
-10.5564,-117.029,4.5891,-1.5044,4.7071530109402016,0,0.5
-10.5381,-117.5619,4.627,-1.5089,4.427724960233416,0,0.5
-10.5585,-118.0937,4.6764,-1.5174,4.283396222534012,0,0.5
-10.5205,-118.6733,4.698,-1.5253,4.2309855230247555,0,0.6
-10.5433,-119.2107,4.7248,-1.5377,4.031490941289892,0,0.6
-10.5516,-119.7421,4.7419,-1.5665,4.0115892103660284,0,0.6
-10.6101,-120.2994,4.7842,-1.6013,4.287610640702647,0,0.5
-10.6344,-120.8257,4.793,-1.6268,4.698259936711227,0,0.5
-10.6899,-121.3649,4.7976,-1.6529,4.893190184932237,0,0.4
-10.7476,-121.8884,4.7948,-1.6814,5.151826005164476,0,0.4
-10.8659,-122.4019,4.8134,-1.7019,5.457467321065783,0,0.3
-10.9294,-122.898,4.8455,-1.7139,5.441508546017299,0,0.3
-11.0501,-123.4606,4.8843,-1.7158,5.213825305681522,0,0.4
-11.1516,-123.9621,4.8957,-1.6956,5.143580155876481,0,0.4
-11.2145,-124.5089,4.9353,-1.6346,4.875553543302626,0,0.4
-11.2664,-125.0337,4.9266,-1.5695,4.505669083050744,0,0.5
-11.2684,-125.5815,4.9313,-1.494,4.140196509263354,0,0.6
-11.2359,-126.0959,4.977,-1.3971,3.8077684497901547,0,0.6
-11.1679,-126.6598,5.0013,-1.2570000000000001,3.3750586775660993,0,0.7
-10.958,-127.1967,5.0216,-1.0783,3.1150684628634036,0,0.8
-10.6607,-127.6917,5.0423,-0.8663,2.8930432540901876,0,0.8
-10.2582,-128.102,5.064,-0.6188,2.6601407353002724,0,0.9
-9.76,-128.4054,5.0436,-0.3435,2.9159077091731787,0,0.8
-9.2751,-128.5398,5.077,-0.0905,2.9022232410821287,0,0.8
-8.7506,-128.5739,5.0713,0.1841,3.1573007534508504,0,0.8
-8.2573,-128.4711,5.0511,0.322,3.4283590244485134,0,0.7
-7.7687,-128.2913,5.0687,0.3308,3.7833684074553444,0,0.6
-7.2631,-128.17700000000002,5.0292,0.2917,3.836742835008904,0,0.6
-6.7405,-128.0818,4.9436,0.2409,4.130691968130435,0,0.6
-6.185,-127.9812,4.9316,0.1931,4.217994207567431,0,0.6
-5.6675,-127.9234,4.9199,0.1635,4.520090325712234,0,0.5
-5.1703,-127.8672,4.9474,0.1405,4.643137477145771,0,0.5
-4.6578,-127.83,4.8467,0.1073,4.4768651223439875,0,0.5
-4.1473,-127.8146,4.8613,0.0853,4.465226775035631,0,0.5
-3.6204,-127.8144,4.7544,0.057999999999999996,4.353238831707143,0,0.5
-3.1087,-127.7973,4.8759,0.0248,3.923466968119069,0,0.6
-2.5742,-127.8217,4.798,-0.0105,3.6311071100139496,0,0.7
-2.0476,-127.8723,4.7597,-0.0592,3.8466961840656886,0,0.6
-1.5184,-127.9297,4.7783,-0.1135,4.053307288704872,0,0.6
-1.0239,-128.0288,4.6486,-0.1589,4.356253192478392,0,0.5
-0.4474,-128.1917,4.681,-0.2163,4.662197838653358,0,0.5
0.0211,-128.3762,4.6571,-0.2551,4.767570066053121,0,0.4
0.5393,-128.5348,4.8449,-0.2908,4.548129988120383,0,0.5
1.0669,-128.7578,4.7129,-0.3263,4.328619602549439,0,0.5
1.5931,-128.9259,4.9017,-0.3611,4.168403965340051,0,0.6
2.0812,-129.1565,4.9319,-0.3965,3.8339758860074253,0,0.6
2.5675,-129.4029,4.8325,-0.4255,3.7148479480233867,0,0.7
3.0226,-129.6804,4.9144,-0.4583,3.7394475911938843,0,0.7
3.5084,-129.9649,4.8494,-0.5199,3.751873696257802,0,0.6
3.93,-130.236,5.0154,-0.5839,3.65947961721741,0,0.7
4.3888,-130.639,4.8565,-0.6549,3.71072215966136,0,0.7
4.7877,-131.0025,4.9241,-0.7145,3.858348832320775,0,0.6
5.1726,-131.3868,4.9057,-0.7712,4.04975301321619,0,0.6
5.5467,-131.7705,4.9502,-0.8346,4.04532357902858,0,0.6
5.8745,-132.1515,4.9804,-0.884,4.007428200628013,0,0.6
6.1569,-132.5835,5.0976,-0.9242,4.231431280638601,0,0.6
6.4348,-133.0038,5.0923,-0.9649,4.220762036598781,0,0.6
6.7257,-133.4804,5.0616,-1.0089,4.0122449754887715,0,0.6
6.9935,-133.9592,5.1856,-1.0407,4.1144541532772845,0,0.6
7.2357,-134.4811,5.0938,-1.0786,4.164161918217154,0,0.6
7.4842,-135.0145,5.1877,-1.1355,4.297488295847311,0,0.5
7.6361,-135.502,5.1337,-1.1849,4.429329663123756,0,0.5
7.8023,-136.0162,5.1459,-1.2372,4.821946722102585,0,0.4
7.9421,-136.5384,5.2345,-1.2972,4.912196018812945,0,0.4
8.0396,-137.0665,5.2782,-1.3425,4.962201615971746,0,0.4
8.1468,-137.5868,5.3052,-1.3681,4.715736915615134,0,0.5
8.1738,-138.1229,5.3155,-1.3894,4.660825799342624,0,0.5
8.2754,-138.6405,5.3136,-1.4118,4.372353565339452,0,0.5
8.3295,-139.2191,5.2752,-1.4379,3.9545297540850375,0,0.6
8.3802,-139.7501,5.3882,-1.4789,3.627023228261612,0,0.7
8.3584,-140.2595,5.3955,-1.5148,3.297734059310721,0,0.7
8.3703,-140.7789,5.501,-1.5735,3.2410250573101242,0,0.8
8.3318,-141.2986,5.5444,-1.6277,3.208358574382356,0,0.8
8.2785,-141.826,5.5003,-1.6812,3.245091916901192,0,0.8
8.154,-142.3924,5.4361,-1.7353,3.25009971724998,0,0.7
7.9762,-142.8798,5.486000000000001,-1.794,3.4636052791295127,0,0.7
7.8536,-143.3694,5.4553,-1.8411,3.424503602500718,0,0.7
7.6728,-143.8567,5.4433,-1.8938,3.1493222189548655,0,0.8
7.4823,-144.394,5.689,-1.9531,3.2009348933661768,0,0.8
7.2217,-144.8249,5.5958,-2.0063,3.4590032962214092,0,0.7
6.9672,-145.3043,5.6984,-2.0578,3.6255144526183667,0,0.7
6.7375,-145.786,5.6935,-2.1001,3.6135360020058904,0,0.7
6.3765,-146.1836,5.7304,-2.1411,3.6542553599049246,0,0.7
6.0844,-146.6329,5.7051,-2.1923,3.9611939367710516,0,0.6
5.7727,-147.0319,5.7207,-2.2442,4.148228766876897,0,0.6
5.4422,-147.4668,5.7629,-2.2983,4.24273001896842,0,0.6
5.0835,-147.8278,5.7845,-2.3475,4.453723731781363,0,0.5
4.6403,-148.1693,5.8489,-2.3926,5.0576632339121765,0,0.4
4.2819,-148.555,5.7879,-2.3931,5.356281054653372,0,0.3
3.8124,-148.8777,5.8678,-2.3928,5.596433758899435,0,0.3
3.4082,-149.2201,5.8804,-2.3881,5.949015487575993,0,0.2
3.0172,-149.5696,5.891,-2.3855,6.0259098340726185,0,0.2
2.5992,-149.9128,5.9341,-2.3754,5.725806863423441,0,0.3
2.2123,-150.2593,5.9313,-2.3631,5.233730648685626,0,0.4
1.8254,-150.6114,5.9586,-2.3753,5.023951409566622,0,0.4
1.4213,-150.961,5.9645,-2.4188,4.618475256151033,0,0.5
0.9825,-151.2878,5.9446,-2.4873,4.684642967596642,0,0.5
0.5586,-151.5644,5.9686,-2.5527,4.404901672002133,0,0.5
0.0954,-151.7931,5.9443,-2.6096,4.1813622246085025,0,0.6
-0.371,-152.069,5.9959,-2.5897,3.7935702372555546,0,0.6
-0.8013,-152.3411,6.0761,-2.519,3.5026947042265255,0,0.7
-1.2551,-152.6234,6.0206,-2.3852,2.9458254946674973,0,0.8
-1.5819,-153.0315,6.0414,-2.2172,2.829227819104525,0,0.8
-1.8977,-153.5093,6.0926,-1.9657,2.728331120490143,0,0.9
-2.0708,-154.0001,6.1423,-1.7011,2.607593673977534,0,0.9
-2.0944,-154.57299999999998,6.1715,-1.4189,2.9416406780453936,0,0.8
-1.9495,-155.1017,6.1449,-1.1132,3.2288368008026183,0,0.8
-1.6802,-155.5874,6.1034,-0.8347,3.4902335167223777,0,0.7
-1.2623,-155.9061,6.1454,-0.6406,3.8634960123971256,0,0.6
-0.8284,-156.2369,6.1257,-0.5758,4.052501078068731,0,0.6
-0.3868,-156.5465,6.1812,-0.5521,3.815841745544684,0,0.6
0.0333,-156.8279,6.1448,-0.5375,3.6036797121044017,0,0.7
0.4925,-157.1276,6.1163,-0.5082,3.288493974415179,0,0.7
0.9544,-157.4343,6.1342,-0.4973,3.0146558696171812,0,0.8
1.4144,-157.6968,6.1542,-0.4951,2.747889882311118,0,0.9
1.8217,-158.0144,6.2003,-0.4886,2.745151554239846,0,0.9
2.2272,-158.3088,6.2146,-0.4803,2.6600529593147826,0,0.9
2.6801,-158.5296,6.1713,-0.4783,2.7509144501276097,0,0.8
3.1207,-158.7766,6.2083,-0.4777,2.7823317574059594,0,0.8
3.5299,-159.1158,6.1701,-0.4743,2.818355778507792,0,0.8
4.0613,-159.361,6.207000000000001,-0.4672,2.673537180753004,0,0.9
4.4985,-159.6095,6.3262,-0.4554,2.819245209194311,0,0.8
4.9533,-159.9048,6.2631,-0.4383,2.8387531609915513,0,0.8
5.4304,-160.1205,6.2895,-0.43200000000000005,2.9865678632895634,0,0.8
5.9073,-160.3075,6.261,-0.4278,3.0496888827429736,0,0.8
6.3432,-160.6016,6.2685,-0.4233,3.209809041637795,0,0.8
6.827999999999999,-160.8358,6.2569,-0.419,3.330388626865683,0,0.7
7.3134,-161.0804,6.2853,-0.4131,3.5962397594898103,0,0.7
7.7915,-161.3304,6.2888,-0.4503,3.68286244305861,0,0.7
8.2579,-161.6598,6.3238,-0.5006,3.8988513922722516,0,0.6
8.6886,-161.925,6.3528,-0.5289,4.104645683363995,0,0.6
9.1288,-162.2191,6.3501,-0.5457,3.987775639204253,0,0.6
9.5901,-162.4559,6.3274,-0.5609,3.623386637059024,0,0.7
10.0131,-162.7951,6.3391,-0.5739,3.3989334406426375,0,0.7
10.4561,-163.1137,6.4102,-0.5931,3.139383484858948,0,0.8
10.8971,-163.4194,6.3558,-0.6399,2.6610769405579298,0,0.9
11.2698,-163.7944,6.4322,-0.7121,2.7007243284936235,0,0.9
11.6555,-164.1948,6.4557,-0.818,3.2475428296693334,0,0.8
12.0154,-164.6353,6.4268,-0.9122,3.3744646662989872,0,0.7
12.3004,-165.0685,6.3944,-1.0045,3.652929843163365,0,0.7
12.4982,-165.5452,6.4164,-1.0553,4.357900133308885,0,0.5
12.7447,-166.0377,6.4309,-1.103,4.587582812418843,0,0.5
12.9656,-166.5422,6.4278,-1.1546,4.586562502604199,0,0.5
13.1152,-167.03099999999998,6.5086,-1.2267,4.905526409294673,0,0.4
13.243,-167.5676,6.4851,-1.2687,5.044563169560817,0,0.4
13.380999999999998,-168.0605,6.5305,-1.3097,5.186417749344401,0,0.4
13.449000000000002,-168.595,6.5329,-1.3726,5.456821603091651,0,0.3
13.5441,-169.092,6.5694,-1.4284,5.606599304821163,0,0.3
13.5694,-169.62400000000002,6.5954,-1.4662,5.723398443615359,0,0.3
13.5541,-170.1323,6.6299,-1.4842,6.035486964763775,0,0.2
13.5951,-170.6416,6.6054,-1.5052,6.034738654060224,0,0.2
13.6053,-171.1813,6.6193,-1.5224,6.06196065637436,0,0.2
13.6165,-171.7145,6.6421,-1.5283,6.086471211767941,0,0.2
13.6049,-172.2501,6.6668,-1.5311,6.052543677231712,0,0.2
13.6049,-172.7648,6.6758,-1.5299,6.008031979243679,0,0.2
13.5981,-173.3036,6.7305,-1.5204,6.024367140635645,0,0.2
13.6041,-173.8801,6.7382,-1.5183,6.013309679319664,0,0.2
13.6085,-174.4075,6.7842,-1.5178,5.927160432649636,0,0.2
13.5967,-174.9378,6.7817,-1.5188,5.8010081951655135,0,0.2
13.6143,-175.4474,6.7851,-1.5212,5.827017843301002,0,0.2
13.6017,-175.9894,6.8274,-1.5233,5.822677309184908,0,0.2
13.6318,-176.5472,6.8665,-1.5244,5.843357771914293,0,0.2
13.655999999999999,-177.1021,6.8497,-1.5259,5.812458691862462,0,0.2
13.6237,-177.6306,6.8868,-1.5251,5.682394518957648,0,0.3
13.6639,-178.1321,6.9301,-1.5263,5.671650649836082,0,0.3
13.6241,-178.6374,6.9534,-1.5249,5.343059394710023,0,0.3
13.6796,-179.1705,6.9407,-1.5278,5.3398689620676825,0,0.3
13.6883,-179.72400000000002,6.9906,-1.5264,5.436750275817218,0,0.3
13.6286,-180.2727,7.0229,-1.5084,5.752405178907595,0,0.2
13.657,-180.8025,7.0323,-1.4929,5.674100768845711,0,0.3
13.6903,-181.3244,7.041,-1.4758,5.865327598030097,0,0.2
13.716,-181.8642,7.0561,-1.4645,5.719117010443465,0,0.3
13.735,-182.3662,7.0931,-1.4525,5.5433296378879895,0,0.3
13.7661,-182.8759,7.1102,-1.4480000000000002,5.500824139537871,0,0.3
13.8093,-183.4071,7.1558,-1.4514,5.39941936835536,0,0.3
13.8217,-183.9483,7.2126,-1.4541,5.502949798326002,0,0.3
13.8393,-184.5127,7.2275,-1.4568,5.562133118693718,0,0.3
13.9103,-185.0563,7.255,-1.4609,5.73535437925509,0,0.3
13.9414,-185.5629,7.2836,-1.4635,5.849791504094898,0,0.2
13.9506,-186.1157,7.2991,-1.4659,6.075134479218748,0,0.2
13.9991,-186.6584,7.3286,-1.4656,6.16474615402704,0,0.2
14.0475,-187.2339,7.3503,-1.4656,6.134020728906417,0,0.2
14.0569,-187.7523,7.3769,-1.4633,6.104291684841553,0,0.2
14.0913,-188.2744,7.4002,-1.4598,5.964997128371252,0,0.2
14.1162,-188.7889,7.4182,-1.4585,5.923420719019477,0,0.2
14.1506,-189.3143,7.4557,-1.4631,5.750359480091406,0,0.2
14.2144,-189.8655,7.4704,-1.4680000000000002,5.88934544517872,0,0.2
14.22,-190.3788,7.4779,-1.4702,5.762698308059821,0,0.2
14.2508,-190.8905,7.5117,-1.4903,5.788506674782474,0,0.2
14.2354,-191.4418,7.5083,-1.5161,5.874797279100605,0,0.2
14.3029,-191.988,7.5313,-1.5252,5.943588300955883,0,0.2
14.296,-192.5099,7.5293,-1.5293,5.829339110354952,0,0.2
14.2956,-193.0508,7.5949,-1.5323,5.965588634398868,0,0.2
14.2647,-193.5587,7.5929,-1.536,5.994738133084217,0,0.2
14.2687,-194.0769,7.5676,-1.5395,5.801993874832942,0,0.2
14.2513,-194.5882,7.6,-1.5412,5.808771445820881,0,0.2
14.2336,-195.1014,7.6496,-1.545,5.680161663546308,0,0.3
14.2351,-195.6319,7.6798,-1.545,5.459055026560337,0,0.3
14.2259,-196.1336,7.7025,-1.5473,5.402749950879321,0,0.3
14.1973,-196.6527,7.7212,-1.5455,5.278254294442502,0,0.3
14.1819,-197.185,7.7692,-1.514,5.333487622260536,0,0.3
14.2061,-197.7384,7.7786,-1.4764,5.533448202029999,0,0.3
14.273,-198.2385,7.7568,-1.4785,5.875624109468935,0,0.2
14.2731,-198.7393,7.792000000000001,-1.4907,5.852164875059447,0,0.2
14.2725,-199.2913,7.8365,-1.5030000000000001,6.049298927958814,0,0.2
14.2731,-199.803,7.8362,-1.5132,5.871918676356473,0,0.2
14.2607,-200.3806,7.8852,-1.5241,5.744271861232926,0,0.3
14.2598,-200.9488,7.9132,-1.5366,5.400315779111931,0,0.3
14.2263,-201.4572,7.9497,-1.5424,5.198461610201878,0,0.4
14.2396,-202.002,7.9669,-1.5533,4.917190904259117,0,0.4
14.1802,-202.5062,7.9571,-1.561,4.8945950581336675,0,0.4
14.162,-203.09400000000002,8.014,-1.5722,4.958070166001076,0,0.4
14.1661,-203.6351,8.0565,-1.6027,4.922120092727195,0,0.4
14.083,-204.1756,8.1053,-1.6285,4.988308310600528,0,0.4
14.0124,-204.7303,8.1099,-1.6581,5.04524374268539,0,0.4
13.9529,-205.2354,8.1333,-1.6832,4.669632888289864,0,0.5
13.8805,-205.7983,8.1237,-1.7112,4.548508264195392,0,0.5
13.7764,-206.2977,8.204,-1.7395,4.671049936152433,0,0.5
13.6943,-206.7971,8.2061,-1.7645,4.465933025715078,0,0.5
13.5587,-207.3335,8.1956,-1.7767,4.411417329643282,0,0.5
13.3733,-207.873,8.2184,-1.7967,4.5597576090890986,0,0.5
13.2472,-208.3614,8.2643,-1.8152,4.407641439091337,0,0.5
13.0706,-208.8887,8.2212,-1.8281,4.343188364042645,0,0.5
12.8667,-209.4175,8.2422,-1.8357,4.423775307640042,0,0.5
12.7384,-209.9083,8.3107,-1.8492,4.546447535985736,0,0.5
12.5876,-210.4476,8.2806,-1.8593,4.53043680795934,0,0.5
12.4193,-210.9265,8.2683,-1.8666,4.708029468389992,0,0.5
12.2508,-211.4091,8.373,-1.8747,4.675508702170173,0,0.5
12.0191,-211.8988,8.437000000000001,-1.8789,4.899433067531993,0,0.4
11.8387,-212.3686,8.4302,-1.8856,4.821149986525897,0,0.4
11.659,-212.8998,8.4462,-1.8868,4.970236574369134,0,0.4
11.4719,-213.4065,8.4552,-1.8871,4.961384738203199,0,0.4
11.2778,-213.8768,8.4752,-1.8813,5.054253973916284,0,0.4
11.1001,-214.3628,8.513,-1.8831,5.052950905176095,0,0.4
10.9348,-214.8544,8.5273,-1.8971,5.105578238173887,0,0.4
10.7279,-215.3292,8.5484,-1.9068,5.199442467446659,0,0.4
10.5283,-215.8469,8.5246,-1.9184,5.254237832959347,0,0.3
10.2855,-216.3262,8.5614,-1.9249,5.080004401156022,0,0.4
10.0748,-216.8191,8.6235,-1.9358,5.000382905013489,0,0.4
9.8813,-217.3104,8.6768,-1.943,4.985723370295612,0,0.4
9.704,-217.797,8.5889,-1.95,4.962540268075929,0,0.4
9.5007,-218.2586,8.6613,-1.9546,4.848753537616297,0,0.4
9.2123,-218.7554,8.7365,-1.9604,5.022099865697954,0,0.4
8.9622,-219.2381,8.7492,-1.9846,5.101139777958959,0,0.4
8.7252,-219.7162,8.7544,-2.0159,5.340543510094266,0,0.3
8.4681,-220.1785,8.7546,-2.0286,5.562302970477812,0,0.3
8.2141,-220.6286,8.7585,-2.035,5.768407451992664,0,0.2
7.9921,-221.0846,8.834,-2.0491,5.9617760898955945,0,0.2
7.706,-221.5333,8.8673,-2.0540000000000003,5.719295547061065,0,0.3
7.4743,-221.9842,8.8321,-2.0616,5.4763282332495695,0,0.3
7.2046,-222.4142,8.9207,-2.0715,5.029118436759445,0,0.4
6.9415,-222.8911,8.802,-2.0918,5.104278937939015,0,0.4
6.6566,-223.3197,8.9085,-2.1145,4.820530024371976,0,0.4
6.2882,-223.7328,8.9294,-2.1291,4.998685506321733,0,0.4
5.9447,-224.1411,9.004,-2.1484,5.081214513041805,0,0.4
5.7103,-224.5898,8.9833,-2.1614,5.365012978220182,0,0.3
5.3573,-224.9955,8.9993,-2.1689,5.186765395893369,0,0.4
4.9936,-225.415,9.0,-2.1755,5.243755588427233,0,0.4
4.672,-225.8722,9.0496,-2.1869,5.133841530552742,0,0.4
4.3732,-226.2731,9.0426,-2.1895,5.000039839710626,0,0.4
4.0566,-226.6959,9.0306,-2.1848,4.699404996779844,0,0.5
3.7465,-227.138,9.0793,-2.1718,4.45370947928282,0,0.5
3.407,-227.53,9.0812,-2.1742,4.183766145492925,0,0.6
3.0542,-227.9492,9.0533,-2.1847,3.988662656488006,0,0.6
2.7371,-228.3645,9.1247,-2.199,3.7761596200718195,0,0.6
2.445,-228.7708,9.0664,-2.2038,3.638641086572683,0,0.7
2.1071,-229.2064,9.1817,-2.2016,3.5841385877399725,0,0.7
1.7764,-229.614,9.1613,-2.2123,3.5934482536162333,0,0.7
1.4429,-230.0042,9.1633,-2.2288,3.519288440563879,0,0.7
1.0872,-230.389,9.2712,-2.2371,3.3144002012687093,0,0.7
0.7756,-230.81599999999997,9.1888,-2.2544,3.180874828686626,0,0.8
0.3739,-231.2312,9.2675,-2.2645,3.0159201932788955,0,0.8
0.0164,-231.6672,9.275,-2.278,3.1783725737754946,0,0.8
-0.3394,-232.1059,9.3058,-2.295,3.393661124531099,0,0.7
-0.7736,-232.476,9.254,-2.3114,3.7468274781254847,0,0.7
-1.1751,-232.843,9.241,-2.3353,4.315051962004562,0,0.5
-1.5466,-233.2228,9.276,-2.3533,4.808616447077308,0,0.4
-1.9059,-233.5713,9.3157,-2.3629,4.780650157050838,0,0.4
-2.2878,-233.9099,9.3244,-2.3741,4.93740464773791,0,0.4
-2.6807,-234.2196,9.3158,-2.3902,5.02820633022346,0,0.4
-3.0934,-234.5694,9.3219,-2.4235,4.7761492044511575,0,0.4
-3.5517,-234.9072,9.3234,-2.4826,4.655792720944929,0,0.5
-4.0111,-235.1827,9.3329,-2.5271,4.814142767762615,0,0.4
-4.4657,-235.485,9.3292,-2.5604,4.799138964566669,0,0.4
-4.9617,-235.7263,9.366,-2.6203,4.91040861972172,0,0.4
-5.4708,-235.96,9.387,-2.7055,5.108728567086276,0,0.4
-5.981,-236.16099999999997,9.3816,-2.7764,5.154535118954978,0,0.4
-6.4746,-236.3402,9.3707,-2.8189,5.074556538010342,0,0.4
-6.9857,-236.4888,9.3346,-2.8404,5.033381779788507,0,0.4
-7.4869,-236.6219,9.3659,-2.8335,4.969140126518168,0,0.4
-8.0111,-236.7135,9.3463,-2.8007,5.13002681036927,0,0.4
-8.4798,-236.9094,9.3552,-2.8002,5.152541626960062,0,0.4
-8.9684,-237.1382,9.3629,-2.8361,5.4377468956246995,0,0.3
-9.4864,-237.19400000000002,9.369,-2.8792,5.548664016901717,0,0.3
-9.9892,-237.2805,9.3585,-2.9068,5.1741850871424955,0,0.4
-10.4938,-237.3636,9.4033,-2.9357,4.828397373906693,0,0.4
-11.0044,-237.4023,9.3805,-2.9657,4.286190839951974,0,0.5
-11.5203,-237.4969,9.4227,-2.9521,3.61933104432223,0,0.7
-12.0384,-237.5663,9.3873,-2.9784,3.184440273060279,0,0.8
-12.5644,-237.5536,9.4049,-3.0638,3.321225846491881,0,0.7
-13.0686,-237.5635,9.3582,3.1077,3.1829433939261644,0,0.8
-13.5889,-237.563,9.383,2.9339,3.3036175984325276,0,0.7
-14.0682,-237.3665,9.4079,2.7468,3.454900305838766,0,0.7
-14.535,-237.1066,9.4172,2.5340000000000003,3.7875301817548745,0,0.6
-14.908,-236.75400000000002,9.3225,2.3285,3.7356938229050867,0,0.7
-15.227,-236.34900000000002,9.3833,2.1903,3.611946472876671,0,0.7
-15.4586,-235.8929,9.3267,2.1097,3.5939795214058385,0,0.7
-15.6864,-235.4284,9.3002,2.0323,3.563212201426763,0,0.7
-15.9028,-234.9572,9.2813,1.9493,3.354758409950784,0,0.7
-16.0553,-234.4375,9.2544,1.8419999999999999,3.526787297242042,0,0.7
-16.1424,-233.938,9.2787,1.7472,3.8013153818826817,0,0.6
-16.1818,-233.3921,9.228,1.6561,4.095634893619734,0,0.6
-16.1854,-232.8637,9.2609,1.6107,4.251548876253592,0,0.5
-16.1662,-232.2925,9.2134,1.5983,4.429184254922837,0,0.5
-16.1433,-231.792,9.1735,1.6015,4.511926622468825,0,0.5
-16.1505,-231.2541,9.1687,1.615,4.537560246976035,0,0.5
-16.1441,-230.7534,9.1364,1.6398,4.6762688799809355,0,0.5
-16.1894,-230.2418,9.131,1.66,4.914029563339176,0,0.4
-16.2015,-229.6973,9.0565,1.6780000000000002,5.044401931597907,0,0.4
-16.2293,-229.1683,9.068,1.6819,5.246027465328185,0,0.4
-16.2797,-228.6031,9.0343,1.6884,5.496924339803963,0,0.3
-16.298,-228.0915,9.0213,1.6946,5.682874519326401,0,0.3
-16.33,-227.5889,8.9876,1.693,5.852023305105569,0,0.2
-16.3655,-227.0586,8.9711,1.6911,5.9575357268409315,0,0.2
-16.4037,-226.5514,8.8937,1.6880000000000002,5.9813559342631155,0,0.2
-16.4534,-225.9899,8.941,1.6833,6.073269497472439,0,0.2
-16.4914,-225.4741,8.9326,1.6818,5.988918477515468,0,0.2
-16.5327,-224.9393,8.8873,1.6938,6.013169286885904,0,0.2
-16.5535,-224.3675,8.8098,1.7029,5.984076585915385,0,0.2
-16.616,-223.8479,8.7948,1.6997,5.898476659622652,0,0.2
-16.6491,-223.3295,8.7615,1.693,5.864300474547877,0,0.2
-16.6821,-222.7979,8.7896,1.6635,5.700295995922938,0,0.3
-16.7041,-222.2766,8.7375,1.6316,5.394142472147356,0,0.3
-16.705,-221.7427,8.7222,1.5962,5.59623797936959,0,0.3
-16.683,-221.1678,8.7517,1.554,5.770137095126671,0,0.2
-16.666,-220.6069,8.7377,1.5039,5.616415182973303,0,0.3
-16.565,-220.0748,8.713,1.4445,5.8503954300803835,0,0.2
-16.4357,-219.5436,8.6532,1.4113,6.09046831686643,0,0.2
-16.3377,-219.0262,8.6798,1.3868,5.897480763716146,0,0.2
-16.2209,-218.518,8.6444,1.3727,5.737879823907219,0,0.3
-16.0661,-217.9706,8.6047,1.3697,5.857496857891983,0,0.2
-15.9472,-217.4709,8.6557,1.3619999999999999,5.733720899018129,0,0.3
-15.8087,-216.954,8.5966,1.3586,5.701988767938987,0,0.3
-15.6732,-216.4276,8.5974,1.3682,5.610841974747192,0,0.3
-15.5496,-215.8939,8.5134,1.3765,5.639758558512262,0,0.3
-15.4238,-215.3783,8.5241,1.3702,5.65560193076575,0,0.3
-15.2827,-214.8717,8.4786,1.3692,5.463699431395511,0,0.3
-15.1343,-214.3284,8.4894,1.3665,5.474474953505947,0,0.3
-15.0164,-213.7665,8.4255,1.3618,5.449659034919298,0,0.3
-14.8645,-213.2641,8.3762,1.3754,5.468158590821162,0,0.3
-14.7515,-212.7055,8.3909,1.3961,5.1647618154889265,0,0.4
-14.6654,-212.2016,8.3704,1.4074,5.09881032119708,0,0.4
-14.5644,-211.6853,8.3763,1.4183,4.895526700412345,0,0.4
-14.4459,-211.1626,8.3129,1.4299,4.818601878673178,0,0.4
-14.3465,-210.6584,8.3271,1.4506,4.580453739982296,0,0.5
-14.2816,-210.1501,8.3861,1.5051,4.72240403359572,0,0.5
-14.235,-209.6139,8.3069,1.5551,4.871571745326549,0,0.4
-14.1931,-209.1066,8.3803,1.5544,4.903959352801339,0,0.4
-14.1658,-208.5788,8.3539,1.5417,4.883111110449595,0,0.4
-14.144,-208.0654,8.3204,1.5422,4.851991840900076,0,0.4
-14.1171,-207.5478,8.3029,1.5475,4.784483917877897,0,0.4
-14.09,-207.011,8.3175,1.5588,4.496846584943099,0,0.5
-14.0578,-206.4474,8.187000000000001,1.545,4.339277926769844,0,0.5
-14.0217,-205.9289,8.1863,1.5319,4.465159794032586,0,0.5
-13.9716,-205.3881,8.1553,1.5549,4.546903960558592,0,0.5
-13.9386,-204.8514,8.1021,1.595,4.711198665153094,0,0.5
-13.9624,-204.3489,8.1293,1.6319,5.015849813879431,0,0.4
-13.9715,-203.8346,8.1072,1.6654,5.373183585439445,0,0.3
-13.9951,-203.3184,8.0817,1.6789,5.476028342423324,0,0.3
-14.0286,-202.7941,8.1056,1.6921,5.748687286027355,0,0.3
-14.0572,-202.2775,8.0276,1.7031,5.60203588018269,0,0.3
-14.1223,-201.7663,8.0133,1.7073,5.8204245925019125,0,0.2
-14.1557,-201.2391,8.0255,1.696,5.7878976658085985,0,0.2
-14.2055,-200.6953,7.9662,1.6608,5.84761497468814,0,0.2
-14.2291,-200.1596,7.9816,1.6265,5.84325147654436,0,0.2
-14.1973,-199.5876,7.9146,1.6113,6.024491864503117,0,0.2
-14.2069,-199.0528,7.898,1.6026,5.836053686849218,0,0.2
-14.2083,-198.5052,7.8582,1.6039,5.830621193828768,0,0.2
-14.1967,-197.9124,7.9059,1.607,5.768728703789311,0,0.2
-14.1726,-197.3734,7.803,1.6104,5.619864539292703,0,0.3
-14.1913,-196.8556,7.8066,1.6192,5.538382402104025,0,0.3
-14.2112,-196.3448,7.8207,1.6363,5.525300558794209,0,0.3
-14.2181,-195.7994,7.8361,1.6465,5.373102402680418,0,0.3
-14.2336,-195.2645,7.8492,1.6524,5.282278263536215,0,0.3
-14.2528,-194.7615,7.8296,1.6547,5.249810751295421,0,0.4
-14.2581,-194.2432,7.7685,1.6567,5.373253455916493,0,0.3
-14.2983,-193.674,7.7822,1.6552,5.392937885127974,0,0.3
-14.3303,-193.1258,7.7946,1.653,5.519246534350744,0,0.3
-14.3522,-192.563,7.767,1.6459,5.532018217530237,0,0.3
-14.3579,-192.0193,7.7403,1.6385,5.516879673494034,0,0.3
-14.3784,-191.4967,7.7391,1.6317,5.4244980764898685,0,0.3
-14.3423,-190.9402,7.6247,1.6304,5.545586292012921,0,0.3
-14.3916,-190.4307,7.6842,1.6269999999999998,5.567596445372725,0,0.3
-14.4003,-189.8767,7.6396,1.6287,5.612490883660681,0,0.3
-14.397,-189.3579,7.6168,1.6222,5.878702561086042,0,0.2
-14.3692,-188.8153,7.546,1.6097,5.903120613460203,0,0.2
-14.3887,-188.2906,7.5689,1.6109,5.811822351191897,0,0.2
-14.390999999999998,-187.7598,7.5412,1.6228,5.888479690235816,0,0.2
-14.3738,-187.2206,7.4895,1.6143,5.845159896390982,0,0.2
-14.3714,-186.6517,7.4396,1.6106,5.864227887376962,0,0.2
-14.4025,-186.1466,7.4813,1.6064,6.127441411947316,0,0.2
-14.3389,-185.6271,7.4535,1.6104,6.181598630234827,0,0.2
-14.3477,-185.1014,7.4739,1.6181,6.14131124585375,0,0.2
-14.362,-184.558,7.4038,1.6241,6.164547746478783,0,0.2
-14.3536,-183.9748,7.3628,1.6276,5.964547158546781,0,0.2
-14.3668,-183.4358,7.3719,1.6291,5.493333636707,0,0.3
-14.3875,-182.8951,7.3984,1.6376,5.403890488757231,0,0.3
-14.4118,-182.3255,7.3917,1.6449,5.216365575964561,0,0.4
-14.4137,-181.7866,7.2915,1.6488,5.159635922182268,0,0.4
-14.4493,-181.2241,7.285,1.6595,5.164243979256974,0,0.4
-14.4958,-180.6752,7.2695,1.6815,5.236520580349055,0,0.4
-14.5163,-180.1605,7.2666,1.6715,5.302354229342919,0,0.3
-14.54,-179.62400000000002,7.2676,1.6469,5.2057018074864985,0,0.4
-14.544,-179.1072,7.189,1.6367,5.167978305861006,0,0.4
-14.5744,-178.5521,7.1842,1.6519,4.914145655274331,0,0.4
-14.6071,-178.0179,7.1724,1.7026,4.956672494011965,0,0.4
-14.6391,-177.4962,7.1326,1.7468,4.975028907843636,0,0.4
-14.7231,-177.0022,7.1281,1.7733,5.185890975561461,0,0.4
-14.7861,-176.43900000000002,7.11,1.7083,5.099542216398377,0,0.4
-14.8196,-175.9007,7.111000000000001,1.6635,5.198382359500949,0,0.4
-14.860999999999999,-175.3775,7.0766,1.6655,5.238171656796427,0,0.4
-14.8947,-174.8246,7.08,1.7043,5.214363362451522,0,0.4
-14.9345,-174.2863,7.0432,1.7442,5.096241935679901,0,0.4
-15.0115,-173.7493,6.9629,1.7484,5.082241268703188,0,0.4
-15.0846,-173.2336,6.992000000000001,1.77,5.144783501309656,0,0.4
-15.1786,-172.6746,6.9257,1.7699,5.258815686568092,0,0.3
-15.2599,-172.1785,6.9151,1.7359,5.269585261895112,0,0.3
-15.3133,-171.6402,6.905,1.7009999999999998,5.380611400667308,0,0.3
-15.3401,-171.1306,6.8942,1.6809,5.7128584561062,0,0.3
-15.3612,-170.6247,6.8827,1.66,5.791583176930477,0,0.2
-15.3873,-170.0875,6.8455,1.6381,5.724908033887253,0,0.3
-15.3881,-169.5721,6.8058,1.643,5.785877478416143,0,0.2
-15.4407,-169.0366,6.8153,1.6494,5.725045793289802,0,0.3
-15.4395,-168.5168,6.7655,1.651,5.595916010044306,0,0.3
-15.4689,-167.9777,6.7751,1.6461,5.583504552723889,0,0.3
-15.4843,-167.4699,6.7075,1.6443,5.336414662161756,0,0.3
-15.5189,-166.9429,6.7036,1.6445,5.026721544645845,0,0.4
-15.5093,-166.4401,6.6855,1.6415,4.838359276301352,0,0.4
-15.5354,-165.9227,6.6696,1.632,4.62396610739235,0,0.5
-15.5193,-165.4218,6.6497,1.6262,4.441423070834539,0,0.5
-15.4971,-164.8736,6.5999,1.6307,4.519603651098183,0,0.5
-15.5305,-164.3193,6.5829,1.6428,4.677822978828336,0,0.5
-15.5543,-163.8035,6.5344,1.64,4.869274045051137,0,0.4
-15.557,-163.2585,6.5113,1.6358,4.967705009995028,0,0.4
-15.5597,-162.7277,6.5225,1.6343,5.116199175346539,0,0.4
-15.5757,-162.1991,6.5122,1.6385,5.080278458409506,0,0.4
-15.5823,-161.6307,6.502000000000001,1.6485,5.104544388840314,0,0.4
-15.6037,-161.0717,6.4399,1.6643,5.1134425119536555,0,0.4
-15.6251,-160.5487,6.4593,1.6777,5.130974274299123,0,0.4
-15.6397,-160.0269,6.4497,1.6943,5.095102012849728,0,0.4
-15.6955,-159.518,6.4091,1.704,5.012635145131564,0,0.4
-15.7229,-158.9775,6.3456,1.6922,4.803652040983933,0,0.4
-15.7823,-158.4794,6.3848,1.6899,4.656238868865332,0,0.5
-15.8005,-157.9395,6.3491,1.7023,4.454212044601242,0,0.5
-15.8651,-157.3903,6.3445,1.7096,4.241432365497388,0,0.6
-15.9165,-156.8779,6.2544,1.7097,4.3771870505712025,0,0.5
-15.9445,-156.3528,6.2659,1.6862,4.397904233386788,0,0.5
-16.0091,-155.8524,6.2856,1.6637,4.41904019180296,0,0.5
-16.0004,-155.3265,6.2379,1.6524,4.414566501600394,0,0.5
-16.0283,-154.821,6.2289,1.6417,4.27855452451583,0,0.5
-16.0259,-154.2972,6.1884,1.6357,3.978538373830176,0,0.6
-16.0269,-153.7636,6.1885,1.6319,3.7396621359954785,0,0.7
-16.0372,-153.2241,6.1714,1.5967,3.452562013150272,0,0.7
-16.0033,-152.7221,6.1405,1.5085,3.332088775254153,0,0.7
-15.9325,-152.2062,6.1214,1.4127,3.357069841332492,0,0.7
-15.7975,-151.6603,6.0841,1.2703,3.446808841596266,0,0.7
-15.5903,-151.1965,6.0454,1.12,3.540163221545294,0,0.7
-15.3143,-150.7614,6.0561,0.9758,3.5413282219677003,0,0.7
-14.9545,-150.3585,6.0085,0.8133,3.504226164375189,0,0.7
-14.5479,-150.0666,5.9618,0.6587,3.4100338670843926,0,0.7
-14.1003,-149.7734,5.9348,0.4739,3.296084253089419,0,0.7
-13.5937,-149.6158,5.9522,0.2533,3.3504961534738635,0,0.7
-13.094000000000001,-149.548,5.9333,0.0648,3.5290673602908624,0,0.7
-12.5751,-149.5874,5.954,-0.1277,3.8522732913336784,0,0.6
-12.0762,-149.7419,5.9304,-0.3017,4.270171015713744,0,0.5
-11.6037,-149.9379,5.9398,-0.4214,4.514126868773993,0,0.5
-11.1456,-150.1789,5.9201,-0.46,4.852090860381672,0,0.4
-10.7082,-150.4376,5.9485,-0.49200000000000005,5.020177545846545,0,0.4
-10.2384,-150.7232,5.9451,-0.5249,4.967914538546407,0,0.4
-9.7837,-151.0189,5.966,-0.5522,4.777598285653053,0,0.4
-9.3725,-151.3266,5.9726,-0.5564,4.785783216119334,0,0.4
-8.9298,-151.62,5.9802,-0.5189,4.388528344681876,0,0.5
-8.4844,-151.9222,5.99,-0.4888,4.120655211539589,0,0.6
-8.0144,-152.1882,6.0208,-0.4669,4.060317442786196,0,0.6
-7.5735,-152.4253,6.0242,-0.4546,3.965542326259207,0,0.6
-7.0862,-152.6824,6.0711,-0.414,3.8655202781377813,0,0.6
-6.601,-152.91,6.0981,-0.3776,4.06344570009678,0,0.6
-6.1359,-153.127,6.1608,-0.331,4.315101826920428,0,0.5
-5.6159,-153.3461,6.1235,-0.2669,4.259868695064572,0,0.5
-5.1316,-153.4888,6.0504,-0.1996,4.200942393504917,0,0.6
-4.6405,-153.6021,6.122000000000001,-0.1278,4.101111630015567,0,0.6
-4.1013,-153.6777,6.091,-0.0519,3.879383518584097,0,0.6
-3.5749,-153.7157,6.1025,0.0666,3.6079143083526324,0,0.7
-3.028,-153.6427,6.1251,0.2389,3.614411492424212,0,0.7
-2.5088,-153.4747,6.0298,0.431,3.922941515852126,0,0.6
-2.0432,-153.2856,6.0520000000000005,0.5397,4.301333903471675,0,0.5
-1.6078,-153.0157,6.0071,0.6172,4.716937860607187,0,0.5
-1.1789,-152.7247,6.0045,0.6864,5.119201589012409,0,0.4
-0.7757,-152.3939,5.9668,0.7336,5.527551611489868,0,0.3
-0.3523,-152.0699,6.0201,0.7313,5.638576985138804,0,0.3
0.0274,-151.7344,5.943,0.7216,5.816986803020096,0,0.2
0.4523,-151.4398,5.9316,0.7062,5.948672335407722,0,0.2
0.8486,-151.1319,5.9175,0.68,5.938564837920819,0,0.2
1.3251,-150.7722,5.9168,0.6585,5.5894717708502455,0,0.3
1.7582,-150.5092,5.9384,0.6479,5.2215063453018375,0,0.4
2.1912,-150.1702,6.0157,0.6567,4.8339427525064655,0,0.4
2.6663,-149.8867,5.9514,0.6818,4.515135472900897,0,0.5
3.0773,-149.5974,5.8783,0.7121,4.197781388323467,0,0.6
3.5576,-149.2204,5.9144,0.7461,4.133844270483682,0,0.6
3.9044,-148.8476,5.8077,0.7739,4.233418296032446,0,0.6
4.3029,-148.4799,5.7956,0.8181,4.053329903226648,0,0.6
4.7219,-148.063,5.7337,0.8633,3.8179590561124144,0,0.6
5.0707,-147.6794,5.7679,0.909,3.961307711054485,0,0.6
5.4124,-147.2896,5.6912,0.9552,3.9899900128953183,0,0.6
5.7573,-146.8649,5.6089,0.993,3.671109117237797,0,0.7
6.0269,-146.4425,5.7544,1.0283,3.5295510804463355,0,0.7
6.2986,-145.9797,5.715,1.0614,3.695958517710827,0,0.7
6.5979,-145.5398,5.6386,1.097,3.5333018937263763,0,0.7
6.8984,-145.0675,5.7556,1.1373,3.293392370974397,0,0.7
7.0991,-144.5795,5.6262,1.1666,3.2757505609483424,0,0.7
7.3205,-144.0968,5.5992,1.205,3.4026721048297777,0,0.7
7.5345,-143.5633,5.6385,1.2512,3.2455728938214845,0,0.8
7.7335,-143.0888,5.5656,1.2929,3.318685934856665,0,0.7
7.8839,-142.5585,5.5723,1.3535,3.6120288767642093,0,0.7
7.9951,-142.0619,5.5416,1.4225,4.055203273020875,0,0.6
8.0891,-141.5571,5.511,1.486,4.48205543527528,0,0.5
8.1362,-141.0544,5.4668,1.5357,4.831615425821203,0,0.4
8.1871,-140.5396,5.4424,1.5653,5.079598728633032,0,0.4
8.1939,-139.9734,5.3727,1.5899,5.071953982717212,0,0.4
8.2037,-139.4235,5.3623,1.6144,5.097972158139505,0,0.4
8.196,-138.8735,5.3258,1.6413,4.744648305944887,0,0.5
8.175,-138.3273,5.3073,1.6671,4.317909979635902,0,0.5
8.1507,-137.7963,5.33,1.7095,4.0392724205571975,0,0.6
8.072000000000001,-137.2293,5.2517,1.7575,4.001642988242262,0,0.6
8.0278,-136.7138,5.2511,1.8308,3.9054978525585153,0,0.6
7.8858,-136.2076,5.2718,1.9119,3.845479053472869,0,0.6
7.6972,-135.6835,5.2011,1.9732,4.09881950866137,0,0.6
7.4905,-135.1714,5.2147,2.0199,4.0296746398410015,0,0.6
7.2829999999999995,-134.7029,5.1799,2.0482,4.048907477073945,0,0.6
7.0551,-134.2252,5.127000000000001,2.0757,3.830077904837882,0,0.6
6.7541,-133.7758,5.0499,2.1052,3.8702371700704354,0,0.6
6.4874,-133.315,5.0038,2.141,3.6911152393916637,0,0.7
6.247999999999999,-132.8157,4.9631,2.177,3.6321382030005918,0,0.7
5.9389,-132.338,5.0747,2.2163,3.572236417048943,0,0.7
5.6169,-131.8712,5.081,2.2604,3.637539380051277,0,0.7
5.2517,-131.4261,4.9282,2.3101,3.5086978148643606,0,0.7
4.915,-131.0475,4.9571,2.367,3.7136839262851886,0,0.7
4.5508,-130.7034,4.9695,2.4381,4.087115729859076,0,0.6
4.176,-130.3358,4.9481,2.5074,4.215165562534999,0,0.6
3.7523,-130.0226,4.9086,2.5677,4.24987511410287,0,0.6
3.3105,-129.7516,4.8908,2.6139,4.41822988320974,0,0.5
2.8737,-129.4612,4.9214,2.6528,4.454260475193394,0,0.5
2.407,-129.1793,4.8831,2.6849,4.102211656572641,0,0.6
1.9376,-128.9044,4.9063,2.7149,3.7039370895329613,0,0.7
1.4275,-128.7054,4.8892,2.7523,3.668903363350658,0,0.7
0.9049,-128.4978,4.8857,2.8065,3.77710184642946,0,0.6
0.4355,-128.2861,4.9917,2.8774,3.7349602175998213,0,0.7
-0.0885,-128.1566,4.9775,2.9508,3.541430501924621,0,0.7
-0.6379,-128.0679,4.9657,3.0269,3.501004220903802,0,0.7
-1.1993,-128.0004,4.9687,3.0865,3.28644892500309,0,0.7
-1.7080000000000002,-127.945,4.9758,3.1356,3.4437284782534023,0,0.7
-2.2669,-127.9157,4.9304,-3.1055,3.0033338868126354,0,0.8
-2.8256,-127.943,4.9795,-3.0999,3.1947584253136796,0,0.8
-3.3873,-127.949,5.0124,-3.1037,3.578246801775232,0,0.7
-3.9259,-127.9405,5.0078,-3.0963,3.86436957177059,0,0.6
-4.4525,-127.9444,5.0156,-3.0722,3.410390946654994,0,0.7
-4.9532,-127.9653,5.0616,-3.0384,3.665565524422333,0,0.7
-5.4579,-128.0277,5.0579,-3.0004,3.5977831172337593,0,0.7
-5.9867,-128.056,5.0668,-2.958,3.1400812796219233,0,0.8
-6.5163,-128.1422,5.0524,-2.9121,2.804444502902423,0,0.8
-7.0318,-128.2521,5.0401,-2.8739,2.7611940802390347,0,0.8
-7.5257,-128.3871,5.0517,-2.9234,2.587225211258821,0,0.9
-8.0383,-128.4034,5.1114,-3.0612,2.536012192087794,0,0.9
-8.5431,-128.3405,5.0722,2.9875,2.7241213013078784,0,0.9
-9.0494,-128.1858,5.0398,2.6874,2.888660601282548,0,0.8
-9.4756,-127.9166,5.0865,2.475,3.0547750786623835,0,0.8
-9.8079,-127.521,5.1023,2.2689,3.449571227100175,0,0.7
-10.0513,-127.0591,5.0167,2.0111,3.964310805445853,0,0.6
-10.2181,-126.5263,5.0394,1.7686,4.382108508305163,0,0.5
-10.2488,-126.0036,5.0475,1.645,4.82386877227108,0,0.4
-10.2611,-125.4766,5.0048,1.5919,5.069360298052982,0,0.4
-10.2446,-124.9583,4.9664,1.5788,4.896271260693478,0,0.4
-10.2505,-124.3911,4.9256,1.5872,4.5307606925145025,0,0.5
-10.2432,-123.8503,4.8956,1.5997,4.084203967835673,0,0.6
-10.2526,-123.2995,4.8779,1.6131,3.7013070689539145,0,0.7
-10.2361,-122.7755,4.9069,1.6161,3.6329965247848532,0,0.7
-10.208,-122.227,4.8442,1.6203,3.6096538465071255,0,0.7
-10.2171,-121.67399999999999,4.8256,1.6245,3.7269195815911518,0,0.7
-10.2533,-121.1217,4.8139,1.6247,4.025168667432775,0,0.6
-10.2238,-120.5478,4.7579,1.6342,4.306471341413382,0,0.5
-10.2528,-120.04,4.7447,1.6527,4.42216742293461,0,0.5
-10.2738,-119.4713,4.7007,1.6658,4.631996435828886,0,0.5
-10.2782,-118.9677,4.7162,1.6724,4.730323552382402,0,0.5
-10.3201,-118.4414,4.6924,1.6639,4.59869532060685,0,0.5
-10.3354,-117.9301,4.6925,1.6761,4.5758042985407235,0,0.5
-10.3865,-117.405,4.6619,1.6846,4.580133409152819,0,0.5
-10.4287,-116.8338,4.6364,1.6669999999999998,4.719673680109013,0,0.5
-10.4586,-116.2547,4.5919,1.6426,4.877272409966425,0,0.4
-10.4281,-115.7365,4.5296,1.6196,5.1218456497581215,0,0.4
-10.4294,-115.2155,4.5299,1.6022,5.1324434523656395,0,0.4
-10.4142,-114.65899999999999,4.5284,1.5944,5.156746955035061,0,0.4
-10.4227,-114.1584,4.4931,1.5884,5.036360398657912,0,0.4
-10.4147,-113.6445,4.4868,1.5887,4.914558756912625,0,0.4
-10.3955,-113.0894,4.4741,1.5876,4.928951032593134,0,0.4
-10.3439,-112.5812,4.4591,1.5892,4.874325368937358,0,0.4
-10.3522,-112.059,4.4419,1.5892,4.706275527977317,0,0.5
-10.3324,-111.4773,4.4243,1.5942,4.773930780779039,0,0.4
-10.3205,-110.9535,4.3869,1.6036,4.813313355896087,0,0.4
-10.3091,-110.4064,4.3468,1.6206,4.7258369663876145,0,0.5
-10.3198,-109.9003,4.3728,1.6345,4.721173950574166,0,0.5
-10.3329,-109.369,4.3122,1.6347,4.793388010293564,0,0.4
-10.3433,-108.8251,4.3405,1.6372,4.658851669978388,0,0.5
-10.3549,-108.2955,4.2963,1.6375,4.529379255828907,0,0.5
-10.3648,-107.7073,4.2526,1.6418,4.562007413159338,0,0.5
-10.3783,-107.1325,4.2393,1.6508,4.796037739853602,0,0.4
-10.3833,-106.6046,4.2,1.6556,4.8489868575961586,0,0.4
-10.4051,-106.0637,4.1778,1.6651,4.91303269047998,0,0.4
-10.4484,-105.4994,4.1719,1.6855,5.07153353126927,0,0.4
-10.5002,-104.9802,4.1383,1.7092,5.0726383315624,0,0.4
-10.5472,-104.4263,4.1015,1.7507,4.849571315488438,0,0.4
-10.6338,-103.9236,4.101,1.7853,4.683859543304883,0,0.5
-10.7258,-103.4316,4.0731,1.8279,4.626098736082279,0,0.5
-10.8565,-102.8926,4.0486,1.8993,4.5959769381714155,0,0.5
-11.022,-102.3549,4.06,1.9953,4.633110274671583,0,0.5
-11.2319,-101.8721,4.0327,2.1101,4.738037147804428,0,0.5
-11.5401,-101.4132,3.9803,2.2271,4.794949903093756,0,0.4
-11.8433,-101.0119,3.9994,2.3412,4.767865399065011,0,0.4
-12.2149,-100.6365,4.0137,2.4249,4.711124916139362,0,0.5
-12.6,-100.2978,3.9965,2.5006,4.774978963462838,0,0.4
-13.0538,-99.9525,3.9804,2.6183,5.062290391481312,0,0.4
-13.4975,-99.7065,3.9833,2.7096,5.243536807185242,0,0.4
-13.969000000000001,-99.4877,3.9501,2.7918,5.34625930117738,0,0.3
-14.5038,-99.2786,3.9539,2.8282,5.264983018212263,0,0.3
-14.982999999999999,-99.0995,3.9434,2.8159,4.9876250386524354,0,0.4
-15.487,-98.9041,3.9304,2.7602,4.468102005323345,0,0.5
-15.9874,-98.6415,3.9646,2.6689999999999996,4.1993981034878916,0,0.6
-16.4479,-98.3315,3.8998,2.5441,3.9648338341451446,0,0.6
-16.8994,-97.9286,3.9062,2.3913,3.6971835609285764,0,0.7
-17.215999999999998,-97.5237,3.8764,2.2374,3.529648345310142,0,0.7
-17.4798,-97.0987,3.8608,2.0825,3.7307785264837023,0,0.7
-17.7026,-96.6261,3.8626,1.9328,3.945320898312661,0,0.6
-17.8741,-96.1043,3.853,1.7590000000000001,4.348376252948968,0,0.5
-17.9046,-95.5618,3.8338,1.6523,4.825076014408433,0,0.4
-17.8878,-94.9896,3.8088,1.6186,5.321729566578131,0,0.3
-17.8878,-94.4138,3.8015,1.6108,5.467906516238127,0,0.3
-17.9034,-93.9011,3.7726,1.6174,5.695028253894187,0,0.3
-17.8887,-93.3212,3.7251,1.6298,5.764256567566571,0,0.2
-17.8708,-92.7168,3.7002,1.6407,5.728576938524162,0,0.3
-17.8942,-92.2024,3.69,1.6484,5.731231036527314,0,0.3
-17.9125,-91.6377,3.6683,1.6519,5.732471423071112,0,0.3
-17.9415,-91.1223,3.6711,1.6481,5.611361765854629,0,0.3
-17.9572,-90.5357,3.6452,1.6447,5.509301360565802,0,0.3
-17.9652,-89.9426,3.5901,1.6422,5.529757698428535,0,0.3
-17.9833,-89.4346,3.5351,1.6407,5.509264464653407,0,0.3
-17.9898,-88.8574,3.5369,1.6395,5.338534869290363,0,0.3
-18.0161,-88.2574,3.5538,1.6374,5.375452894400365,0,0.3
-18.0314,-87.6917,3.5298,1.6361,5.162071107752093,0,0.4
-18.0359,-87.1788,3.5007,1.6351,5.226727443032255,0,0.4
-18.0316,-86.5708,3.4564,1.633,5.140463872973832,0,0.4
-18.0881,-86.0027,3.4877,1.6315,5.280463739531882,0,0.3
-18.088,-85.4262,3.4678,1.6315,5.210199759448477,0,0.4
-18.0819,-84.8969,3.4323,1.632,5.423203913329202,0,0.3
-18.0804,-84.3402,3.4389999999999996,1.632,5.473729676865052,0,0.3
-18.0947,-83.8235,3.3805,1.6321,5.569334134631116,0,0.3
-18.0918,-83.3073,3.3452,1.6334,5.601597129749138,0,0.3
-18.1133,-82.7357,3.3428,1.6286,5.638092321574771,0,0.3
-18.1196,-82.1422,3.3226,1.6252,5.726258105139606,0,0.3
-18.1378,-81.5669,3.3137,1.6221,5.7015327447134485,0,0.3
-18.1167,-81.017,3.2683,1.6229,5.734892782164094,0,0.3
-18.1043,-80.4388,3.2329,1.6231,5.721278089335132,0,0.3
-18.1171,-79.9334,3.2327,1.6223,5.630338958978033,0,0.3
-18.1178,-79.4311,3.2260000000000004,1.6228,5.489546782028215,0,0.3
-18.1201,-78.8422,3.2158,1.6218,5.298651933116865,0,0.3
-18.114,-78.2491,3.1693,1.6212,5.234547476089201,0,0.4
-18.1135,-77.7427,3.1469,1.6279,5.11814126619643,0,0.4
-18.1219,-77.1739,3.1344,1.6368,5.100852041594559,0,0.4
-18.1108,-76.5892,3.0836,1.6446,5.009724832676205,0,0.4
-18.1528,-75.9995,3.085,1.6463,5.067284060678456,0,0.4
-18.1564,-75.4901,3.0655,1.6424,5.1335885580867515,0,0.4
-18.1611,-74.8949,3.0274,1.6348,5.240456466926769,0,0.4
-18.1962,-74.3046,3.0217,1.6276,5.198741367027042,0,0.4
-18.1961,-73.7995,3.0087,1.6245,5.231825913895944,0,0.4
-18.206,-73.294,2.9811,1.6206,5.241929052936622,0,0.4
-18.2029,-72.7167,2.9708,1.617,5.148135332705499,0,0.4
-18.2074,-72.2166,2.9162,1.6147,4.950714993840543,0,0.4
-18.18,-71.6965,2.9201,1.6148,4.824823981706826,0,0.4
-18.1966,-71.1437,2.895,1.6137,4.803557336863799,0,0.4
-18.1717,-70.5373,2.8384,1.6152,4.926534072123147,0,0.4
-18.175,-69.9539,2.8282,1.6169,4.941972967958338,0,0.4
-18.2053,-69.3675,2.8439,1.6207,5.172174837903775,0,0.4
-18.2008,-68.7747,2.8244,1.6227,5.222676668716793,0,0.4
-18.2033,-68.2732,2.7865,1.6248,5.008349643108277,0,0.4
-18.2026,-67.7462,2.7781,1.6276,4.903509349971863,0,0.4
-18.227999999999998,-67.2057,2.7706,1.629,4.628386784257414,0,0.5
-18.2225,-66.6045,2.7437,1.6321,4.434906032154222,0,0.5
-18.1986,-66.0959,2.7229,1.6397,4.6925904494299795,0,0.5
-18.2809,-65.5144,2.7015,1.6362,4.971763637279715,0,0.4
-18.258,-64.9409,2.6698,1.6328,4.995732014995921,0,0.4
-18.2573,-64.4316,2.6518,1.6303,5.375327618179464,0,0.3
-18.2735,-63.9259,2.6457,1.6279,5.493807769056419,0,0.3
-18.2685,-63.336000000000006,2.6258,1.6256,5.525312159661597,0,0.3
-18.2536,-62.7534,2.6065,1.6254,5.452046015601848,0,0.3
-18.2782,-62.1665,2.5859,1.6257,5.292049846336954,0,0.3
-18.2739,-61.5698,2.5545,1.6297,5.085315224825917,0,0.4
-18.2693,-60.9918,2.5102,1.6377,5.162088108983697,0,0.4
-18.2662,-60.4753,2.4783,1.6447,5.033951467057675,0,0.4
-18.2973,-59.9654,2.4861,1.6489,5.088947578308083,0,0.4
-18.3371,-59.4049,2.4687,1.6474,5.288995212338041,0,0.3
-18.3374,-58.8383,2.437,1.6368,5.4858750202838085,0,0.3
-18.3861,-58.2123,2.4316,1.6271,5.556911910103512,0,0.3
-18.3532,-57.6489,2.3937,1.6243,5.611862107970494,0,0.3
-18.348,-57.1055,2.3869,1.6298,5.735356669859415,0,0.3
-18.3457,-56.5807,2.3245,1.6321,5.719584536413928,0,0.3
-18.3661,-56.0018,2.3193,1.6326,5.611413558738317,0,0.3
-18.3697,-55.4816,2.309,1.6305,5.303275221006339,0,0.3
-18.3709,-54.9621,2.2759,1.6208,5.213236932325769,0,0.4
-18.3722,-54.3966,2.2554,1.6112,5.176555730694973,0,0.4
-18.3779,-53.82899999999999,2.2772,1.6008,5.108565713727222,0,0.4
-18.3892,-53.2847,2.2468,1.5931,5.158006199384936,0,0.4
-18.3503,-52.7321,2.2316,1.5944,5.426290916406849,0,0.3
-18.3373,-52.1821,2.1963,1.6018,5.477587498984111,0,0.3
-18.3093,-51.6311,2.1818,1.6121,5.482367554188988,0,0.3
-18.3276,-51.0907,2.1526,1.6206,5.553271819860037,0,0.3
-18.3221,-50.5302,2.1289,1.6281,5.458888088322741,0,0.3
-18.3306,-49.9617,2.1356,1.6337,5.358568953537496,0,0.3
-18.3487,-49.4007,2.1016,1.6377,5.338214259616057,0,0.3
-18.3478,-48.8259,2.0607,1.6395,5.280990830146942,0,0.3
-18.3672,-48.2829,2.0651,1.6386,5.358909839983683,0,0.3
-18.3832,-47.7102,2.0516,1.6352,5.573259908956209,0,0.3
-18.404,-47.1519,2.0282,1.6317,5.764734929593602,0,0.2
-18.4106,-46.5874,2.0097,1.6287,5.919708913158826,0,0.2
-18.4131,-46.0035,2.0068,1.6262,6.068748072509697,0,0.2
-18.4217,-45.4435,2.0073,1.6244,6.049112528787534,0,0.2
-18.4283,-44.8917,1.9845,1.6254,5.869929908128189,0,0.2
-18.4329,-44.3071,1.9528,1.6234,5.693127964318201,0,0.3
-18.4273,-43.7371,1.933,1.6189,5.510838165433036,0,0.3
-18.4369,-43.2034,1.9281,1.6148,5.435133929578944,0,0.3
-18.4251,-42.6442,1.9065,1.6133,5.443725842189497,0,0.3
-18.4121,-42.0696,1.8894,1.6122,5.4859214123973254,0,0.3
-18.407,-41.526,1.8707,1.6122,5.639717728902047,0,0.3
-18.4104,-40.982,1.8342,1.6134,5.8686299204910926,0,0.2
-18.4048,-40.4143,1.8122,1.6171,5.990538323501385,0,0.2
-18.4079,-39.863,1.8056,1.6268,5.991599648914578,0,0.2
-18.4286,-39.3199,1.7971,1.6361,6.032887803758263,0,0.2
-18.4287,-38.7811,1.7973,1.6418,5.791721988217352,0,0.2
-18.4435,-38.2083,1.7672,1.6426,5.647972145192083,0,0.3
-18.4476,-37.6744,1.7747,1.6419,5.487141034497245,0,0.3
-18.4729,-37.1022,1.7371,1.6408,5.41081450701938,0,0.3
-18.4924,-36.543,1.7024,1.6377,5.446457527220719,0,0.3
-18.4835,-35.9772,1.6976,1.6343,5.635836415481856,0,0.3
-18.5076,-35.4076,1.6664,1.6293,5.730574503741391,0,0.3
-18.5057,-34.8817,1.6588,1.6263,5.813037640363287,0,0.2
-18.52,-34.3141,1.6549,1.6252,5.900389669065378,0,0.2
-18.5252,-33.7614,1.6597,1.6245,5.922731578920748,0,0.2
-18.5298,-33.2111,1.6229,1.6236,5.925773434898151,0,0.2
-18.5465,-32.6557,1.6227,1.6229,5.814192760022533,0,0.2
-18.5263,-32.0809,1.5977,1.6218,5.67022057107008,0,0.3
-18.5269,-31.5297,1.5879,1.6191,5.598292646421694,0,0.3
-18.5195,-30.9918,1.5759999999999998,1.6138,5.541649921483722,0,0.3
-18.5245,-30.4148,1.5835,1.6112,5.451223616041003,0,0.3
-18.5316,-29.8608,1.5212,1.6113,5.47713016652727,0,0.3
-18.5155,-29.3132,1.506,1.6136,5.5800845253197,0,0.3
-18.5275,-28.7639,1.4922,1.6169,5.699917545460462,0,0.3
-18.5002,-28.1969,1.4542,1.6216,5.831319874294658,0,0.2
-18.4896,-27.6353,1.44,1.6265,5.897376939296086,0,0.2
-18.49,-27.0811,1.4201,1.6311,5.912948119624016,0,0.2
-18.5085,-26.5275,1.4298,1.6342,5.751434219251976,0,0.2
-18.5197,-26.0135,1.4057,1.6358,5.463116174295662,0,0.3
-18.5381,-25.5026,1.3913,1.6376,5.071584845615825,0,0.4
-18.5386,-24.9745,1.4061,1.6338,4.76636335507324,0,0.4
-18.5479,-24.4334,1.3682,1.6493,4.765434093790752,0,0.4
-18.5801,-23.9,1.3802,1.6395,4.906106128902051,0,0.4
-18.6197,-23.3416,1.3479,1.6216,5.059254762098237,0,0.4
-18.6053,-22.7811,1.3377,1.6142,5.361942539945207,0,0.3
-18.5905,-22.22,1.3271,1.6103,5.540747598060193,0,0.3
-18.5775,-21.6624,1.2836,1.61,5.324266568700664,0,0.3
-18.5727,-21.1419,1.291,1.6196,5.317733290337859,0,0.3
-18.5748,-20.5729,1.2712,1.6346,4.94535549464813,0,0.4
-18.5643,-20.0635,1.2723,1.6486,4.74537135535807,0,0.5
-18.6001,-19.4759,1.2644,1.6633,4.754247700776614,0,0.4
-18.6445,-18.9727,1.2549,1.6668,5.0533688790273,0,0.4
-18.6865,-18.4491,1.2238,1.6647,5.020387453657771,0,0.4
-18.6626,-17.874000000000002,1.1819,1.666,5.427597940103746,0,0.3
-18.6806,-17.3061,1.1589,1.6673,5.306837775702529,0,0.3
-18.6915,-16.7362,1.1465,1.6708,5.3388866019708106,0,0.3
-18.7174,-16.1722,1.0608,1.6727,5.181292414796938,0,0.4
-18.7675,-15.6743,1.0355,1.6734,5.248119980801798,0,0.4
-18.8087,-15.1056,1.0155,1.6702,5.248381407738513,0,0.4
-18.8014,-14.5166,1.0119,1.6616,5.3898898949700005,0,0.3
-18.8311,-13.97,1.0122,1.6515,5.046539240282337,0,0.4
-18.8456,-13.4617,1.0147,1.6462,4.95031319920755,0,0.4
-18.8687,-12.9002,1.0919,1.6411,4.832499077210846,0,0.4
-18.8794,-12.37,1.1063,1.6375,4.676006332577594,0,0.5
-18.8819,-11.8248,1.0747,1.6363,4.599254732953504,0,0.5
-18.9189,-11.2633,1.0625,1.6369,4.944838931260133,0,0.4
-18.9047,-10.7579,1.064,1.6428,5.032418206674251,0,0.4
-18.9673,-10.2193,1.0775,1.6468,5.117107450431172,0,0.4
-18.9883,-9.6572,1.06,1.6380000000000001,4.981786735942107,0,0.4
-18.996,-9.1075,1.0778,1.6203,4.74499173102416,0,0.5
-19.0002,-8.5833,1.0269,1.6052,4.223402032135089,0,0.6
-18.9845,-8.0571,1.0305,1.5927,4.036393254156872,0,0.6
-18.9964,-7.5319,1.0318,1.5814,3.7955480130169157,0,0.6
-18.9301,-6.9945,1.0001,1.5763,4.053579899080701,0,0.6
-18.8952,-6.4678,1.006,1.5811,4.200874937867255,0,0.6
-18.9015,-5.954,0.9876,1.6005,4.761933187219204,0,0.4
-18.8668,-5.447,0.9761,1.6191,4.814169737418506,0,0.4
-18.9115,-4.9135,1.0241,1.6178,4.5473670111893485,0,0.5
-18.8733,-4.3793,0.9790000000000001,1.6187,3.868575079691234,0,0.6
-18.8434,-3.8263,0.9853,1.5791,3.5899697244183164,0,0.7
-18.803,-3.2697,0.9461,1.5142,3.0713495507646824,0,0.8
-18.7447,-2.7424,0.9073,1.4279,2.9276725318944736,0,0.8
-18.6515,-2.2364,0.9159,1.3172,3.0437985135298247,0,0.8
-18.4532,-1.7227,0.9065,1.2008,3.4870115875299517,0,0.7
-18.1888,-1.2531,0.9849,1.0625,3.7252692941514214,0,0.7
-17.8816,-0.8441,0.9049,0.9207,3.8814747270567334,0,0.6
-17.5446,-0.4168,0.8806,0.8184,3.877110176930457,0,0.6
-17.1508,-0.0863,0.8565,0.7951,3.9253945151546095,0,0.6
-16.7931,0.2643,0.8554,0.8419,3.8206580384045945,0,0.6
-16.4816,0.6662,0.8129,0.986,3.804495106547816,0,0.6
-16.2196,1.1233,0.8441,1.1993,3.810478851184245,0,0.6
-15.9893,1.6157,0.8276,1.4416,3.810478851184241,0,0.6
