x,y,z,yaw,velocity,change_flag,look_ahead
-16.8781,2.5036,0.8476,-1.6524,3.839759447345343,0,0.7
-16.9505,2.0019,0.8636,-1.6994,3.9003076871467433,0,0.7
-16.9748,1.4978,0.7899,-1.7977,4.084119792242813,0,0.6
-17.1171,1.0121,0.8071,-1.9321,4.085815369108432,0,0.6
-17.317,0.5274,0.7825,-2.0763,4.136371601690117,0,0.6
-17.5693,0.0733,0.8157,-2.1273,4.083009985997789,0,0.6
-17.8459,-0.3699,0.8158,-2.1222,4.003375231259148,0,0.7
-18.1157,-0.8157,0.8586,-2.0563,3.6850879032556016,0,0.8
-18.3249,-1.2823,0.8251,-1.9736,3.5405812493730897,0,0.8
-18.5206,-1.7957,0.8406,-1.8677,3.645370991095711,0,0.8
-18.6269,-2.291,0.8793,-1.7547,3.941340585291006,0,0.7
-18.7274,-2.8169999999999997,0.925,-1.6483,4.143074432832567,0,0.6
-18.7534,-3.3435,0.9074,-1.6265,4.356994671282301,0,0.5
-18.7832,-3.85,0.9097,-1.6163,4.611595589112966,0,0.5
-18.7669,-4.4009,0.8968,-1.6079,4.606306784528246,0,0.5
-18.8026,-4.9030000000000005,0.9137,-1.6033,4.334138538430769,0,0.6
-18.8173,-5.4168,0.8993,-1.5997,4.210709262409166,0,0.6
-18.8003,-5.9316,0.9201,-1.5927,4.35620129403693,0,0.5
-18.8303,-6.4421,0.9334,-1.5771,4.417669716566884,0,0.5
-18.8106,-6.9691,0.9265,-1.5669,4.4962836805958855,0,0.5
-18.804000000000002,-7.4718,0.9281,-1.5593,4.722942224719713,0,0.4
-18.7646,-7.984,0.9022,-1.5562,4.849087853738797,0,0.4
-18.7582,-8.5108,0.9478,-1.5581,4.833209360616757,0,0.4
-18.7335,-9.0151,0.9161,-1.5619999999999998,4.7793815856391495,0,0.4
-18.762999999999998,-9.5214,0.9476,-1.5632,4.753916590815983,0,0.4
-18.7148,-10.0299,0.9742,-1.5645,4.593249230697468,0,0.5
-18.7313,-10.557,0.9957,-1.5671,4.581114770400402,0,0.5
-18.6921,-11.0584,1.0127,-1.5729,4.619019865733128,0,0.5
-18.6724,-11.5674,1.0307,-1.5771,4.735271459988644,0,0.4
-18.6698,-12.1024,1.0389,-1.579,4.810968188288719,0,0.4
-18.6704,-12.627,1.0585,-1.5821,5.037973237657068,0,0.3
-18.6689,-13.1491,1.0743,-1.5889,5.044915312265257,0,0.3
-18.6672,-13.7036,1.0939,-1.5946,5.03864024787538,0,0.3
-18.6674,-14.2091,1.1035,-1.5977,5.059269186604506,0,0.3
-18.6886,-14.7488,1.1384,-1.5909,5.206056279391081,0,0.3
-18.6968,-15.2702,1.1403,-1.5826,5.12840585148656,0,0.3
-18.6836,-15.7899,1.1528,-1.5746,5.184235033972028,0,0.3
-18.676,-16.3452,1.1706,-1.5692,4.982262121067709,0,0.3
-18.6481,-16.8804,1.1833,-1.5642,4.7393450631898055,0,0.4
-18.6391,-17.3954,1.1887,-1.5624,4.580909670831025,0,0.5
-18.6629,-17.9238,1.2364,-1.5673,4.6515010964203825,0,0.4
-18.6273,-18.4548,1.2423,-1.5716,4.608113431263493,0,0.5
-18.6101,-18.9711,1.2535,-1.5735,4.859438888474854,0,0.4
-18.6322,-19.5167,1.2578,-1.5774,4.959665865267562,0,0.3
-18.6364,-20.022000000000002,1.2782,-1.5814,5.035895701907941,0,0.3
-18.646,-20.5309,1.3106,-1.5828,5.031346456387496,0,0.3
-18.6078,-21.0575,1.2968,-1.5831,5.033051914997452,0,0.3
-18.6127,-21.5801,1.3419999999999999,-1.5862,4.957480828086949,0,0.3
-18.6204,-22.1022,1.3556,-1.5876,4.930761305065477,0,0.4
-18.6216,-22.6325,1.3689,-1.5845,4.889787250082465,0,0.4
-18.6227,-23.1701,1.3752,-1.5799,4.812226552569768,0,0.4
-18.5989,-23.7355,1.3961,-1.5764,4.819750677019343,0,0.4
-18.595,-24.2524,1.4057,-1.578,4.904619946469261,0,0.4
-18.6057,-24.7689,1.4511,-1.5801,5.071631025721199,0,0.3
-18.5945,-25.2959,1.462,-1.5813,5.206260177507045,0,0.3
-18.5692,-25.8232,1.4593,-1.5839,5.304020910038901,0,0.2
-18.6016,-26.3658,1.4725,-1.5830000000000002,5.420395263897072,0,0.2
-18.5864,-26.9305,1.4754,-1.5829,5.3395766561501805,0,0.2
-18.5958,-27.4629,1.4751,-1.5816,5.323853403022156,0,0.2
-18.5825,-27.9993,1.4923,-1.5813,5.165810234726932,0,0.3
-18.5688,-28.5341,1.5293,-1.5815,5.061346904441226,0,0.3
-18.5647,-29.0738,1.5579,-1.5811,5.062599921249074,0,0.3
-18.5765,-29.6255,1.5718,-1.5804,5.105950289447413,0,0.3
-18.5735,-30.1674,1.5647,-1.5867,5.036096035799174,0,0.3
-18.6002,-30.6794,1.5848,-1.5952,5.070564913519257,0,0.3
-18.5624,-31.1957,1.6149,-1.5917,5.188025994056374,0,0.3
-18.5883,-31.7319,1.6354,-1.5899,5.111843643086075,0,0.3
-18.5683,-32.236999999999995,1.6496,-1.5915,5.122215755724419,0,0.3
-18.5497,-32.7794,1.6689,-1.5930000000000002,5.20497562135343,0,0.3
-18.566,-33.3278,1.6711,-1.5854,5.157583038776471,0,0.3
-18.5739,-33.8825,1.6806,-1.5788,5.124389646029337,0,0.3
-18.5506,-34.412,1.7073,-1.5737,5.0968602823769045,0,0.3
-18.545,-34.9203,1.7126,-1.5703,5.069059389434286,0,0.3
-18.5175,-35.4801,1.7454,-1.5673,5.075819466959638,0,0.3
-18.5322,-36.0128,1.7526,-1.5657,5.1525281756098416,0,0.3
-18.5039,-36.5142,1.7645,-1.5649,5.2006907545728245,0,0.3
-18.4979,-37.0688,1.8058,-1.5643,5.265777896658001,0,0.2
-18.4798,-37.59,1.8308,-1.5661,5.320241075114897,0,0.2
-18.4705,-38.1042,1.8327,-1.568,5.266328087851668,0,0.2
-18.4369,-38.6268,1.8646,-1.5689,5.253808884596706,0,0.2
-18.4421,-39.1657,1.8934,-1.5696,5.090877897128498,0,0.3
-18.4378,-39.6894,1.9209,-1.5716,5.042337063064479,0,0.3
-18.43,-40.2165,1.9148,-1.5753,4.895132128868687,0,0.4
-18.4005,-40.7561,1.9582,-1.58,4.854489483207652,0,0.4
-18.4041,-41.2565,1.9745,-1.5832,4.828157411973112,0,0.4
-18.42,-41.7891,1.9773,-1.5854,4.999861847981422,0,0.3
-18.4122,-42.3006,2.0066,-1.5874,5.0660576926098075,0,0.3
-18.4007,-42.806999999999995,2.0234,-1.5861,5.216090519131197,0,0.3
-18.4095,-43.3103,2.0481,-1.5827,5.373257897357453,0,0.2
-18.3809,-43.8702,2.0553,-1.5808,5.463418289996358,0,0.2
-18.3944,-44.3854,2.089,-1.5772,5.386631966377589,0,0.2
-18.3852,-44.952,2.0819,-1.5759999999999998,5.32812721946783,0,0.2
-18.3814,-45.4672,2.093,-1.5749,5.1624700430068025,0,0.3
-18.374000000000002,-45.9741,2.1019,-1.5756,5.021456537244673,0,0.3
-18.3685,-46.4948,2.1314,-1.5776,4.923112187049853,0,0.4
-18.3393,-46.9941,2.1439,-1.584,4.893213940122043,0,0.4
-18.3512,-47.5273,2.1479,-1.5877,4.922269616699646,0,0.4
-18.3533,-48.0461,2.1375,-1.5882,5.066571698882895,0,0.3
-18.3613,-48.5648,2.1859,-1.5899,5.108937266000421,0,0.3
-18.365,-49.1424,2.2023,-1.595,5.161175790456426,0,0.3
-18.3588,-49.6859,2.2221,-1.5929,5.254373138497845,0,0.2
-18.3693,-50.2486,2.2435,-1.5898,5.230131752389401,0,0.3
-18.3607,-50.8044,2.2709,-1.5884,5.1488572791969425,0,0.3
-18.3594,-51.318000000000005,2.2796,-1.5858,5.116267005241822,0,0.3
-18.3616,-51.865,2.2998,-1.5765,5.034524722384598,0,0.3
-18.3643,-52.3941,2.3196,-1.5649,4.92582807157672,0,0.4
-18.3469,-52.9025,2.3601,-1.5567,4.878522712906289,0,0.4
-18.3283,-53.4123,2.373,-1.555,4.941167695313408,0,0.4
-18.2997,-53.9719,2.3852,-1.5524,4.959030797865707,0,0.3
-18.2941,-54.531000000000006,2.412,-1.5578,5.045204169218584,0,0.3
-18.2862,-55.1174,2.4328,-1.5652,5.222189496923869,0,0.3
-18.2536,-55.6307,2.4575,-1.5665,5.393868031775166,0,0.2
-18.2554,-56.151,2.4591,-1.5669,5.454898714736585,0,0.2
-18.244,-56.6883,2.4877,-1.5693,5.510732568475591,0,0.2
-18.2287,-57.2175,2.5119,-1.5697,5.430924825056842,0,0.2
-18.2193,-57.7882,2.5141,-1.5734,5.234341655211393,0,0.3
-18.206,-58.3473,2.5369,-1.5772,5.022415676891326,0,0.3
-18.192999999999998,-58.9078,2.5642,-1.5804,4.916659405310932,0,0.4
-18.1845,-59.4346,2.5857,-1.5832,4.796205589725719,0,0.4
-18.1944,-59.9612,2.5897,-1.588,4.869192616840062,0,0.4
-18.2164,-60.5137,2.6404,-1.5894,5.031439468946967,0,0.3
-18.1857,-61.0417,2.6701,-1.5923,5.17916207862959,0,0.3
-18.1889,-61.5742,2.6634,-1.5896,5.25790977144547,0,0.2
-18.1954,-62.0995,2.6918,-1.5885,5.361204585897571,0,0.2
-18.2093,-62.6384,2.7268,-1.5894,5.3497110709853,0,0.2
-18.2148,-63.1986,2.7736,-1.5902,5.276914911094483,0,0.2
-18.2147,-63.7811,2.7406,-1.5917,5.230290054463629,0,0.3
-18.214000000000002,-64.3518,2.7702,-1.5914,5.142773313970673,0,0.3
-18.2099,-64.8719,2.7960000000000003,-1.5901,5.1147354817282995,0,0.3
-18.2133,-65.4548,2.8176,-1.5892,5.115058329519146,0,0.3
-18.2105,-66.0184,2.8434,-1.5885,5.151500298272804,0,0.3
-18.212,-66.5633,2.8363,-1.5882,5.206321033334011,0,0.3
-18.1998,-67.1294,2.8856,-1.5893,5.194073374450678,0,0.3
-18.2007,-67.6495,2.8922,-1.5906,4.9851176914120305,0,0.3
-18.1928,-68.1524,2.9317,-1.5916,4.887816889389751,0,0.4
-18.195999999999998,-68.6766,2.9521,-1.5922,4.829553690246229,0,0.4
-18.1903,-69.2174,2.9432,-1.5912,4.745550530248719,0,0.4
-18.2146,-69.7221,3.0031,-1.5859999999999999,4.713446507484251,0,0.4
-18.1979,-70.2377,3.0223,-1.5832,4.835509680198087,0,0.4
-18.1942,-70.7969,3.0412,-1.5788,4.858802877831909,0,0.4
-18.1861,-71.3281,3.0457,-1.5747,4.793758947210898,0,0.4
-18.1726,-71.8564,3.0548,-1.5712,4.859689745308783,0,0.4
-18.1799,-72.4031,3.0838,-1.5697,4.910831035830118,0,0.4
-18.1519,-72.9227,3.1104,-1.5722,4.831660896370114,0,0.4
-18.1438,-73.4321,3.139,-1.5705,4.816718986666771,0,0.4
-18.1482,-73.9929,3.1272,-1.5752,4.8942428935644955,0,0.4
-18.1421,-74.5566,3.1482,-1.5879,4.832994148949679,0,0.4
-18.1321,-75.1242,3.1816,-1.5959,4.875888875153382,0,0.4
-18.134,-75.6608,3.1981,-1.5937,5.024329485187273,0,0.3
-18.1602,-76.2397,3.2441,-1.591,4.992251045233926,0,0.3
-18.1482,-76.8119,3.2533,-1.5901,4.909897245986844,0,0.4
-18.153,-77.3304,3.2713,-1.5887,4.97803711008293,0,0.3
-18.1412,-77.9003,3.2791,-1.5866,4.9546934393269115,0,0.3
-18.1488,-78.4685,3.3087,-1.5869,5.068854547319864,0,0.3
-18.1654,-78.9968,3.3096,-1.5862,5.216647157100601,0,0.3
-18.1397,-79.505,3.3294,-1.5837,5.40579762566791,0,0.2
-18.1501,-80.0682,3.3554,-1.5836,5.418040835670255,0,0.2
-18.1532,-80.5928,3.3725,-1.5837,5.396111119670001,0,0.2
-18.1634,-81.1047,3.3658,-1.5848,5.222021956969311,0,0.3
-18.146,-81.6723,3.3746,-1.585,5.090282297569553,0,0.3
-18.1569,-82.1751,3.4091,-1.5829,4.850834594780819,0,0.4
-18.1286,-82.7171,3.4772,-1.579,4.710136061837696,0,0.4
-18.1132,-83.2186,3.4702,-1.575,4.61582855295199,0,0.5
-18.1149,-83.7751,3.5045,-1.5701,4.709132506778483,0,0.4
-18.124000000000002,-84.2846,3.5224,-1.565,4.706122327461886,0,0.4
-18.0842,-84.8114,3.5458,-1.5619999999999998,4.838814102237059,0,0.4
-18.0631,-85.3278,3.5387,-1.5583,4.974518907552673,0,0.3
-18.0734,-85.8657,3.5734,-1.5565,5.113143214834619,0,0.3
-18.0497,-86.3754,3.5823,-1.5563,5.10933123792608,0,0.3
-18.0189,-86.9139,3.6036,-1.5567,5.206693337725286,0,0.3
-18.0098,-87.4635,3.6473,-1.5572,5.067124957272068,0,0.3
-17.9873,-87.9857,3.6623,-1.5597,5.042582563064992,0,0.3
-17.9894,-88.4965,3.6818,-1.565,4.908476531976683,0,0.4
-17.9627,-89.0007,3.6867,-1.5711,4.865721107524749,0,0.4
-17.9601,-89.5186,3.7167,-1.5742,4.933833979388558,0,0.4
-17.9861,-90.0634,3.7417,-1.5783,5.03458578919252,0,0.3
-17.9824,-90.581,3.7655,-1.5819,5.06558951792843,0,0.3
-17.9592,-91.1064,3.7723,-1.5857,5.268031054746645,0,0.2
-17.9353,-91.6196,3.7911,-1.5901,5.291399133879659,0,0.2
-17.9147,-92.1453,3.7873,-1.5951,5.135997607345465,0,0.3
-17.9382,-92.6664,3.8065,-1.6,5.0085033085306065,0,0.3
-17.9393,-93.1899,3.818,-1.6011,4.816309106359622,0,0.4
-17.9508,-93.714,3.8374,-1.5899,4.566247971770485,0,0.5
-17.9796,-94.2213,3.8678,-1.5647,4.3606074489892706,0,0.5
-17.9411,-94.7409,3.8853,-1.5135,4.244438151958324,0,0.6
-17.8868,-95.2546,3.8914,-1.4384,4.26728870129852,0,0.6
-17.7875,-95.7897,3.9222,-1.3695,4.231666758245751,0,0.6
-17.663,-96.3465,3.9614,-1.2787,4.206077609783501,0,0.6
-17.4904,-96.8601,3.9456,-1.2223,4.321841500403259,0,0.6
-17.2912,-97.3649,3.9957,-1.1566,4.470436262330649,0,0.5
-17.0679,-97.8191,3.991,-1.0544,4.458702548217223,0,0.5
-16.7706,-98.2737,4.0364,-0.9439,4.455243220997706,0,0.5
-16.4068,-98.6878,4.0378,-0.8302,4.5590379901907605,0,0.5
-16.0394,-99.1027,4.0737,-0.7006,4.6719399834033535,0,0.4
-15.617,-99.4477,4.0697,-0.5823,4.650426169646658,0,0.4
-15.1462,-99.729,4.08,-0.4938,4.656622801625621,0,0.4
-14.6221,-99.9713,4.0646,-0.4528,4.700899392512573,0,0.4
-14.1512,-100.1849,4.1059,-0.4597,4.668747574172234,0,0.4
-13.6452,-100.4334,4.1021,-0.5183,4.570014488244753,0,0.5
-13.1768,-100.6952,4.127,-0.602,4.564497067931721,0,0.5
-12.722000000000001,-101.0273,4.1115,-0.6724,4.554625583014515,0,0.5
-12.2953,-101.3816,4.1263,-0.7731,4.487808565888243,0,0.5
-11.9313,-101.7659,4.1433,-0.9023,4.439802495221071,0,0.5
-11.6118,-102.1594,4.1445,-1.023,4.419876472457036,0,0.5
-11.314,-102.6587,4.1699,-1.1641,4.423902535530155,0,0.5
-11.1234,-103.1435,4.2068,-1.308,4.526177702970875,0,0.5
-11.0184,-103.661,4.2265,-1.445,4.7582045477565655,0,0.4
-10.9415,-104.1894,4.2138,-1.5169,4.895761004768091,0,0.4
-10.898,-104.7465,4.2751,-1.541,4.850754163768685,0,0.4
-10.8721,-105.249,4.277,-1.5452,4.708149317316573,0,0.4
-10.8688,-105.7811,4.2995,-1.5555,4.704041258027566,0,0.4
-10.8499,-106.3042,4.3036,-1.57,4.603734627191146,0,0.5
-10.8253,-106.8487,4.3419,-1.5819,4.527658878516705,0,0.5
-10.8416,-107.3856,4.3311,-1.5833,4.561266960419451,0,0.5
-10.8327,-107.9187,4.3443,-1.5873,4.576247088017094,0,0.5
-10.8456,-108.445,4.3546,-1.6035,4.361675794693743,0,0.5
-10.8488,-108.9966,4.3794,-1.6087,4.345324893817063,0,0.6
-10.8362,-109.5283,4.4348,-1.6113,4.448206448530453,0,0.5
-10.8649,-110.0568,4.3961,-1.6068,4.5311943639513,0,0.5
-10.886,-110.5653,4.4325,-1.6016,4.753095470113546,0,0.4
-10.8772,-111.1014,4.4685,-1.5822,5.051337375011901,0,0.3
-10.886,-111.603,4.5004,-1.5697,5.012554211406144,0,0.3
-10.8663,-112.1348,4.4806,-1.5719,5.062314584894944,0,0.3
-10.8535,-112.6532,4.4909,-1.5805,4.921265345817293,0,0.4
-10.8466,-113.1757,4.5423,-1.5828,4.841546632343917,0,0.4
-10.8128,-113.7573,4.5852,-1.5848,4.8812030335970995,0,0.4
-10.8897,-114.2741,4.5198,-1.5929,4.954794008779812,0,0.3
-10.8639,-114.8179,4.5864,-1.5949,4.856807895019651,0,0.4
-10.8526,-115.3372,4.6819999999999995,-1.5862,4.992661970415925,0,0.3
-10.8669,-115.8392,4.6905,-1.5758,4.947819829540035,0,0.4
-10.8576,-116.3902,4.6662,-1.5667,4.834586548290373,0,0.4
-10.8377,-116.9334,4.6679,-1.5646,4.806954336111101,0,0.4
-10.8578,-117.4637,4.688,-1.5679,4.701925909412921,0,0.4
-10.857000000000001,-117.9867,4.6995,-1.5775,4.68163596828338,0,0.4
-10.8402,-118.5251,4.7449,-1.5813,4.612561112859548,0,0.5
-10.8615,-119.0615,4.7657,-1.5779,4.447277459207693,0,0.5
-10.8756,-119.5889,4.7632,-1.584,4.452997961062944,0,0.5
-10.8473,-120.1309,4.7726,-1.5984,4.4840325353725214,0,0.5
-10.8533,-120.6833,4.7763,-1.6228,4.270406539477227,0,0.6
-10.8695,-121.2155,4.8104,-1.6475,4.259914268247826,0,0.6
-10.9246,-121.7178,4.8081,-1.6705,4.4268411660162705,0,0.5
-10.9398,-122.2318,4.8148,-1.6833,4.4444101849512405,0,0.5
-10.9901,-122.7559,4.8958,-1.692,4.567088636033295,0,0.5
-11.067,-123.2994,4.9058,-1.6843,4.772522602887442,0,0.4
-11.0753,-123.8004,4.9110000000000005,-1.6798,4.889416712853585,0,0.4
-11.1319,-124.3408,4.9262,-1.6682,4.851521870043935,0,0.4
-11.1809,-124.8409,4.9721,-1.6433,4.71746967096921,0,0.4
-11.2066,-125.3932,5.0064,-1.6118,4.530786295152531,0,0.5
-11.2045,-125.9335,5.0611,-1.5691,4.353399676358577,0,0.5
-11.155999999999999,-126.4367,5.0394,-1.4289,4.141552436170166,0,0.6
-11.0708,-126.9296,5.0626,-1.2295,3.986236558315545,0,0.7
-10.8315,-127.4012,5.1096,-1.0047,3.8891099000310048,0,0.7
-10.5817,-127.8394,5.1034,-0.7659999999999999,3.742456006133067,0,0.8
-10.1473,-128.1203,5.1468,-0.5052,3.70853198350836,0,0.8
-9.6403,-128.3341,5.1463,-0.2685,3.8207354489170156,0,0.7
-9.1288,-128.4516,5.1337,-0.008,3.968359678425895,0,0.7
-8.5941,-128.4382,5.1405,0.2145,4.066184111740915,0,0.6
-8.1216,-128.2702,5.1454,0.2563,4.21998441481027,0,0.6
-7.5939,-128.1525,4.9946,0.2438,4.233043067355542,0,0.6
-7.0819,-128.0036,5.0245,0.2454,4.090326042930245,0,0.6
-6.5882,-127.8937,5.0032,0.2415,3.9108624122606663,0,0.7
-6.0481,-127.7641,4.9868,0.209,3.819993706985702,0,0.7
-5.54,-127.6319,5.0138,0.1621,3.858853173741701,0,0.7
-4.9957,-127.5419,4.997,0.113,3.804748546230046,0,0.7
-4.4948,-127.4756,5.0079,0.0742,3.7688171192917737,0,0.7
-3.9828,-127.4513,4.9275,0.0195,3.915336207358626,0,0.7
-3.4319,-127.4542,4.8721,-0.0438,3.952407263968535,0,0.7
-2.9083,-127.4442,5.06,-0.1358,3.983781048911868,0,0.7
-2.4078,-127.5526,4.9069,-0.2047,4.0920625488306985,0,0.6
-1.8643,-127.6928,4.7414,-0.2744,4.198040727269168,0,0.6
-1.3325,-127.8221,4.8242,-0.3153,4.096658008427235,0,0.6
-0.8378,-128.0138,4.8687,-0.3289,4.27770637910376,0,0.6
-0.3343,-128.155,4.9295,-0.3402,4.292084335785752,0,0.6
0.19,-128.3092,4.9942,-0.35600000000000004,4.4011656077242804,0,0.5
0.6665,-128.5021,4.8687,-0.3716,4.4995799638842255,0,0.5
1.1404,-128.6938,4.9393,-0.3861,4.5925803945078645,0,0.5
1.6521,-128.9033,4.9382,-0.41100000000000003,4.393968308750058,0,0.5
2.1056,-129.1185,4.9341,-0.4343,4.159386507987234,0,0.6
2.5924,-129.291,4.8985,-0.4694,4.087481746073546,0,0.6
3.0429,-129.5457,5.01,-0.5103,3.9986215820138744,0,0.7
3.5156,-129.7489,5.0567,-0.5770000000000001,3.785276650465814,0,0.7
3.9517,-130.1263,4.8469999999999995,-0.6339,3.8887997315674543,0,0.7
4.3713,-130.4711,4.9246,-0.7054,4.087179396675893,0,0.6
4.8642,-130.8385,4.9869,-0.7749,4.042308872925458,0,0.7
5.2403,-131.2144,5.0084,-0.8420000000000001,4.016730753673587,0,0.7
5.5779,-131.6255,4.9826,-0.8863,4.109553258966392,0,0.6
5.9173,-131.9995,5.0381,-0.9227,4.121743988261051,0,0.6
6.2488,-132.4298,5.0363,-0.9638,4.088065431708767,0,0.6
6.5589,-132.8331,5.1363,-1.0117,4.053287162445907,0,0.6
6.8189,-133.2754,5.1554,-1.056,4.172825221263083,0,0.6
7.066,-133.716,5.1160000000000005,-1.0886,4.265622574833626,0,0.6
7.3129,-134.1868,5.1156,-1.1231,4.1193082630377384,0,0.6
7.5405,-134.6684,5.1932,-1.1542,4.071601012275395,0,0.6
7.7181,-135.1367,5.1753,-1.1808,4.112081679564119,0,0.6
7.9569,-135.5955,5.2178,-1.2278,3.980804724779115,0,0.7
8.1232,-136.1398,5.2359,-1.3102,4.07577266496745,0,0.6
8.2584,-136.6641,5.2604,-1.3847,4.340380813618614,0,0.6
8.3508,-137.1976,5.2699,-1.4499,4.396309844079988,0,0.5
8.4217,-137.7287,5.3572,-1.5014,4.5199168533015905,0,0.5
8.4002,-138.2477,5.3358,-1.524,4.612937022971188,0,0.5
8.4944,-138.7414,5.3582,-1.5423,4.5888302311656615,0,0.5
8.4948,-139.3074,5.4403,-1.5759999999999998,4.404298327823808,0,0.5
8.5112,-139.8476,5.4523,-1.6003,4.383901334526894,0,0.5
8.4736,-140.3692,5.5017,-1.6289,4.30985279684265,0,0.6
8.4244,-140.8999,5.5201,-1.6896,4.200367870926973,0,0.6
8.3596,-141.414,5.5394,-1.7433,3.871517512977565,0,0.7
8.2374,-141.9711,5.4727,-1.8061,3.703820532413502,0,0.8
8.131,-142.5,5.5074,-1.8616,3.5398962619572556,0,0.8
7.9992,-143.0215,5.6213,-1.915,3.5278110181205555,0,0.8
7.8653,-143.5103,5.5989,-1.9633,3.4661490259863497,0,0.8
7.6224,-143.9837,5.6854,-2.0153,3.6043297485137833,0,0.8
7.4018,-144.4601,5.6298,-2.0365,3.665703182582299,0,0.8
7.1087,-144.8881,5.6667,-2.0606,3.810483840467384,0,0.7
6.8863,-145.3667,5.8076,-2.1091,3.8863666128843137,0,0.7
6.6313,-145.8826,5.7336,-2.1478,4.030024207141931,0,0.7
6.3475,-146.3453,5.7716,-2.1839,4.170260493761967,0,0.6
6.0446,-146.7495,5.7638,-2.2144,4.276063511124739,0,0.6
5.7007,-147.2239,5.7835,-2.2485,4.2088620520954,0,0.6
5.3712,-147.6506,5.8609,-2.2991,4.142507781213917,0,0.6
5.0452,-148.03799999999998,5.856,-2.3329,4.335871491407174,0,0.6
4.6952,-148.4513,5.9851,-2.3629,4.4416179985997735,0,0.5
4.3026,-148.846,5.8258,-2.3909,4.66779862492727,0,0.4
3.8919,-149.2041,5.8665,-2.4162,4.948327243172287,0,0.4
3.5101,-149.5326,5.8643,-2.4507,5.0494410799530876,0,0.3
3.1186,-149.8713,5.9727,-2.4757,4.994570462485915,0,0.3
2.7269,-150.1828,6.0226,-2.4976,5.113090651989283,0,0.3
2.3058,-150.5335,6.0194,-2.5217,5.185133128501192,0,0.3
1.8978,-150.8375,5.9632,-2.5349,5.229828659762296,0,0.3
1.4678,-151.1358,6.0536,-2.5534,5.217427025295058,0,0.3
1.0119,-151.4127,6.027,-2.5662,5.125110758909036,0,0.3
0.6092,-151.7185,6.0972,-2.5735,4.960464785001336,0,0.3
0.1504,-151.985,6.0303,-2.5816,4.846959412327887,0,0.4
-0.2794,-152.2966,6.0693,-2.5838,4.602701410460005,0,0.5
-0.7445,-152.6125,6.0924,-2.5893,4.380477655653959,0,0.5
-1.2095,-152.8718,6.1179,-2.5989,4.2264902659876755,0,0.6
-1.6606,-153.1458,6.1029,-2.6104,4.007564191371628,0,0.7
-2.1175,-153.4076,6.0994,-2.7074,3.7755871156939795,0,0.7
-2.5996,-153.6295,6.1617,-2.8583,3.823680074525667,0,0.7
-3.1337,-153.7698,6.1362,-3.0410000000000004,3.9710893280657755,0,0.7
-3.6882,-153.7849,6.1244,3.0584,4.083418266818957,0,0.6
-4.2307,-153.7236,6.1362,2.8824,4.25484504795739,0,0.6
-4.7626,-153.5623,6.1895,2.7725,4.398913794031943,0,0.5
-5.255,-153.3894,6.1866,2.7104,4.3950721894754885,0,0.5
-5.7505,-153.1592,6.1370000000000005,2.6679,4.405856199224296,0,0.5
-6.231,-152.9113,6.1107,2.6414,4.472250136081506,0,0.5
-6.7201,-152.6434,6.1459,2.6304,4.494287242428256,0,0.5
-7.1949,-152.388,6.0952,2.6239999999999997,4.528555562765681,0,0.5
-7.6774,-152.1297,6.0725,2.6112,4.707212505281664,0,0.4
-8.1437,-151.8708,6.0329,2.5983,4.7163094435163835,0,0.4
-8.607999999999999,-151.5824,6.0298,2.5813,4.844894970508271,0,0.4
-9.0592,-151.283,6.019,2.568,4.920538899842565,0,0.4
-9.5251,-151.0314,6.0256,2.5538,4.907639474163714,0,0.4
-9.9711,-150.7348,6.0333,2.5441,4.764873235924129,0,0.4
-10.4079,-150.4415,6.0354,2.5297,4.861293709055576,0,0.4
-10.8476,-150.1344,6.0319,2.4855,4.713240600593231,0,0.4
-11.2861,-149.8158,6.0285,2.4433,4.73430400300558,0,0.4
-11.7141,-149.4631,6.0109,2.4046,4.92921449724647,0,0.4
-12.1197,-149.1105,5.9979,2.3753,5.126182346731194,0,0.3
-12.5169,-148.7592,5.9787,2.3467,5.228338315253955,0,0.3
-12.8681,-148.3591,5.9409,2.3205,5.430511932204655,0,0.2
-13.2644,-147.9679,5.9606,2.3009,5.621229055653139,0,0.1
-13.6163,-147.5679,5.9473,2.286,5.581908731970205,0,0.1
-14.0045,-147.1675,5.9325,2.2615,5.614134825427952,0,0.1
-14.3413,-146.7312,5.9339,2.2311,5.554533094477564,0,0.1
-14.6573,-146.3415,5.9325,2.2031,5.59458482425849,0,0.1
-14.9732,-145.915,5.8878,2.1908,5.453424215333706,0,0.2
-15.273,-145.4826,5.888,2.1882,5.475727850870566,0,0.2
-15.5853,-145.0542,5.8646,2.188,5.392385550405031,0,0.2
-15.894,-144.6596,5.846,2.1818,5.3220377287267535,0,0.2
-16.1914,-144.2427,5.8288,2.1687,5.145841806812555,0,0.3
-16.4909,-143.8218,5.8375,2.1863,5.108369755015283,0,0.3
-16.8121,-143.3928,5.7774,2.2232,5.034270399424176,0,0.3
-17.1495,-142.9636,5.7789,2.278,5.021732754995344,0,0.3
-17.5225,-142.5648,5.7683,2.3251,5.121745627883555,0,0.3
-17.9292,-142.1853,5.7542,2.3797,5.184226533183397,0,0.3
-18.2989,-141.8485,5.7709,2.4359,5.259773564485431,0,0.2
-18.6965,-141.5375,5.7479,2.4871,5.261425533205883,0,0.2
-19.1183,-141.2092,5.7792,2.5269999999999997,5.150098585017727,0,0.3
-19.5624,-140.9113,5.6917,2.5561,5.016120253087182,0,0.3
-20.0077,-140.642,5.7225,2.568,4.789763165481424,0,0.4
-20.4624,-140.3545,5.7255,2.5811,4.430040120372265,0,0.5
-20.9339,-140.0943,5.7006,2.6031,4.097829324683099,0,0.6
-21.3783,-139.8509,5.7159,2.6351,3.8973105407800697,0,0.7
-21.8313,-139.5983,5.6688,2.6591,3.6093479385490643,0,0.8
-22.3071,-139.3654,5.6961,2.6789,3.505223398865505,0,0.8
-22.7716,-139.1493,5.7184,2.65,3.6324072108566243,0,0.8
-23.2431,-138.9821,5.638999999999999,2.6175,3.5991329929121694,0,0.8
-23.7168,-138.7183,5.5806,2.6004,3.5988122411488987,0,0.8
-24.1645,-138.4708,5.6647,2.6012,3.8047437405071127,0,0.7
-24.5701,-138.172,5.627000000000001,2.5997,3.818159959259246,0,0.7
-25.0772,-137.892,5.6523,2.5936,3.77660354226986,0,0.7
-25.5206,-137.6525,5.6091,2.5909,3.9152503349984555,0,0.7
-25.9862,-137.3468,5.6193,2.5994,3.9397759426096717,0,0.7
-26.4521,-137.097,5.6234,2.6226,3.9781489177434297,0,0.7
-26.9507,-136.8459,5.6088,2.6511,4.14275555110041,0,0.6
-27.4348,-136.6001,5.6409,2.6802,4.2943728527340905,0,0.6
-27.9057,-136.3432,5.6093,2.7059,4.351608533317796,0,0.5
-28.4266,-136.1414,5.6384,2.7275,4.441666572697086,0,0.5
-28.939,-135.8906,5.6284,2.7462,4.585413302840301,0,0.5
-29.4789,-135.749,5.6218,2.7403,4.546595707685489,0,0.5
-29.9221,-135.5039,5.5441,2.7231,4.46993413750287,0,0.5
-30.4275,-135.2637,5.577999999999999,2.7025,4.621333755115097,0,0.5
-30.9704,-135.0836,5.5655,2.6843,4.8150852821833805,0,0.4
-31.4337,-134.8526,5.5583,2.6549,4.733389685551149,0,0.4
-31.916,-134.5782,5.558,2.6026,4.957079982107029,0,0.3
-32.3638,-134.2922,5.5278,2.5767,4.980153427061412,0,0.3
-32.805,-134.0236,5.5541,2.5677,5.038787006581207,0,0.3
-33.2754,-133.7121,5.5822,2.5419,4.983886021206487,0,0.3
-33.7105,-133.41,5.5553,2.5232,4.892625245769247,0,0.4
-34.1659,-133.1188,5.5649,2.5092,4.893445801614799,0,0.4
-34.5706,-132.7779,5.5729999999999995,2.4992,4.895438101263938,0,0.4
-34.9944,-132.5085,5.581,2.4754,4.778975644310782,0,0.4
-35.4449,-132.1668,5.5535,2.4486,4.69857728875568,0,0.4
-35.8632,-131.7992,5.5562,2.4365,4.841342732877168,0,0.4
-36.2888,-131.4616,5.5332,2.4267,4.815566980109148,0,0.4
-36.6465,-131.0723,5.5303,2.4211,4.7712453161311945,0,0.4
-37.0789,-130.7734,5.5016,2.411,4.711768628829843,0,0.4
-37.463,-130.421,5.4924,2.4061,4.762183175709182,0,0.4
-37.893,-130.1114,5.4662,2.4067,4.573514242865629,0,0.5
-38.2987,-129.7403,5.4506,2.4065,4.535776302743896,0,0.5
-38.7174,-129.3862,5.4662,2.4061,4.614298147217129,0,0.5
-39.1295,-129.0505,5.4255,2.4038,4.645401508100669,0,0.5
-39.5095,-128.7172,5.4299,2.4042,4.5576469000239,0,0.5
-39.8729,-128.3341,5.4295,2.4006,4.743980090226059,0,0.4
-40.2703,-127.9738,5.4293,2.39,4.593146324334951,0,0.5
-40.6347,-127.618,5.428,2.3768,4.5815017244134335,0,0.5
-41.008,-127.2304,5.4006,2.3605,4.542696400406841,0,0.5
-41.4161,-126.9287,5.3939,2.3442,4.575599043027607,0,0.5
-41.7665,-126.5368,5.3878,2.3292,4.521716019670864,0,0.5
-42.1723,-126.1176,5.3694,2.3013,4.5255537575594955,0,0.5
-42.4888,-125.7273,5.3749,2.2735,4.415555379838029,0,0.5
-42.8207,-125.3241,5.3389999999999995,2.2403,4.526812033372255,0,0.5
-43.177,-124.9388,5.3108,2.2214,4.570852192039249,0,0.5
-43.5103,-124.5108,5.3261,2.1886,4.373993155345298,0,0.5
-43.8528,-124.054,5.2942,2.1702,4.520335566351948,0,0.5
-44.1429,-123.5771,5.2722,2.1671,4.435913464125495,0,0.5
-44.4821,-123.1468,5.2915,2.1558,4.168728833837179,0,0.6
-44.8068,-122.6768,5.2608,2.1297,4.127350433633027,0,0.6
-45.0132,-122.1592,5.189,2.1197,4.150765514186055,0,0.6
-45.3311,-121.7337,5.135,2.1085,4.054730170539353,0,0.6
-45.6537,-121.2884,5.1928,2.1023,4.234789148480721,0,0.6
-45.82899999999999,-120.8172,5.1915,2.1042,4.487098418045602,0,0.5
-46.1504,-120.4288,5.1548,2.097,4.590560454388407,0,0.5
-46.4154,-119.955,5.1994,2.0938,4.840382306299555,0,0.4
-46.736000000000004,-119.499,5.0963,2.0856,4.954385402936952,0,0.3
-46.9603,-119.0439,5.0554,2.0844,4.845162072574333,0,0.4
-47.2887,-118.6086,5.067,2.0789,4.6813520905636254,0,0.4
-47.4904,-118.1481,5.078,2.0809,4.624873456779548,0,0.5
-47.8378,-117.7122,5.0744,2.0675,4.516025367907143,0,0.5
-48.0312,-117.2197,4.9429,2.0607,4.516254955253756,0,0.5
-48.2768,-116.7419,4.9756,2.052,4.69296938673576,0,0.4
-48.5435,-116.3051,4.9732,2.0546,4.881897828145394,0,0.4
-48.8263,-115.8286,4.9563,2.0603,4.97338330612734,0,0.3
-49.0496,-115.3789,4.9771,2.0578,5.036925359455828,0,0.3
-49.3013,-114.9173,4.927,2.0553,4.999652096906242,0,0.3
-49.5514,-114.4456,4.9171,2.0578,4.894850076405005,0,0.4
-49.8282,-113.9725,4.9308,2.0529,4.672572638199995,0,0.4
-50.0996,-113.4774,4.8967,2.0523,4.378280350476631,0,0.5
-50.3542,-113.0149,4.8975,2.0487,4.031585713453078,0,0.7
-50.5876,-112.5602,4.8619,2.0454,3.8978323511794577,0,0.7
-50.8552,-112.1337,4.8556,2.0363,3.731644180904498,0,0.8
-51.0335,-111.6416,4.8626,2.0366,3.937916085593418,0,0.7
-51.2567,-111.13799999999999,4.8858,2.0269,3.9407877695090407,0,0.7
-51.5614,-110.7044,4.8953,2.0007,4.039390155427975,0,0.7
-51.7897,-110.2198,4.8863,1.9737,3.97374904536351,0,0.7
-51.9821,-109.7242,4.8564,1.9556,4.0761460604356765,0,0.6
-52.2104,-109.2125,4.8463,1.936,3.9929414352459514,0,0.7
-52.5186,-108.7694,4.8231,1.913,4.206580668724873,0,0.6
-52.5915,-108.2733,4.8205,1.8946,4.351102985806085,0,0.5
-52.7832,-107.8091,4.8003,1.8717,4.444982288943841,0,0.5
-52.9259,-107.2815,4.7431,1.8571,4.5197524515758385,0,0.5
-53.1073,-106.7631,4.7605,1.8318,4.510328463802912,0,0.5
-53.2488,-106.2648,4.7916,1.8207,4.418263567735831,0,0.5
-53.3842,-105.7603,4.7641,1.8092,4.414195357938709,0,0.5
-53.4903,-105.2197,4.7958,1.7990000000000002,4.471235734766299,0,0.5
-53.6018,-104.7041,4.7256,1.7877,4.469879817245285,0,0.5
-53.7341,-104.1798,4.7247,1.7852,4.527852734738515,0,0.5
-53.8756,-103.6889,4.7053,1.7783,4.475831691986148,0,0.5
-53.9776,-103.1202,4.6995,1.7736,4.50119660334215,0,0.5
-54.1011,-102.5983,4.6949,1.7694,4.447384919699818,0,0.5
-54.2212,-102.0684,4.6711,1.7598,4.506033088154471,0,0.5
-54.3486,-101.5638,4.6574,1.7514,4.410025090207321,0,0.5
-54.4077,-101.0348,4.6725,1.7487,4.577066714470973,0,0.5
-54.5057,-100.53299999999999,4.6768,1.7415,4.689717172389475,0,0.4
-54.6092,-100.0301,4.66,1.7315,4.843134926600415,0,0.4
-54.7318,-99.5097,4.6231,1.7236,4.872273617596783,0,0.4
-54.778,-98.9797,4.6144,1.7247,4.888530557337079,0,0.4
-54.9067,-98.4947,4.6105,1.7253,4.782593427330182,0,0.4
-54.9403,-97.9448,4.644,1.7318,4.668714804872104,0,0.4
-55.1075,-97.4197,4.5892,1.7254,4.528959244397552,0,0.5
-55.1685,-96.9109,4.5797,1.7318,4.385936890810141,0,0.5
-55.2543,-96.3618,4.5685,1.7366,4.451334812229946,0,0.5
-55.3872,-95.8228,4.5392,1.7359,4.492927186867911,0,0.5
-55.5182,-95.3019,4.533,1.7215,4.316133474696525,0,0.6
-55.5894,-94.7494,4.5019,1.6914,4.1923833127604855,0,0.6
-55.6568,-94.229,4.5478,1.6635,4.07317283258239,0,0.6
-55.7467,-93.6732,4.5394,1.6423,4.022588532280822,0,0.7
-55.8032,-93.1275,4.5001,1.6269,3.9764341412708273,0,0.7
-55.7915,-92.5632,4.4553,1.6156,4.279410840577191,0,0.6
-55.7565,-92.0525,4.3921,1.6084,4.443767901620785,0,0.5
-55.8619,-91.4783,4.3598,1.5949,4.750902863754913,0,0.4
-55.8565,-90.8883,4.3858,1.5877,4.870604676116647,0,0.4
-55.9076,-90.3872,4.3588,1.5753,4.841769881650597,0,0.4
-55.9025,-89.8769,4.3405,1.5661,4.684575572660528,0,0.4
-55.9085,-89.3236,4.3719,1.556,4.570326189666441,0,0.5
-55.8998,-88.8208,4.3806,1.5425,4.499740058339901,0,0.5
-55.8981,-88.2845,4.3133,1.5319,4.472685298315412,0,0.5
-55.9475,-87.7837,4.336,1.5213,4.409352105712637,0,0.5
-55.8945,-87.2592,4.3441,1.5095,4.47662989472207,0,0.5
-55.8642,-86.7599,4.2877,1.5035,4.432308694442366,0,0.5
-55.8005,-86.21700000000001,4.2534,1.4949,4.370000292951959,0,0.5
-55.7701,-85.7175,4.2428,1.4898,4.166086807384618,0,0.6
-55.773,-85.179,4.237,1.4809999999999999,4.185527588957368,0,0.6
-55.7319,-84.6773,4.2531,1.479,4.08875304012504,0,0.6
-55.6444,-84.1014,4.228,1.4815,4.152885366413509,0,0.6
-55.618,-83.5648,4.2,1.4825,4.17281339153074,0,0.6
-55.6105,-83.0013,4.1502,1.4824,4.203605804029022,0,0.6
-55.6505,-82.4705,4.1566,1.4774,4.334818030095756,0,0.6
-55.5865,-81.9101,4.1195,1.4779,4.342890313174645,0,0.6
-55.5591,-81.3409,4.0855,1.4731,4.454212221420548,0,0.5
-55.5183,-80.7678,4.0787,1.4712,4.439142706198728,0,0.5
-55.411,-80.2275,4.0284,1.4698,4.517870439247153,0,0.5
-55.345,-79.6885,4.0454,1.4608,4.43416246272052,0,0.5
-55.3096,-79.1878,4.0585,1.4542,4.511081818066248,0,0.5
-55.2776,-78.626,4.0442,1.4459,4.336843726550349,0,0.6
-55.1988,-78.0891,3.9985,1.435,4.248494927276317,0,0.6
-55.1316,-77.5886,4.0039,1.425,4.048130929777053,0,0.7
-55.1044,-77.081,3.9634,1.4134,3.9268277196436534,0,0.7
-55.0148,-76.572,3.9139,1.4028,3.6805393789581338,0,0.8
-54.8959,-76.0597,3.9124,1.4003,3.8083783465515615,0,0.7
-54.747,-75.5272,3.8362,1.3958,3.8128524628593103,0,0.7
-54.7656,-74.9817,3.8433,1.3979,3.92280591845258,0,0.7
-54.7162,-74.4689,3.7981,1.4038,4.134389666511215,0,0.6
-54.5887,-73.9305,3.8145,1.406,4.229163718865767,0,0.6
-54.5171,-73.4032,3.7747,1.4048,4.251164973663597,0,0.6
-54.4389,-72.8852,3.7825,1.4002,4.226179336546831,0,0.6
-54.31,-72.3633,3.7576,1.3933,4.239486903632884,0,0.6
-54.2258,-71.8592,3.7624,1.3844,4.202598578994826,0,0.6
-54.1762,-71.3461,3.7124,1.3724,4.397707131981922,0,0.5
-54.1154,-70.8173,3.7026,1.3645,4.390329496212781,0,0.5
-53.9768,-70.27600000000001,3.6901,1.354,4.430804791509432,0,0.5
-53.8485,-69.7558,3.6799,1.3378,4.540276658656736,0,0.5
-53.7368,-69.2026,3.6316,1.3151,4.486896844327592,0,0.5
-53.6239,-68.7045,3.6417,1.2936,4.370749546497283,0,0.5
-53.468,-68.1377,3.6182,1.2773,4.247963654737157,0,0.6
-53.3,-67.6345,3.6302,1.2673,4.314718136295229,0,0.6
-53.1754,-67.1216,3.5635,1.2532,4.207612218552033,0,0.6
-52.9727,-66.6248,3.5541,1.2466,4.286914167008587,0,0.6
-52.8091,-66.1046,3.5448,1.2344,4.471188558840388,0,0.5
-52.6742,-65.5953,3.5819,1.2285,4.732547279762365,0,0.4
-52.49,-65.07600000000001,3.5422,1.2209,4.755717635157573,0,0.4
-52.2768,-64.5242,3.5197,1.2208,4.838241219422601,0,0.4
-52.1229,-64.0338,3.5708,1.2266,4.912652877342163,0,0.4
-51.9293,-63.5333,3.5247,1.2335,4.722951180751385,0,0.4
-51.7764,-63.0279,3.4443,1.2396,4.685860854084581,0,0.4
-51.626999999999995,-62.513000000000005,3.3799,1.2421,4.641003204768304,0,0.5
-51.4245,-62.0491,3.3911,1.2407,4.620635288433412,0,0.5
-51.2432,-61.4941,3.3681,1.2361,4.609587225864499,0,0.5
-51.09,-60.946999999999996,3.3974,1.2298,4.567450827240593,0,0.5
-50.9301,-60.4237,3.3765,1.2276,4.471716750702195,0,0.5
-50.7328,-59.9071,3.3316,1.2226,4.535586786464369,0,0.5
-50.6273,-59.4035,3.4258,1.217,4.607348806312151,0,0.5
-50.4552,-58.9264,3.4473,1.208,4.651274648339261,0,0.4
-50.2643,-58.4535,3.4127,1.1986,4.747063435339738,0,0.4
-50.0524,-57.9917,3.3111,1.1887,4.713368847220665,0,0.4
-49.8854,-57.5134,3.2697,1.1814,4.662221545492812,0,0.4
-49.6877,-57.0164,3.2883,1.1613,4.691659717178952,0,0.4
-49.5208,-56.5384,3.2918,1.1374,4.632627559519256,0,0.5
-49.2911,-56.0729,3.2198,1.1256,4.680590183834356,0,0.4
-49.071000000000005,-55.6001,3.1986,1.1291,4.762854476676456,0,0.4
-48.8829,-55.1351,3.1998,1.133,4.797799096333208,0,0.4
-48.6577,-54.6729,3.1824,1.1377,4.738060830036666,0,0.4
-48.4557,-54.1601,3.1375,1.1393,4.561190280144384,0,0.5
-48.2444,-53.6973,3.0979,1.1346,4.606879386020623,0,0.5
-48.0318,-53.1918,3.0839,1.1208,4.707362380892817,0,0.4
-47.8162,-52.6723,3.0513,1.0947,4.823302889510874,0,0.4
-47.5856,-52.2022,3.0494,1.0571,4.9125461910893495,0,0.4
-47.2882,-51.7346,3.028,1.0328,4.9080385366905475,0,0.4
-47.0487,-51.2845,3.0143,1.0144,4.797426225629432,0,0.4
-46.7746,-50.8499,2.9774,0.9911,4.728364063553604,0,0.4
-46.5398,-50.4064,2.9521,0.972,4.568140265066052,0,0.5
-46.2609,-49.9804,2.9442,0.9497,4.511895650485722,0,0.5
-45.9165,-49.5277,2.9182,0.9215,4.729858518135312,0,0.4
-45.5864,-49.108000000000004,2.9102,0.8942,4.732853990914046,0,0.4
-45.2409,-48.6758,2.8979,0.8707,4.5981811687026735,0,0.5
-44.8506,-48.2541,2.8768,0.856,4.602384290659071,0,0.5
-44.5355,-47.8231,2.8639,0.8511,4.689791332800188,0,0.4
-44.1608,-47.4335,2.8292,0.8487,4.458993354546611,0,0.5
-43.7889,-47.0165,2.7971,0.8451,4.628938228770268,0,0.5
-43.4729,-46.5909,2.76,0.8598,4.732049495045834,0,0.4
-43.1064,-46.2453,2.7577,0.888,4.802606724668552,0,0.4
-42.7841,-45.818000000000005,2.7460000000000004,0.9217,4.729836505784796,0,0.4
-42.5039,-45.3813,2.737,0.96,4.759708810196692,0,0.4
-42.1878,-44.9552,2.7346,0.9701,4.6436948792482315,0,0.5
-41.93899999999999,-44.5137,2.6879,0.9636,4.519989226615497,0,0.5
-41.5835,-44.0745,2.6547,0.9662,4.4731110672746635,0,0.5
-41.3217,-43.6388,2.6287,0.9762,4.295696652549546,0,0.6
-41.0574,-43.2061,2.5918,0.9805,4.389969385761701,0,0.5
-40.7992,-42.7482,2.573,0.9909,4.390945275176701,0,0.5
-40.4846,-42.3258,2.5456,1.0052,4.556605927745634,0,0.5
-40.2176,-41.8912,2.5204,1.0118,4.691395620643426,0,0.4
-39.9733,-41.4275,2.5144,1.0195,5.056049072025468,0,0.3
-39.7228,-40.9521,2.4879,1.0282,5.255900903403876,0,0.2
-39.4486,-40.5029,2.4537,1.0199,5.417238196791969,0,0.2
-39.1919,-40.0647,2.4113,1.0128,5.467474372449751,0,0.2
-38.9288,-39.5951,2.3593,1.0142,5.400784724924744,0,0.2
-38.6418,-39.1119,2.3855,1.0181,5.306498846578474,0,0.2
-38.4115,-38.6338,2.3765,1.0152,5.142241269887737,0,0.3
-38.1002,-38.1997,2.2875,1.0070000000000001,5.009498505419488,0,0.3
-37.834,-37.7681,2.2617,0.9992,4.754162701510334,0,0.4
-37.5691,-37.3008,2.2335,0.9938,4.613650684659868,0,0.5
-37.2782,-36.8643,2.1519,1.0021,4.357967542143486,0,0.5
-36.9665,-36.4058,2.1639,1.0073,4.186512625649043,0,0.6
-36.6698,-35.9273,2.01,1.0212,4.012323008695654,0,0.7
-36.4095,-35.4304,2.099,1.0339,3.945143771361951,0,0.7
-36.1438,-34.9852,1.9936,1.0375,3.845768525562476,0,0.7
-35.8925,-34.4736,1.8233,1.0333,3.825302184376925,0,0.7
-35.5925,-34.0221,1.7615,1.0367,3.860261812675536,0,0.7
-35.3234,-33.5193,1.732,1.0346,3.8837723013450915,0,0.7
-35.080999999999996,-33.0725,1.6559,1.0284,4.005987872710086,0,0.7
-34.8071,-32.6368,1.699,1.0201,4.095314674006057,0,0.6
-34.5234,-32.162,1.7325,1.0124,4.211490698162758,0,0.6
-34.2663,-31.7271,1.7189,1.0071,4.395907037452925,0,0.5
-33.9743,-31.2671,1.7021,1.0086,4.596565467832633,0,0.5
-33.7097,-30.8332,1.6847,1.0037,4.788317072256678,0,0.4
-33.439,-30.3702,1.6414,0.9969,5.056343856892164,0,0.3
-33.1322,-29.9194,1.5268,0.9942,5.137578923084183,0,0.3
-32.8767,-29.4547,1.5765,0.9894,5.227746911310878,0,0.3
-32.6126,-29.0284,1.5667,0.9969,5.243762069499178,0,0.3
-32.3426,-28.5915,1.6269999999999998,1.0122,5.073200812132644,0,0.3
-32.0548,-28.1023,1.5903,1.0371,4.971291793009019,0,0.3
-31.8225,-27.6391,1.5844,1.0526,4.85261813856993,0,0.4
-31.5669,-27.1927,1.5919,1.0645,4.780646613706336,0,0.4
-31.3182,-26.6886,1.5488,1.0672,4.739467542793237,0,0.4
-31.0511,-26.2544,1.4535,1.0764,4.821287539223689,0,0.4
-30.7943,-25.7604,1.3876,1.0906,4.766362857215958,0,0.4
-30.5857,-25.269000000000002,1.4153,1.0999,4.8914762596627375,0,0.4
-30.3264,-24.8043,1.4102,1.1029,4.711697423343456,0,0.4
-30.0989,-24.2998,1.3942,1.1052,4.672001051323637,0,0.4
-29.8414,-23.7953,1.3861,1.1017,4.687029552004695,0,0.4
-29.6455,-23.2927,1.4452,1.097,4.7851378067135935,0,0.4
-29.4106,-22.8382,1.4080000000000001,1.0916,4.737151927406872,0,0.4
-29.1564,-22.3798,1.3532,1.0866,4.7974285188196095,0,0.4
-28.9332,-21.8569,1.4945,1.0791,4.770347655294794,0,0.4
-28.6576,-21.4386,1.2842,1.0778,4.8142678003968165,0,0.4
-28.4451,-20.9759,1.2999,1.0748,4.810294038151323,0,0.4
-28.1981,-20.5236,1.3019999999999998,1.074,4.9094593034051766,0,0.4
-27.9368,-20.0638,1.2209,1.0732,5.034398818018275,0,0.3
-27.7317,-19.6011,1.2435,1.0714,5.208532483140537,0,0.3
-27.4487,-19.158,1.1614,1.0642,5.326385024733057,0,0.2
-27.1927,-18.6441,1.1646,1.0474,5.329349347308344,0,0.2
-26.9298,-18.1807,1.1053,1.0358,5.415462413921417,0,0.2
-26.643,-17.6911,1.0656,1.0225,5.469709352113243,0,0.2
-26.379,-17.2473,1.0682,1.0112,5.4534397704100614,0,0.2
-26.1135,-16.816,1.0089,1.0016,5.411082572669686,0,0.2
-25.8771,-16.3344,1.2575,0.9958,5.3379185291376325,0,0.2
-25.6025,-15.9067,1.2715,0.9958,5.246756831567954,0,0.3
-25.3477,-15.4543,1.2626,1.0001,5.29965494177926,0,0.2
-25.0363,-15.0135,1.107,1.0064,5.248850495555659,0,0.3
-24.7715,-14.5859,1.0947,1.0136,5.2431006832117975,0,0.3
-24.5314,-14.1323,1.0513,1.0216,5.2370066543542695,0,0.3
-24.2396,-13.7214,1.0629,1.0301,5.171928001678039,0,0.3
-24.003,-13.2791,1.1082,1.0344,4.923000792695558,0,0.4
-23.7276,-12.8397,1.1014,1.0343,4.742067901747943,0,0.4
-23.5042,-12.3922,1.1125,1.0338,4.588581334922442,0,0.5
-23.2701,-11.9308,1.1737,1.0367,4.592043622381386,0,0.5
-23.0132,-11.4918,1.1169,1.0409,4.601331152917168,0,0.5
-22.7364,-11.0593,1.0282,1.0491,4.817443845929565,0,0.4
-22.5129,-10.6008,1.0666,1.0564,5.060170250565419,0,0.3
-22.2389,-10.1059,1.1401,1.0663,5.227210112885016,0,0.3
-21.9898,-9.6699,1.1407,1.0708,5.22557070793588,0,0.3
-21.7688,-9.199,1.1022,1.0699,5.3469282468235475,0,0.2
-21.5082,-8.736,1.0718,1.0697,5.338422355383961,0,0.2
-21.2897,-8.2622,1.0933,1.0723,5.317588457462137,0,0.2
-21.0187,-7.7695,1.0406,1.0763,5.34268157845193,0,0.2
-20.753,-7.3069,0.9856,1.0671,5.311453964003743,0,0.2
-20.4755,-6.8108,0.9787,1.0576,5.219126917629694,0,0.3
-20.2022,-6.3036,0.9987,1.0574,5.015891844587006,0,0.3
-19.9661,-5.8518,1.0046,1.0711,4.799693878269519,0,0.4
-19.7209,-5.3964,0.9792,1.0903,4.6928706975204335,0,0.4
-19.5278,-4.9205,0.9981,1.1181,4.624645588632147,0,0.5
-19.2955,-4.467,0.9215,1.1398,4.515913797727181,0,0.5
-19.0359,-3.9602,0.9281,1.1364,4.485169179015494,0,0.5
-18.8502,-3.4653,0.9317,1.1138,4.397324902901406,0,0.5
-18.599,-2.9491,0.9282,1.0823,4.149094761396872,0,0.6
-18.3417,-2.4531,0.9604,1.0343,4.0713492208312925,0,0.6
-18.0827,-2.0238,0.9301,0.9739,3.8466874117168492,0,0.7
-17.8051,-1.6002,0.9688,0.8953,3.7376621817757543,0,0.8
-17.4933,-1.1996,0.9255,0.8689,3.7329279151282324,0,0.8
-17.1335,-0.7551,0.9211,0.9407,3.7209756297783434,0,0.8
-16.8099,-0.2581,0.8798,1.0639,3.689854276045856,0,0.8
-16.5923,0.2149,0.8702,1.1753,3.7753880462327523,0,0.7
-16.4129,0.6946,0.8603,1.3105,3.7832792661082673,0,0.7
-16.3192,1.2311,0.9221,1.4739,3.756265746669718,0,0.7
-16.3265,1.7503,0.9102,1.5177,3.762497146472697,0,0.7
-16.2702,2.2494,0.9156,1.5023,3.756622021169296,0,0.7
