x,y,z,yaw,velocity,change_flag,look_ahead
-16.8781,2.5036,0.8476,-1.6524,4.559839631563562,0,0.7
-16.9505,2.0019,0.8636,-1.6994,4.6002051247644955,0,0.7
-16.9748,1.4978,0.7899,-1.7977,4.722746528161876,0,0.6
-17.1171,1.0121,0.8071,-1.9321,4.723876912738954,0,0.6
-17.317,0.5274,0.7825,-2.0763,4.757581067793412,0,0.6
-17.5693,0.0733,0.8157,-2.1273,4.722006657331859,0,0.6
-17.8459,-0.3699,0.8158,-2.1222,4.668916820839431,0,0.7
-18.1157,-0.8157,0.8586,-2.0563,4.456725268837068,0,0.8
-18.3249,-1.2823,0.8251,-1.9736,4.3603874995820595,0,0.8
-18.5206,-1.7957,0.8406,-1.8677,4.43024732739714,0,0.8
-18.6269,-2.291,0.8793,-1.7547,4.627560390194004,0,0.7
-18.7274,-2.8169999999999997,0.925,-1.6483,4.762049621888378,0,0.6
-18.7534,-3.3435,0.9074,-1.6265,4.904663114188201,0,0.5
-18.7832,-3.85,0.9097,-1.6163,5.074397059408644,0,0.5
-18.7669,-4.4009,0.8968,-1.6079,5.070871189685497,0,0.5
-18.8026,-4.9030000000000005,0.9137,-1.6033,4.88942569228718,0,0.6
-18.8173,-5.4168,0.8993,-1.5997,4.807139508272778,0,0.6
-18.8003,-5.9316,0.9201,-1.5927,4.9041341960246205,0,0.5
-18.8303,-6.4421,0.9334,-1.5771,4.945113144377923,0,0.5
-18.8106,-6.9691,0.9265,-1.5669,4.99752245373059,0,0.5
-18.804000000000002,-7.4718,0.9281,-1.5593,5.148628149813142,0,0.4
-18.7646,-7.984,0.9022,-1.5562,5.232725235825865,0,0.4
-18.7582,-8.5108,0.9478,-1.5581,5.222139573744505,0,0.4
-18.7335,-9.0151,0.9161,-1.5619999999999998,5.1862543904261,0,0.4
-18.762999999999998,-9.5214,0.9476,-1.5632,5.169277727210655,0,0.4
-18.7148,-10.0299,0.9742,-1.5645,5.062166153798312,0,0.5
-18.7313,-10.557,0.9957,-1.5671,5.054076513600267,0,0.5
-18.6921,-11.0584,1.0127,-1.5729,5.079346577155418,0,0.5
-18.6724,-11.5674,1.0307,-1.5771,5.15684763999243,0,0.4
-18.6698,-12.1024,1.0389,-1.579,5.207312125525813,0,0.4
-18.6704,-12.627,1.0585,-1.5821,5.358648825104712,0,0.3
-18.6689,-13.1491,1.0743,-1.5889,5.363276874843505,0,0.3
-18.6672,-13.7036,1.0939,-1.5946,5.3590934985835865,0,0.3
-18.6674,-14.2091,1.1035,-1.5977,5.372846124403004,0,0.3
-18.6886,-14.7488,1.1384,-1.5909,5.470704186260721,0,0.3
-18.6968,-15.2702,1.1403,-1.5826,5.418937234324373,0,0.3
-18.6836,-15.7899,1.1528,-1.5746,5.456156689314685,0,0.3
-18.676,-16.3452,1.1706,-1.5692,5.321508080711806,0,0.3
-18.6481,-16.8804,1.1833,-1.5642,5.159563375459871,0,0.4
-18.6391,-17.3954,1.1887,-1.5624,5.053939780554016,0,0.5
-18.6629,-17.9238,1.2364,-1.5673,5.101000730946922,0,0.4
-18.6273,-18.4548,1.2423,-1.5716,5.0720756208423285,0,0.5
-18.6101,-18.9711,1.2535,-1.5735,5.239625925649903,0,0.4
-18.6322,-19.5167,1.2578,-1.5774,5.306443910178375,0,0.3
-18.6364,-20.022000000000002,1.2782,-1.5814,5.3572638012719604,0,0.3
-18.646,-20.5309,1.3106,-1.5828,5.354230970924998,0,0.3
-18.6078,-21.0575,1.2968,-1.5831,5.355367943331634,0,0.3
-18.6127,-21.5801,1.3419999999999999,-1.5862,5.304987218724632,0,0.3
-18.6204,-22.1022,1.3556,-1.5876,5.287174203376985,0,0.4
-18.6216,-22.6325,1.3689,-1.5845,5.259858166721643,0,0.4
-18.6227,-23.1701,1.3752,-1.5799,5.208151035046512,0,0.4
-18.5989,-23.7355,1.3961,-1.5764,5.213167118012896,0,0.4
-18.595,-24.2524,1.4057,-1.578,5.269746630979507,0,0.4
-18.6057,-24.7689,1.4511,-1.5801,5.3810873504808,0,0.3
-18.5945,-25.2959,1.462,-1.5813,5.47084011833803,0,0.3
-18.5692,-25.8232,1.4593,-1.5839,5.536013940025933,0,0.2
-18.6016,-26.3658,1.4725,-1.5830000000000002,5.6135968425980485,0,0.2
-18.5864,-26.9305,1.4754,-1.5829,5.559717770766787,0,0.2
-18.5958,-27.4629,1.4751,-1.5816,5.54923560201477,0,0.2
-18.5825,-27.9993,1.4923,-1.5813,5.443873489817954,0,0.3
-18.5688,-28.5341,1.5293,-1.5815,5.374231269627484,0,0.3
-18.5647,-29.0738,1.5579,-1.5811,5.375066614166049,0,0.3
-18.5765,-29.6255,1.5718,-1.5804,5.403966859631609,0,0.3
-18.5735,-30.1674,1.5647,-1.5867,5.357397357199449,0,0.3
-18.6002,-30.6794,1.5848,-1.5952,5.380376609012838,0,0.3
-18.5624,-31.1957,1.6149,-1.5917,5.458683996037582,0,0.3
-18.5883,-31.7319,1.6354,-1.5899,5.407895762057384,0,0.3
-18.5683,-32.236999999999995,1.6496,-1.5915,5.414810503816279,0,0.3
-18.5497,-32.7794,1.6689,-1.5930000000000002,5.4699837475689534,0,0.3
-18.566,-33.3278,1.6711,-1.5854,5.438388692517647,0,0.3
-18.5739,-33.8825,1.6806,-1.5788,5.416259764019559,0,0.3
-18.5506,-34.412,1.7073,-1.5737,5.397906854917936,0,0.3
-18.545,-34.9203,1.7126,-1.5703,5.379372926289523,0,0.3
-18.5175,-35.4801,1.7454,-1.5673,5.383879644639759,0,0.3
-18.5322,-36.0128,1.7526,-1.5657,5.435018783739894,0,0.3
-18.5039,-36.5142,1.7645,-1.5649,5.467127169715217,0,0.3
-18.4979,-37.0688,1.8058,-1.5643,5.510518597772001,0,0.2
-18.4798,-37.59,1.8308,-1.5661,5.546827383409931,0,0.2
-18.4705,-38.1042,1.8327,-1.568,5.510885391901112,0,0.2
-18.4369,-38.6268,1.8646,-1.5689,5.502539256397805,0,0.2
-18.4421,-39.1657,1.8934,-1.5696,5.393918598085665,0,0.3
-18.4378,-39.6894,1.9209,-1.5716,5.3615580420429865,0,0.3
-18.43,-40.2165,1.9148,-1.5753,5.263421419245791,0,0.4
-18.4005,-40.7561,1.9582,-1.58,5.236326322138434,0,0.4
-18.4041,-41.2565,1.9745,-1.5832,5.218771607982074,0,0.4
-18.42,-41.7891,1.9773,-1.5854,5.333241231987615,0,0.3
-18.4122,-42.3006,2.0066,-1.5874,5.377371795073206,0,0.3
-18.4007,-42.806999999999995,2.0234,-1.5861,5.477393679420798,0,0.3
-18.4095,-43.3103,2.0481,-1.5827,5.582171931571636,0,0.2
-18.3809,-43.8702,2.0553,-1.5808,5.642278859997573,0,0.2
-18.3944,-44.3854,2.089,-1.5772,5.591087977585059,0,0.2
-18.3852,-44.952,2.0819,-1.5759999999999998,5.552084812978554,0,0.2
-18.3814,-45.4672,2.093,-1.5749,5.441646695337868,0,0.3
-18.374000000000002,-45.9741,2.1019,-1.5756,5.347637691496449,0,0.3
-18.3685,-46.4948,2.1314,-1.5776,5.282074791366568,0,0.4
-18.3393,-46.9941,2.1439,-1.584,5.2621426267480285,0,0.4
-18.3512,-47.5273,2.1479,-1.5877,5.281513077799763,0,0.4
-18.3533,-48.0461,2.1375,-1.5882,5.3777144659219305,0,0.3
-18.3613,-48.5648,2.1859,-1.5899,5.405958177333614,0,0.3
-18.365,-49.1424,2.2023,-1.595,5.440783860304284,0,0.3
-18.3588,-49.6859,2.2221,-1.5929,5.50291542566523,0,0.2
-18.3693,-50.2486,2.2435,-1.5898,5.486754501592934,0,0.3
-18.3607,-50.8044,2.2709,-1.5884,5.432571519464628,0,0.3
-18.3594,-51.318000000000005,2.2796,-1.5858,5.4108446701612145,0,0.3
-18.3616,-51.865,2.2998,-1.5765,5.356349814923066,0,0.3
-18.3643,-52.3941,2.3196,-1.5649,5.283885381051147,0,0.4
-18.3469,-52.9025,2.3601,-1.5567,5.25234847527086,0,0.4
-18.3283,-53.4123,2.373,-1.555,5.294111796875605,0,0.4
-18.2997,-53.9719,2.3852,-1.5524,5.306020531910471,0,0.3
-18.2941,-54.531000000000006,2.412,-1.5578,5.363469446145722,0,0.3
-18.2862,-55.1174,2.4328,-1.5652,5.4814596646159135,0,0.3
-18.2536,-55.6307,2.4575,-1.5665,5.595912021183444,0,0.2
-18.2554,-56.151,2.4591,-1.5669,5.6365991431577225,0,0.2
-18.244,-56.6883,2.4877,-1.5693,5.673821712317061,0,0.2
-18.2287,-57.2175,2.5119,-1.5697,5.620616550037894,0,0.2
-18.2193,-57.7882,2.5141,-1.5734,5.489561103474262,0,0.3
-18.206,-58.3473,2.5369,-1.5772,5.348277117927551,0,0.3
-18.192999999999998,-58.9078,2.5642,-1.5804,5.277772936873955,0,0.4
-18.1845,-59.4346,2.5857,-1.5832,5.197470393150479,0,0.4
-18.1944,-59.9612,2.5897,-1.588,5.246128411226708,0,0.4
-18.2164,-60.5137,2.6404,-1.5894,5.354292979297979,0,0.3
-18.1857,-61.0417,2.6701,-1.5923,5.452774719086394,0,0.3
-18.1889,-61.5742,2.6634,-1.5896,5.505273180963647,0,0.2
-18.1954,-62.0995,2.6918,-1.5885,5.574136390598381,0,0.2
-18.2093,-62.6384,2.7268,-1.5894,5.566474047323533,0,0.2
-18.2148,-63.1986,2.7736,-1.5902,5.517943274062989,0,0.2
-18.2147,-63.7811,2.7406,-1.5917,5.4868600363090865,0,0.3
-18.214000000000002,-64.3518,2.7702,-1.5914,5.428515542647116,0,0.3
-18.2099,-64.8719,2.7960000000000003,-1.5901,5.409823654485534,0,0.3
-18.2133,-65.4548,2.8176,-1.5892,5.410038886346097,0,0.3
-18.2105,-66.0184,2.8434,-1.5885,5.434333532181869,0,0.3
-18.212,-66.5633,2.8363,-1.5882,5.470880688889341,0,0.3
-18.1998,-67.1294,2.8856,-1.5893,5.462715582967118,0,0.3
-18.2007,-67.6495,2.8922,-1.5906,5.323411794274687,0,0.3
-18.1928,-68.1524,2.9317,-1.5916,5.258544592926501,0,0.4
-18.195999999999998,-68.6766,2.9521,-1.5922,5.219702460164152,0,0.4
-18.1903,-69.2174,2.9432,-1.5912,5.163700353499147,0,0.4
-18.2146,-69.7221,3.0031,-1.5859999999999999,5.142297671656167,0,0.4
-18.1979,-70.2377,3.0223,-1.5832,5.223673120132058,0,0.4
-18.1942,-70.7969,3.0412,-1.5788,5.239201918554606,0,0.4
-18.1861,-71.3281,3.0457,-1.5747,5.195839298140599,0,0.4
-18.1726,-71.8564,3.0548,-1.5712,5.239793163539189,0,0.4
-18.1799,-72.4031,3.0838,-1.5697,5.2738873572200795,0,0.4
-18.1519,-72.9227,3.1104,-1.5722,5.221107264246743,0,0.4
-18.1438,-73.4321,3.139,-1.5705,5.211145991111181,0,0.4
-18.1482,-73.9929,3.1272,-1.5752,5.262828595709664,0,0.4
-18.1421,-74.5566,3.1482,-1.5879,5.221996099299786,0,0.4
-18.1321,-75.1242,3.1816,-1.5959,5.250592583435589,0,0.4
-18.134,-75.6608,3.1981,-1.5937,5.349552990124849,0,0.3
-18.1602,-76.2397,3.2441,-1.591,5.3281673634892845,0,0.3
-18.1482,-76.8119,3.2533,-1.5901,5.2732648306578955,0,0.4
-18.153,-77.3304,3.2713,-1.5887,5.318691406721953,0,0.3
-18.1412,-77.9003,3.2791,-1.5866,5.303128959551274,0,0.3
-18.1488,-78.4685,3.3087,-1.5869,5.37923636487991,0,0.3
-18.1654,-78.9968,3.3096,-1.5862,5.477764771400401,0,0.3
-18.1397,-79.505,3.3294,-1.5837,5.603865083778606,0,0.2
-18.1501,-80.0682,3.3554,-1.5836,5.61202722378017,0,0.2
-18.1532,-80.5928,3.3725,-1.5837,5.597407413113334,0,0.2
-18.1634,-81.1047,3.3658,-1.5848,5.481347971312873,0,0.3
-18.146,-81.6723,3.3746,-1.585,5.393521531713036,0,0.3
-18.1569,-82.1751,3.4091,-1.5829,5.23388972985388,0,0.4
-18.1286,-82.7171,3.4772,-1.579,5.1400907078917975,0,0.4
-18.1132,-83.2186,3.4702,-1.575,5.077219035301327,0,0.5
-18.1149,-83.7751,3.5045,-1.5701,5.139421671185655,0,0.4
-18.124000000000002,-84.2846,3.5224,-1.565,5.13741488497459,0,0.4
-18.0842,-84.8114,3.5458,-1.5619999999999998,5.22587606815804,0,0.4
-18.0631,-85.3278,3.5387,-1.5583,5.316345938368448,0,0.3
-18.0734,-85.8657,3.5734,-1.5565,5.408762143223079,0,0.3
-18.0497,-86.3754,3.5823,-1.5563,5.406220825284053,0,0.3
-18.0189,-86.9139,3.6036,-1.5567,5.471128891816858,0,0.3
-18.0098,-87.4635,3.6473,-1.5572,5.378083304848045,0,0.3
-17.9873,-87.9857,3.6623,-1.5597,5.361721708709995,0,0.3
-17.9894,-88.4965,3.6818,-1.565,5.272317687984456,0,0.4
-17.9627,-89.0007,3.6867,-1.5711,5.243814071683166,0,0.4
-17.9601,-89.5186,3.7167,-1.5742,5.289222652925705,0,0.4
-17.9861,-90.0634,3.7417,-1.5783,5.356390526128347,0,0.3
-17.9824,-90.581,3.7655,-1.5819,5.377059678618953,0,0.3
-17.9592,-91.1064,3.7723,-1.5857,5.51202070316443,0,0.2
-17.9353,-91.6196,3.7911,-1.5901,5.527599422586439,0,0.2
-17.9147,-92.1453,3.7873,-1.5951,5.4239984048969765,0,0.3
-17.9382,-92.6664,3.8065,-1.6,5.339002205687071,0,0.3
-17.9393,-93.1899,3.818,-1.6011,5.210872737573082,0,0.4
-17.9508,-93.714,3.8374,-1.5899,5.0441653145136565,0,0.5
-17.9796,-94.2213,3.8678,-1.5647,4.907071632659513,0,0.5
-17.9411,-94.7409,3.8853,-1.5135,4.829625434638883,0,0.6
-17.8868,-95.2546,3.8914,-1.4384,4.844859134199013,0,0.6
-17.7875,-95.7897,3.9222,-1.3695,4.821111172163834,0,0.6
-17.663,-96.3465,3.9614,-1.2787,4.804051739855667,0,0.6
-17.4904,-96.8601,3.9456,-1.2223,4.881227666935507,0,0.6
-17.2912,-97.3649,3.9957,-1.1566,4.9802908415537654,0,0.5
-17.0679,-97.8191,3.991,-1.0544,4.972468365478149,0,0.5
-16.7706,-98.2737,4.0364,-0.9439,4.970162147331804,0,0.5
-16.4068,-98.6878,4.0378,-0.8302,5.039358660127174,0,0.5
-16.0394,-99.1027,4.0737,-0.7006,5.114626655602236,0,0.4
-15.617,-99.4477,4.0697,-0.5823,5.100284113097772,0,0.4
-15.1462,-99.729,4.08,-0.4938,5.1044152010837465,0,0.4
-14.6221,-99.9713,4.0646,-0.4528,5.133932928341715,0,0.4
-14.1512,-100.1849,4.1059,-0.4597,5.11249838278149,0,0.4
-13.6452,-100.4334,4.1021,-0.5183,5.046676325496502,0,0.5
-13.1768,-100.6952,4.127,-0.602,5.042998045287813,0,0.5
-12.722000000000001,-101.0273,4.1115,-0.6724,5.03641705534301,0,0.5
-12.2953,-101.3816,4.1263,-0.7731,4.991872377258829,0,0.5
-11.9313,-101.7659,4.1433,-0.9023,4.95986833014738,0,0.5
-11.6118,-102.1594,4.1445,-1.023,4.946584314971357,0,0.5
-11.314,-102.6587,4.1699,-1.1641,4.949268357020104,0,0.5
-11.1234,-103.1435,4.2068,-1.308,5.017451801980584,0,0.5
-11.0184,-103.661,4.2265,-1.445,5.172136365171044,0,0.4
-10.9415,-104.1894,4.2138,-1.5169,5.2638406698453934,0,0.4
-10.898,-104.7465,4.2751,-1.541,5.233836109179123,0,0.4
-10.8721,-105.249,4.277,-1.5452,5.138766211544382,0,0.4
-10.8688,-105.7811,4.2995,-1.5555,5.136027505351711,0,0.4
-10.8499,-106.3042,4.3036,-1.57,5.069156418127431,0,0.5
-10.8253,-106.8487,4.3419,-1.5819,5.01843925234447,0,0.5
-10.8416,-107.3856,4.3311,-1.5833,5.040844640279634,0,0.5
-10.8327,-107.9187,4.3443,-1.5873,5.050831392011395,0,0.5
-10.8456,-108.445,4.3546,-1.6035,4.907783863129161,0,0.5
-10.8488,-108.9966,4.3794,-1.6087,4.8968832625447085,0,0.6
-10.8362,-109.5283,4.4348,-1.6113,4.965470965686968,0,0.5
-10.8649,-110.0568,4.3961,-1.6068,5.0207962426342,0,0.5
-10.886,-110.5653,4.4325,-1.6016,5.16873031340903,0,0.4
-10.8772,-111.1014,4.4685,-1.5822,5.367558250007933,0,0.3
-10.886,-111.603,4.5004,-1.5697,5.341702807604095,0,0.3
-10.8663,-112.1348,4.4806,-1.5719,5.3748763899299625,0,0.3
-10.8535,-112.6532,4.4909,-1.5805,5.280843563878196,0,0.4
-10.8466,-113.1757,4.5423,-1.5828,5.227697754895945,0,0.4
-10.8128,-113.7573,4.5852,-1.5848,5.2541353557314,0,0.4
-10.8897,-114.2741,4.5198,-1.5929,5.3031960058532075,0,0.3
-10.8639,-114.8179,4.5864,-1.5949,5.2378719300131005,0,0.4
-10.8526,-115.3372,4.6819999999999995,-1.5862,5.328441313610616,0,0.3
-10.8669,-115.8392,4.6905,-1.5758,5.298546553026689,0,0.4
-10.8576,-116.3902,4.6662,-1.5667,5.223057698860249,0,0.4
-10.8377,-116.9334,4.6679,-1.5646,5.204636224074068,0,0.4
-10.8578,-117.4637,4.688,-1.5679,5.134617272941947,0,0.4
-10.857000000000001,-117.9867,4.6995,-1.5775,5.121090645522253,0,0.4
-10.8402,-118.5251,4.7449,-1.5813,5.075040741906365,0,0.5
-10.8615,-119.0615,4.7657,-1.5779,4.964851639471796,0,0.5
-10.8756,-119.5889,4.7632,-1.584,4.968665307375296,0,0.5
-10.8473,-120.1309,4.7726,-1.5984,4.98935502358168,0,0.5
-10.8533,-120.6833,4.7763,-1.6228,4.846937692984818,0,0.6
-10.8695,-121.2155,4.8104,-1.6475,4.839942845498551,0,0.6
-10.9246,-121.7178,4.8081,-1.6705,4.951227444010847,0,0.5
-10.9398,-122.2318,4.8148,-1.6833,4.962940123300827,0,0.5
-10.9901,-122.7559,4.8958,-1.692,5.044725757355531,0,0.5
-11.067,-123.2994,4.9058,-1.6843,5.1816817352582945,0,0.4
-11.0753,-123.8004,4.9110000000000005,-1.6798,5.25961114190239,0,0.4
-11.1319,-124.3408,4.9262,-1.6682,5.2343479133626225,0,0.4
-11.1809,-124.8409,4.9721,-1.6433,5.144979780646141,0,0.4
-11.2066,-125.3932,5.0064,-1.6118,5.020524196768354,0,0.5
-11.2045,-125.9335,5.0611,-1.5691,4.902266450905717,0,0.5
-11.155999999999999,-126.4367,5.0394,-1.4289,4.7610349574467765,0,0.6
-11.0708,-126.9296,5.0626,-1.2295,4.65749103887703,0,0.7
-10.8315,-127.4012,5.1096,-1.0047,4.592739933354004,0,0.7
-10.5817,-127.8394,5.1034,-0.7659999999999999,4.494970670755379,0,0.8
-10.1473,-128.1203,5.1468,-0.5052,4.472354655672239,0,0.8
-9.6403,-128.3341,5.1463,-0.2685,4.547156965944677,0,0.7
-9.1288,-128.4516,5.1337,-0.008,4.645573118950597,0,0.7
-8.5941,-128.4382,5.1405,0.2145,4.710789407827277,0,0.6
-8.1216,-128.2702,5.1454,0.2563,4.813322943206846,0,0.6
-7.5939,-128.1525,4.9946,0.2438,4.822028711570361,0,0.6
-7.0819,-128.0036,5.0245,0.2454,4.726884028620164,0,0.6
-6.5882,-127.8937,5.0032,0.2415,4.607241608173778,0,0.7
-6.0481,-127.7641,4.9868,0.209,4.546662471323802,0,0.7
-5.54,-127.6319,5.0138,0.1621,4.572568782494468,0,0.7
-4.9957,-127.5419,4.997,0.113,4.53649903082003,0,0.7
-4.4948,-127.4756,5.0079,0.0742,4.512544746194516,0,0.7
-3.9828,-127.4513,4.9275,0.0195,4.610224138239085,0,0.7
-3.4319,-127.4542,4.8721,-0.0438,4.634938175979023,0,0.7
-2.9083,-127.4442,5.06,-0.1358,4.6558540326079125,0,0.7
-2.4078,-127.5526,4.9069,-0.2047,4.728041699220466,0,0.6
-1.8643,-127.6928,4.7414,-0.2744,4.798693818179445,0,0.6
-1.3325,-127.8221,4.8242,-0.3153,4.731105338951489,0,0.6
-0.8378,-128.0138,4.8687,-0.3289,4.851804252735841,0,0.6
-0.3343,-128.155,4.9295,-0.3402,4.861389557190501,0,0.6
0.19,-128.3092,4.9942,-0.35600000000000004,4.93411040514952,0,0.5
0.6665,-128.5021,4.8687,-0.3716,4.999719975922817,0,0.5
1.1404,-128.6938,4.9393,-0.3861,5.061720263005244,0,0.5
1.6521,-128.9033,4.9382,-0.41100000000000003,4.929312205833371,0,0.5
2.1056,-129.1185,4.9341,-0.4343,4.772924338658156,0,0.6
2.5924,-129.291,4.8985,-0.4694,4.724987830715698,0,0.6
3.0429,-129.5457,5.01,-0.5103,4.6657477213425835,0,0.7
3.5156,-129.7489,5.0567,-0.5770000000000001,4.52351776697721,0,0.7
3.9517,-130.1263,4.8469999999999995,-0.6339,4.5925331543783035,0,0.7
4.3713,-130.4711,4.9246,-0.7054,4.724786264450595,0,0.6
4.8642,-130.8385,4.9869,-0.7749,4.694872581950305,0,0.7
5.2403,-131.2144,5.0084,-0.8420000000000001,4.677820502449058,0,0.7
5.5779,-131.6255,4.9826,-0.8863,4.739702172644261,0,0.6
5.9173,-131.9995,5.0381,-0.9227,4.747829325507368,0,0.6
6.2488,-132.4298,5.0363,-0.9638,4.725376954472511,0,0.6
6.5589,-132.8331,5.1363,-1.0117,4.702191441630605,0,0.6
6.8189,-133.2754,5.1554,-1.056,4.781883480842056,0,0.6
7.066,-133.716,5.1160000000000005,-1.0886,4.843748383222417,0,0.6
7.3129,-134.1868,5.1156,-1.1231,4.746205508691825,0,0.6
7.5405,-134.6684,5.1932,-1.1542,4.714400674850264,0,0.6
7.7181,-135.1367,5.1753,-1.1808,4.741387786376079,0,0.6
7.9569,-135.5955,5.2178,-1.2278,4.65386981651941,0,0.7
8.1232,-136.1398,5.2359,-1.3102,4.717181776644967,0,0.6
8.2584,-136.6641,5.2604,-1.3847,4.893587209079076,0,0.6
8.3508,-137.1976,5.2699,-1.4499,4.930873229386658,0,0.5
8.4217,-137.7287,5.3572,-1.5014,5.013277902201061,0,0.5
8.4002,-138.2477,5.3358,-1.524,5.0752913486474585,0,0.5
8.4944,-138.7414,5.3582,-1.5423,5.059220154110441,0,0.5
8.4948,-139.3074,5.4403,-1.5759999999999998,4.936198885215871,0,0.5
8.5112,-139.8476,5.4523,-1.6003,4.922600889684596,0,0.5
8.4736,-140.3692,5.5017,-1.6289,4.8732351978951,0,0.6
8.4244,-140.8999,5.5201,-1.6896,4.800245247284648,0,0.6
8.3596,-141.414,5.5394,-1.7433,4.581011675318377,0,0.7
8.2374,-141.9711,5.4727,-1.8061,4.4692136882756675,0,0.8
8.131,-142.5,5.5074,-1.8616,4.359930841304837,0,0.8
7.9992,-143.0215,5.6213,-1.915,4.351874012080371,0,0.8
7.8653,-143.5103,5.5989,-1.9633,4.310766017324233,0,0.8
7.6224,-143.9837,5.6854,-2.0153,4.402886499009189,0,0.8
7.4018,-144.4601,5.6298,-2.0365,4.443802121721533,0,0.8
7.1087,-144.8881,5.6667,-2.0606,4.54032256031159,0,0.7
6.8863,-145.3667,5.8076,-2.1091,4.5909110752562095,0,0.7
6.6313,-145.8826,5.7336,-2.1478,4.686682804761287,0,0.7
6.3475,-146.3453,5.7716,-2.1839,4.780173662507979,0,0.6
6.0446,-146.7495,5.7638,-2.2144,4.8507090074164925,0,0.6
5.7007,-147.2239,5.7835,-2.2485,4.805908034730267,0,0.6
5.3712,-147.6506,5.8609,-2.2991,4.761671854142611,0,0.6
5.0452,-148.03799999999998,5.856,-2.3329,4.890580994271449,0,0.6
4.6952,-148.4513,5.9851,-2.3629,4.961078665733182,0,0.5
4.3026,-148.846,5.8258,-2.3909,5.111865749951513,0,0.4
3.8919,-149.2041,5.8665,-2.4162,5.2988848287815244,0,0.4
3.5101,-149.5326,5.8643,-2.4507,5.366294053302059,0,0.3
3.1186,-149.8713,5.9727,-2.4757,5.329713641657277,0,0.3
2.7269,-150.1828,6.0226,-2.4976,5.408727101326188,0,0.3
2.3058,-150.5335,6.0194,-2.5217,5.456755419000794,0,0.3
1.8978,-150.8375,5.9632,-2.5349,5.486552439841531,0,0.3
1.4678,-151.1358,6.0536,-2.5534,5.478284683530039,0,0.3
1.0119,-151.4127,6.027,-2.5662,5.416740505939358,0,0.3
0.6092,-151.7185,6.0972,-2.5735,5.306976523334224,0,0.3
0.1504,-151.985,6.0303,-2.5816,5.231306274885259,0,0.4
-0.2794,-152.2966,6.0693,-2.5838,5.068467606973337,0,0.5
-0.7445,-152.6125,6.0924,-2.5893,4.9203184371026385,0,0.5
-1.2095,-152.8718,6.1179,-2.5989,4.817660177325116,0,0.6
-1.6606,-153.1458,6.1029,-2.6104,4.671709460914419,0,0.7
-2.1175,-153.4076,6.0994,-2.7074,4.51705807712932,0,0.7
-2.5996,-153.6295,6.1617,-2.8583,4.549120049683778,0,0.7
-3.1337,-153.7698,6.1362,-3.0410000000000004,4.647392885377183,0,0.7
-3.6882,-153.7849,6.1244,3.0584,4.722278844545972,0,0.6
-4.2307,-153.7236,6.1362,2.8824,4.836563365304926,0,0.6
-4.7626,-153.5623,6.1895,2.7725,4.9326091960212946,0,0.5
-5.255,-153.3894,6.1866,2.7104,4.930048126316992,0,0.5
-5.7505,-153.1592,6.1370000000000005,2.6679,4.93723746614953,0,0.5
-6.231,-152.9113,6.1107,2.6414,4.981500090721004,0,0.5
-6.7201,-152.6434,6.1459,2.6304,4.996191494952171,0,0.5
-7.1949,-152.388,6.0952,2.6239999999999997,5.019037041843787,0,0.5
-7.6774,-152.1297,6.0725,2.6112,5.1381416701877765,0,0.4
-8.1437,-151.8708,6.0329,2.5983,5.14420629567759,0,0.4
-8.607999999999999,-151.5824,6.0298,2.5813,5.229929980338848,0,0.4
-9.0592,-151.283,6.019,2.568,5.28035926656171,0,0.4
-9.5251,-151.0314,6.0256,2.5538,5.271759649442476,0,0.4
-9.9711,-150.7348,6.0333,2.5441,5.176582157282752,0,0.4
-10.4079,-150.4415,6.0354,2.5297,5.240862472703718,0,0.4
-10.8476,-150.1344,6.0319,2.4855,5.142160400395487,0,0.4
-11.2861,-149.8158,6.0285,2.4433,5.156202668670386,0,0.4
-11.7141,-149.4631,6.0109,2.4046,5.286142998164313,0,0.4
-12.1197,-149.1105,5.9979,2.3753,5.417454897820797,0,0.3
-12.5169,-148.7592,5.9787,2.3467,5.48555887683597,0,0.3
-12.8681,-148.3591,5.9409,2.3205,5.620341288136436,0,0.2
-13.2644,-147.9679,5.9606,2.3009,5.747486037102092,0,0.1
-13.6163,-147.5679,5.9473,2.286,5.721272487980137,0,0.1
-14.0045,-147.1675,5.9325,2.2615,5.742756550285301,0,0.1
-14.3413,-146.7312,5.9339,2.2311,5.703022062985042,0,0.1
-14.6573,-146.3415,5.9325,2.2031,5.729723216172326,0,0.1
-14.9732,-145.915,5.8878,2.1908,5.635616143555804,0,0.2
-15.273,-145.4826,5.888,2.1882,5.65048523391371,0,0.2
-15.5853,-145.0542,5.8646,2.188,5.59492370027002,0,0.2
-15.894,-144.6596,5.846,2.1818,5.548025152484502,0,0.2
-16.1914,-144.2427,5.8288,2.1687,5.4305612045417035,0,0.3
-16.4909,-143.8218,5.8375,2.1863,5.405579836676855,0,0.3
-16.8121,-143.3928,5.7774,2.2232,5.356180266282784,0,0.3
-17.1495,-142.9636,5.7789,2.278,5.347821836663563,0,0.3
-17.5225,-142.5648,5.7683,2.3251,5.414497085255704,0,0.3
-17.9292,-142.1853,5.7542,2.3797,5.456151022122264,0,0.3
-18.2989,-141.8485,5.7709,2.4359,5.506515709656954,0,0.2
-18.6965,-141.5375,5.7479,2.4871,5.507617022137255,0,0.2
-19.1183,-141.2092,5.7792,2.5269999999999997,5.4333990566784856,0,0.3
-19.5624,-140.9113,5.6917,2.5561,5.344080168724789,0,0.3
-20.0077,-140.642,5.7225,2.568,5.193175443654283,0,0.4
-20.4624,-140.3545,5.7255,2.5811,4.953360080248177,0,0.5
-20.9339,-140.0943,5.7006,2.6031,4.7318862164554,0,0.6
-21.3783,-139.8509,5.7159,2.6351,4.598207027186714,0,0.7
-21.8313,-139.5983,5.6688,2.6591,4.406231959032709,0,0.8
-22.3071,-139.3654,5.6961,2.6789,4.33681559924367,0,0.8
-22.7716,-139.1493,5.7184,2.65,4.42160480723775,0,0.8
-23.2431,-138.9821,5.638999999999999,2.6175,4.39942199527478,0,0.8
-23.7168,-138.7183,5.5806,2.6004,4.399208160765932,0,0.8
-24.1645,-138.4708,5.6647,2.6012,4.536495827004742,0,0.7
-24.5701,-138.172,5.627000000000001,2.5997,4.545439972839497,0,0.7
-25.0772,-137.892,5.6523,2.5936,4.517735694846573,0,0.7
-25.5206,-137.6525,5.6091,2.5909,4.61016688999897,0,0.7
-25.9862,-137.3468,5.6193,2.5994,4.626517295073114,0,0.7
-26.4521,-137.097,5.6234,2.6226,4.652099278495619,0,0.7
-26.9507,-136.8459,5.6088,2.6511,4.761837034066939,0,0.6
-27.4348,-136.6001,5.6409,2.6802,4.862915235156061,0,0.6
-27.9057,-136.3432,5.6093,2.7059,4.901072355545198,0,0.5
-28.4266,-136.1414,5.6384,2.7275,4.961111048464724,0,0.5
-28.939,-135.8906,5.6284,2.7462,5.056942201893534,0,0.5
-29.4789,-135.749,5.6218,2.7403,5.03106380512366,0,0.5
-29.9221,-135.5039,5.5441,2.7231,4.97995609166858,0,0.5
-30.4275,-135.2637,5.577999999999999,2.7025,5.0808891700767305,0,0.5
-30.9704,-135.0836,5.5655,2.6843,5.21005685478892,0,0.4
-31.4337,-134.8526,5.5583,2.6549,5.155593123700766,0,0.4
-31.916,-134.5782,5.558,2.6026,5.304719988071353,0,0.3
-32.3638,-134.2922,5.5278,2.5767,5.320102284707607,0,0.3
-32.805,-134.0236,5.5541,2.5677,5.359191337720805,0,0.3
-33.2754,-133.7121,5.5822,2.5419,5.322590680804325,0,0.3
-33.7105,-133.41,5.5553,2.5232,5.261750163846165,0,0.4
-34.1659,-133.1188,5.5649,2.5092,5.2622972010765325,0,0.4
-34.5706,-132.7779,5.5729999999999995,2.4992,5.263625400842625,0,0.4
-34.9944,-132.5085,5.581,2.4754,5.185983762873855,0,0.4
-35.4449,-132.1668,5.5535,2.4486,5.132384859170454,0,0.4
-35.8632,-131.7992,5.5562,2.4365,5.227561821918112,0,0.4
-36.2888,-131.4616,5.5332,2.4267,5.210377986739433,0,0.4
-36.6465,-131.0723,5.5303,2.4211,5.180830210754129,0,0.4
-37.0789,-130.7734,5.5016,2.411,5.141179085886561,0,0.4
-37.463,-130.421,5.4924,2.4061,5.174788783806121,0,0.4
-37.893,-130.1114,5.4662,2.4067,5.049009495243753,0,0.5
-38.2987,-129.7403,5.4506,2.4065,5.023850868495931,0,0.5
-38.7174,-129.3862,5.4662,2.4061,5.076198764811419,0,0.5
-39.1295,-129.0505,5.4255,2.4038,5.09693433873378,0,0.5
-39.5095,-128.7172,5.4299,2.4042,5.0384312666826006,0,0.5
-39.8729,-128.3341,5.4295,2.4006,5.16265339348404,0,0.4
-40.2703,-127.9738,5.4293,2.39,5.0620975495566345,0,0.5
-40.6347,-127.618,5.428,2.3768,5.05433448294229,0,0.5
-41.008,-127.2304,5.4006,2.3605,5.028464266937894,0,0.5
-41.4161,-126.9287,5.3939,2.3442,5.050399362018404,0,0.5
-41.7665,-126.5368,5.3878,2.3292,5.014477346447242,0,0.5
-42.1723,-126.1176,5.3694,2.3013,5.017035838372997,0,0.5
-42.4888,-125.7273,5.3749,2.2735,4.943703586558685,0,0.5
-42.8207,-125.3241,5.3389999999999995,2.2403,5.017874688914837,0,0.5
-43.177,-124.9388,5.3108,2.2214,5.047234794692833,0,0.5
-43.5103,-124.5108,5.3261,2.1886,4.915995436896866,0,0.5
-43.8528,-124.054,5.2942,2.1702,5.0135570442346316,0,0.5
-44.1429,-123.5771,5.2722,2.1671,4.95727564275033,0,0.5
-44.4821,-123.1468,5.2915,2.1558,4.779152555891453,0,0.6
-44.8068,-122.6768,5.2608,2.1297,4.751566955755351,0,0.6
-45.0132,-122.1592,5.189,2.1197,4.76717700945737,0,0.6
-45.3311,-121.7337,5.135,2.1085,4.703153447026235,0,0.6
-45.6537,-121.2884,5.1928,2.1023,4.823192765653815,0,0.6
-45.82899999999999,-120.8172,5.1915,2.1042,4.991398945363735,0,0.5
-46.1504,-120.4288,5.1548,2.097,5.060373636258937,0,0.5
-46.4154,-119.955,5.1994,2.0938,5.226921537533036,0,0.4
-46.736000000000004,-119.499,5.0963,2.0856,5.302923601957968,0,0.3
-46.9603,-119.0439,5.0554,2.0844,5.230108048382888,0,0.4
-47.2887,-118.6086,5.067,2.0789,5.120901393709084,0,0.4
-47.4904,-118.1481,5.078,2.0809,5.083248971186366,0,0.5
-47.8378,-117.7122,5.0744,2.0675,5.0106835786047625,0,0.5
-48.0312,-117.2197,4.9429,2.0607,5.010836636835837,0,0.5
-48.2768,-116.7419,4.9756,2.052,5.12864625782384,0,0.4
-48.5435,-116.3051,4.9732,2.0546,5.25459855209693,0,0.4
-48.8263,-115.8286,4.9563,2.0603,5.31558887075156,0,0.3
-49.0496,-115.3789,4.9771,2.0578,5.357950239637219,0,0.3
-49.3013,-114.9173,4.927,2.0553,5.3331013979374955,0,0.3
-49.5514,-114.4456,4.9171,2.0578,5.263233384270003,0,0.4
-49.8282,-113.9725,4.9308,2.0529,5.115048425466663,0,0.4
-50.0996,-113.4774,4.8967,2.0523,4.918853566984421,0,0.5
-50.3542,-113.0149,4.8975,2.0487,4.687723808968719,0,0.7
-50.5876,-112.5602,4.8619,2.0454,4.598554900786305,0,0.7
-50.8552,-112.1337,4.8556,2.0363,4.4877627872696655,0,0.8
-51.0335,-111.6416,4.8626,2.0366,4.6252773903956115,0,0.7
-51.2567,-111.13799999999999,4.8858,2.0269,4.627191846339361,0,0.7
-51.5614,-110.7044,4.8953,2.0007,4.692926770285316,0,0.7
-51.7897,-110.2198,4.8863,1.9737,4.64916603024234,0,0.7
-51.9821,-109.7242,4.8564,1.9556,4.717430706957117,0,0.6
-52.2104,-109.2125,4.8463,1.936,4.661960956830635,0,0.7
-52.5186,-108.7694,4.8231,1.913,4.804387112483248,0,0.6
-52.5915,-108.2733,4.8205,1.8946,4.900735323870723,0,0.5
-52.7832,-107.8091,4.8003,1.8717,4.96332152596256,0,0.5
-52.9259,-107.2815,4.7431,1.8571,5.013168301050559,0,0.5
-53.1073,-106.7631,4.7605,1.8318,5.006885642535274,0,0.5
-53.2488,-106.2648,4.7916,1.8207,4.9455090451572215,0,0.5
-53.3842,-105.7603,4.7641,1.8092,4.942796905292473,0,0.5
-53.4903,-105.2197,4.7958,1.7990000000000002,4.980823823177532,0,0.5
-53.6018,-104.7041,4.7256,1.7877,4.979919878163523,0,0.5
-53.7341,-104.1798,4.7247,1.7852,5.018568489825676,0,0.5
-53.8756,-103.6889,4.7053,1.7783,4.983887794657432,0,0.5
-53.9776,-103.1202,4.6995,1.7736,5.000797735561433,0,0.5
-54.1011,-102.5983,4.6949,1.7694,4.964923279799879,0,0.5
-54.2212,-102.0684,4.6711,1.7598,5.004022058769648,0,0.5
-54.3486,-101.5638,4.6574,1.7514,4.94001672680488,0,0.5
-54.4077,-101.0348,4.6725,1.7487,5.051377809647315,0,0.5
-54.5057,-100.53299999999999,4.6768,1.7415,5.126478114926316,0,0.4
-54.6092,-100.0301,4.66,1.7315,5.228756617733611,0,0.4
-54.7318,-99.5097,4.6231,1.7236,5.2481824117311895,0,0.4
-54.778,-98.9797,4.6144,1.7247,5.259020371558052,0,0.4
-54.9067,-98.4947,4.6105,1.7253,5.188395618220122,0,0.4
-54.9403,-97.9448,4.644,1.7318,5.112476536581402,0,0.4
-55.1075,-97.4197,4.5892,1.7254,5.019306162931702,0,0.5
-55.1685,-96.9109,4.5797,1.7318,4.923957927206761,0,0.5
-55.2543,-96.3618,4.5685,1.7366,4.96755654148663,0,0.5
-55.3872,-95.8228,4.5392,1.7359,4.995284791245274,0,0.5
-55.5182,-95.3019,4.533,1.7215,4.87742231646435,0,0.6
-55.5894,-94.7494,4.5019,1.6914,4.794922208506991,0,0.6
-55.6568,-94.229,4.5478,1.6635,4.715448555054927,0,0.6
-55.7467,-93.6732,4.5394,1.6423,4.681725688187215,0,0.7
-55.8032,-93.1275,4.5001,1.6269,4.650956094180552,0,0.7
-55.7915,-92.5632,4.4553,1.6156,4.852940560384794,0,0.6
-55.7565,-92.0525,4.3921,1.6084,4.9625119344138575,0,0.5
-55.8619,-91.4783,4.3598,1.5949,5.167268575836609,0,0.4
-55.8565,-90.8883,4.3858,1.5877,5.247069784077764,0,0.4
-55.9076,-90.3872,4.3588,1.5753,5.227846587767065,0,0.4
-55.9025,-89.8769,4.3405,1.5661,5.123050381773685,0,0.4
-55.9085,-89.3236,4.3719,1.556,5.0468841264442945,0,0.5
-55.8998,-88.8208,4.3806,1.5425,4.999826705559935,0,0.5
-55.8981,-88.2845,4.3133,1.5319,4.981790198876942,0,0.5
-55.9475,-87.7837,4.336,1.5213,4.939568070475092,0,0.5
-55.8945,-87.2592,4.3441,1.5095,4.984419929814713,0,0.5
-55.8642,-86.7599,4.2877,1.5035,4.9548724629615775,0,0.5
-55.8005,-86.21700000000001,4.2534,1.4949,4.91333352863464,0,0.5
-55.7701,-85.7175,4.2428,1.4898,4.777391204923078,0,0.6
-55.773,-85.179,4.237,1.4809999999999999,4.790351725971578,0,0.6
-55.7319,-84.6773,4.2531,1.479,4.72583536008336,0,0.6
-55.6444,-84.1014,4.228,1.4815,4.768590244275672,0,0.6
-55.618,-83.5648,4.2,1.4825,4.781875594353826,0,0.6
-55.6105,-83.0013,4.1502,1.4824,4.8024038693526805,0,0.6
-55.6505,-82.4705,4.1566,1.4774,4.889878686730505,0,0.6
-55.5865,-81.9101,4.1195,1.4779,4.895260208783096,0,0.6
-55.5591,-81.3409,4.0855,1.4731,4.969474814280366,0,0.5
-55.5183,-80.7678,4.0787,1.4712,4.959428470799152,0,0.5
-55.411,-80.2275,4.0284,1.4698,5.011913626164769,0,0.5
-55.345,-79.6885,4.0454,1.4608,4.956108308480347,0,0.5
-55.3096,-79.1878,4.0585,1.4542,5.007387878710833,0,0.5
-55.2776,-78.626,4.0442,1.4459,4.891229151033566,0,0.6
-55.1988,-78.0891,3.9985,1.435,4.832329951517545,0,0.6
-55.1316,-77.5886,4.0039,1.425,4.698753953184702,0,0.7
-55.1044,-77.081,3.9634,1.4134,4.617885146429103,0,0.7
-55.0148,-76.572,3.9139,1.4028,4.453692919305423,0,0.8
-54.8959,-76.0597,3.9124,1.4003,4.538918897701041,0,0.7
-54.747,-75.5272,3.8362,1.3958,4.541901641906207,0,0.7
-54.7656,-74.9817,3.8433,1.3979,4.615203945635054,0,0.7
-54.7162,-74.4689,3.7981,1.4038,4.756259777674143,0,0.6
-54.5887,-73.9305,3.8145,1.406,4.819442479243845,0,0.6
-54.5171,-73.4032,3.7747,1.4048,4.834109982442397,0,0.6
-54.4389,-72.8852,3.7825,1.4002,4.817452891031221,0,0.6
-54.31,-72.3633,3.7576,1.3933,4.8263246024219235,0,0.6
-54.2258,-71.8592,3.7624,1.3844,4.8017323859965515,0,0.6
-54.1762,-71.3461,3.7124,1.3724,4.931804754654614,0,0.5
-54.1154,-70.8173,3.7026,1.3645,4.92688633080852,0,0.5
-53.9768,-70.27600000000001,3.6901,1.354,4.953869861006288,0,0.5
-53.8485,-69.7558,3.6799,1.3378,5.026851105771157,0,0.5
-53.7368,-69.2026,3.6316,1.3151,4.9912645628850605,0,0.5
-53.6239,-68.7045,3.6417,1.2936,4.913833030998188,0,0.5
-53.468,-68.1377,3.6182,1.2773,4.831975769824771,0,0.6
-53.3,-67.6345,3.6302,1.2673,4.876478757530153,0,0.6
-53.1754,-67.1216,3.5635,1.2532,4.805074812368021,0,0.6
-52.9727,-66.6248,3.5541,1.2466,4.857942778005724,0,0.6
-52.8091,-66.1046,3.5448,1.2344,4.980792372560259,0,0.5
-52.6742,-65.5953,3.5819,1.2285,5.155031519841577,0,0.4
-52.49,-65.07600000000001,3.5422,1.2209,5.170478423438382,0,0.4
-52.2768,-64.5242,3.5197,1.2208,5.225494146281735,0,0.4
-52.1229,-64.0338,3.5708,1.2266,5.275101918228109,0,0.4
-51.9293,-63.5333,3.5247,1.2335,5.1486341205009225,0,0.4
-51.7764,-63.0279,3.4443,1.2396,5.123907236056387,0,0.4
-51.626999999999995,-62.513000000000005,3.3799,1.2421,5.094002136512202,0,0.5
-51.4245,-62.0491,3.3911,1.2407,5.080423525622274,0,0.5
-51.2432,-61.4941,3.3681,1.2361,5.073058150576333,0,0.5
-51.09,-60.946999999999996,3.3974,1.2298,5.044967218160396,0,0.5
-50.9301,-60.4237,3.3765,1.2276,4.9811445004681305,0,0.5
-50.7328,-59.9071,3.3316,1.2226,5.023724524309579,0,0.5
-50.6273,-59.4035,3.4258,1.217,5.0715658708747675,0,0.5
-50.4552,-58.9264,3.4473,1.208,5.1008497655595075,0,0.4
-50.2643,-58.4535,3.4127,1.1986,5.1647089568931595,0,0.4
-50.0524,-57.9917,3.3111,1.1887,5.14224589814711,0,0.4
-49.8854,-57.5134,3.2697,1.1814,5.108147696995208,0,0.4
-49.6877,-57.0164,3.2883,1.1613,5.127773144785968,0,0.4
-49.5208,-56.5384,3.2918,1.1374,5.088418373012837,0,0.5
-49.2911,-56.0729,3.2198,1.1256,5.120393455889571,0,0.4
-49.071000000000005,-55.6001,3.1986,1.1291,5.175236317784304,0,0.4
-48.8829,-55.1351,3.1998,1.133,5.198532730888805,0,0.4
-48.6577,-54.6729,3.1824,1.1377,5.158707220024445,0,0.4
-48.4557,-54.1601,3.1375,1.1393,5.040793520096256,0,0.5
-48.2444,-53.6973,3.0979,1.1346,5.0712529240137485,0,0.5
-48.0318,-53.1918,3.0839,1.1208,5.138241587261877,0,0.4
-47.8162,-52.6723,3.0513,1.0947,5.215535259673915,0,0.4
-47.5856,-52.2022,3.0494,1.0571,5.275030794059567,0,0.4
-47.2882,-51.7346,3.028,1.0328,5.272025691127031,0,0.4
-47.0487,-51.2845,3.0143,1.0144,5.198284150419622,0,0.4
-46.7746,-50.8499,2.9774,0.9911,5.152242709035736,0,0.4
-46.5398,-50.4064,2.9521,0.972,5.045426843377369,0,0.5
-46.2609,-49.9804,2.9442,0.9497,5.0079304336571475,0,0.5
-45.9165,-49.5277,2.9182,0.9215,5.153239012090207,0,0.4
-45.5864,-49.108000000000004,2.9102,0.8942,5.155235993942698,0,0.4
-45.2409,-48.6758,2.8979,0.8707,5.06545411246845,0,0.5
-44.8506,-48.2541,2.8768,0.856,5.068256193772713,0,0.5
-44.5355,-47.8231,2.8639,0.8511,5.126527555200125,0,0.4
-44.1608,-47.4335,2.8292,0.8487,4.972662236364407,0,0.5
-43.7889,-47.0165,2.7971,0.8451,5.085958819180179,0,0.5
-43.4729,-46.5909,2.76,0.8598,5.154699663363889,0,0.4
-43.1064,-46.2453,2.7577,0.888,5.201737816445701,0,0.4
-42.7841,-45.818000000000005,2.7460000000000004,0.9217,5.153224337189864,0,0.4
-42.5039,-45.3813,2.737,0.96,5.173139206797794,0,0.4
-42.1878,-44.9552,2.7346,0.9701,5.095796586165488,0,0.5
-41.93899999999999,-44.5137,2.6879,0.9636,5.013326151076998,0,0.5
-41.5835,-44.0745,2.6547,0.9662,4.982074044849775,0,0.5
-41.3217,-43.6388,2.6287,0.9762,4.863797768366364,0,0.6
-41.0574,-43.2061,2.5918,0.9805,4.9266462571744665,0,0.5
-40.7992,-42.7482,2.573,0.9909,4.9272968501178,0,0.5
-40.4846,-42.3258,2.5456,1.0052,5.0377372851637565,0,0.5
-40.2176,-41.8912,2.5204,1.0118,5.127597080428951,0,0.4
-39.9733,-41.4275,2.5144,1.0195,5.370699381350311,0,0.3
-39.7228,-40.9521,2.4879,1.0282,5.503933935602584,0,0.2
-39.4486,-40.5029,2.4537,1.0199,5.611492131194646,0,0.2
-39.1919,-40.0647,2.4113,1.0128,5.644982914966501,0,0.2
-38.9288,-39.5951,2.3593,1.0142,5.600523149949829,0,0.2
-38.6418,-39.1119,2.3855,1.0181,5.537665897718983,0,0.2
-38.4115,-38.6338,2.3765,1.0152,5.428160846591825,0,0.3
-38.1002,-38.1997,2.2875,1.0070000000000001,5.3396656702796585,0,0.3
-37.834,-37.7681,2.2617,0.9992,5.169441801006889,0,0.4
-37.5691,-37.3008,2.2335,0.9938,5.075767123106578,0,0.5
-37.2782,-36.8643,2.1519,1.0021,4.905311694762323,0,0.5
-36.9665,-36.4058,2.1639,1.0073,4.791008417099362,0,0.6
-36.6698,-35.9273,2.01,1.0212,4.6748820057971034,0,0.7
-36.4095,-35.4304,2.099,1.0339,4.630095847574633,0,0.7
-36.1438,-34.9852,1.9936,1.0375,4.563845683708317,0,0.7
-35.8925,-34.4736,1.8233,1.0333,4.550201456251283,0,0.7
-35.5925,-34.0221,1.7615,1.0367,4.5735078751170235,0,0.7
-35.3234,-33.5193,1.732,1.0346,4.589181534230061,0,0.7
-35.080999999999996,-33.0725,1.6559,1.0284,4.670658581806724,0,0.7
-34.8071,-32.6368,1.699,1.0201,4.7302097826707055,0,0.6
-34.5234,-32.162,1.7325,1.0124,4.807660465441838,0,0.6
-34.2663,-31.7271,1.7189,1.0071,4.930604691635283,0,0.5
-33.9743,-31.2671,1.7021,1.0086,5.064376978555089,0,0.5
-33.7097,-30.8332,1.6847,1.0037,5.1922113815044515,0,0.4
-33.439,-30.3702,1.6414,0.9969,5.370895904594777,0,0.3
-33.1322,-29.9194,1.5268,0.9942,5.425052615389455,0,0.3
-32.8767,-29.4547,1.5765,0.9894,5.485164607540586,0,0.3
-32.6126,-29.0284,1.5667,0.9969,5.4958413796661185,0,0.3
-32.3426,-28.5915,1.6269999999999998,1.0122,5.382133874755096,0,0.3
-32.0548,-28.1023,1.5903,1.0371,5.3141945286726795,0,0.3
-31.8225,-27.6391,1.5844,1.0526,5.235078759046621,0,0.4
-31.5669,-27.1927,1.5919,1.0645,5.1870977424708915,0,0.4
-31.3182,-26.6886,1.5488,1.0672,5.159645028528825,0,0.4
-31.0511,-26.2544,1.4535,1.0764,5.214191692815793,0,0.4
-30.7943,-25.7604,1.3876,1.0906,5.177575238143971,0,0.4
-30.5857,-25.269000000000002,1.4153,1.0999,5.260984173108492,0,0.4
-30.3264,-24.8043,1.4102,1.1029,5.141131615562305,0,0.4
-30.0989,-24.2998,1.3942,1.1052,5.114667367549091,0,0.4
-29.8414,-23.7953,1.3861,1.1017,5.124686368003131,0,0.4
-29.6455,-23.2927,1.4452,1.097,5.190091871142396,0,0.4
-29.4106,-22.8382,1.4080000000000001,1.0916,5.158101284937914,0,0.4
-29.1564,-22.3798,1.3532,1.0866,5.198285679213074,0,0.4
-28.9332,-21.8569,1.4945,1.0791,5.180231770196529,0,0.4
-28.6576,-21.4386,1.2842,1.0778,5.20951186693121,0,0.4
-28.4451,-20.9759,1.2999,1.0748,5.2068626921008825,0,0.4
-28.1981,-20.5236,1.3019999999999998,1.074,5.272972868936784,0,0.4
-27.9368,-20.0638,1.2209,1.0732,5.356265878678849,0,0.3
-27.7317,-19.6011,1.2435,1.0714,5.472354988760358,0,0.3
-27.4487,-19.158,1.1614,1.0642,5.550923349822038,0,0.2
-27.1927,-18.6441,1.1646,1.0474,5.552899564872229,0,0.2
-26.9298,-18.1807,1.1053,1.0358,5.610308275947611,0,0.2
-26.643,-17.6911,1.0656,1.0225,5.646472901408829,0,0.2
-26.379,-17.2473,1.0682,1.0112,5.635626513606708,0,0.2
-26.1135,-16.816,1.0089,1.0016,5.60738838177979,0,0.2
-25.8771,-16.3344,1.2575,0.9958,5.558612352758422,0,0.2
-25.6025,-15.9067,1.2715,0.9958,5.497837887711969,0,0.3
-25.3477,-15.4543,1.2626,1.0001,5.533103294519507,0,0.2
-25.0363,-15.0135,1.107,1.0064,5.499233663703773,0,0.3
-24.7715,-14.5859,1.0947,1.0136,5.495400455474531,0,0.3
-24.5314,-14.1323,1.0513,1.0216,5.491337769569514,0,0.3
-24.2396,-13.7214,1.0629,1.0301,5.447952001118693,0,0.3
-24.003,-13.2791,1.1082,1.0344,5.282000528463705,0,0.4
-23.7276,-12.8397,1.1014,1.0343,5.1613786011652945,0,0.4
-23.5042,-12.3922,1.1125,1.0338,5.059054223281628,0,0.5
-23.2701,-11.9308,1.1737,1.0367,5.061362414920923,0,0.5
-23.0132,-11.4918,1.1169,1.0409,5.067554101944779,0,0.5
-22.7364,-11.0593,1.0282,1.0491,5.21162923061971,0,0.4
-22.5129,-10.6008,1.0666,1.0564,5.37344683371028,0,0.3
-22.2389,-10.1059,1.1401,1.0663,5.484806741923344,0,0.3
-21.9898,-9.6699,1.1407,1.0708,5.483713805290587,0,0.3
-21.7688,-9.199,1.1022,1.0699,5.564618831215698,0,0.2
-21.5082,-8.736,1.0718,1.0697,5.558948236922641,0,0.2
-21.2897,-8.2622,1.0933,1.0723,5.545058971641425,0,0.2
-21.0187,-7.7695,1.0406,1.0763,5.561787718967953,0,0.2
-20.753,-7.3069,0.9856,1.0671,5.5409693093358285,0,0.2
-20.4755,-6.8108,0.9787,1.0576,5.479417945086463,0,0.3
-20.2022,-6.3036,0.9987,1.0574,5.343927896391338,0,0.3
-19.9661,-5.8518,1.0046,1.0711,5.1997959188463465,0,0.4
-19.7209,-5.3964,0.9792,1.0903,5.128580465013623,0,0.4
-19.5278,-4.9205,0.9981,1.1181,5.083097059088098,0,0.5
-19.2955,-4.467,0.9215,1.1398,5.0106091984847865,0,0.5
-19.0359,-3.9602,0.9281,1.1364,4.990112786010329,0,0.5
-18.8502,-3.4653,0.9317,1.1138,4.931549935267604,0,0.5
-18.599,-2.9491,0.9282,1.0823,4.766063174264581,0,0.6
-18.3417,-2.4531,0.9604,1.0343,4.714232813887528,0,0.6
-18.0827,-2.0238,0.9301,0.9739,4.5644582744779,0,0.7
-17.8051,-1.6002,0.9688,0.8953,4.4917747878505025,0,0.8
-17.4933,-1.1996,0.9255,0.8689,4.488618610085489,0,0.8
-17.1335,-0.7551,0.9211,0.9407,4.480650419852228,0,0.8
-16.8099,-0.2581,0.8798,1.0639,4.459902850697237,0,0.8
-16.5923,0.2149,0.8702,1.1753,4.516925364155169,0,0.7
-16.4129,0.6946,0.8603,1.3105,4.522186177405512,0,0.7
-16.3192,1.2311,0.9221,1.4739,4.504177164446478,0,0.7
-16.3265,1.7503,0.9102,1.5177,4.508331430981798,0,0.7
-16.2702,2.2494,0.9156,1.5023,4.504414680779531,0,0.7
